{"architecture": [24, 256, 256, 128, 6], "activation": "relu", "weights": {"net.0.weight": [[0.17680837213993073, 0.0791759043931961, -0.08162540942430496, -0.035477038472890854, 0.07974764704704285, -0.09849526733160019, 0.2077273726463318, 0.03804799169301987, 1.4848514795303345, -0.348659485578537, 0.1670631617307663, 0.13431614637374878, 0.2289460152387619, 0.16325390338897705, 0.0024687135592103004, -0.03203773498535156, -0.089754119515419, -0.1593589186668396, -0.044285356998443604, -0.03223230317234993, 0.0667891874909401, -0.09470316767692566, 0.05877811461687088, -0.06913643330335617], [-0.11523999273777008, -0.05510883778333664, -0.06604647636413574, 0.16217546164989471, 0.04321163892745972, 0.07529934495687485, -0.09774194657802582, -0.058869607746601105, -1.4988547563552856, -0.18019987642765045, -0.06957663595676422, -0.10336925834417343, -0.2006746232509613, 0.04381934553384781, -0.03640875592827797, -0.04981190338730812, 0.1654987931251526, -0.13492321968078613, 0.05018344894051552, -0.22322280704975128, -0.15204505622386932, 0.06266523897647858, -0.15714123845100403, 0.07816832512617111], [0.08295287936925888, 0.26272180676460266, 0.10800947993993759, -0.07662969827651978, -0.0663548931479454, 0.10224799811840057, 0.19747576117515564, 0.08904121816158295, 0.2566657066345215, -1.1569572687149048, -0.10528497397899628, -0.015208294615149498, -0.2547432482242584, 0.1713140457868576, -0.02130603790283203, -0.08089712262153625, 0.18484088778495789, 0.01054268330335617, -0.07356435060501099, 0.06514520943164825, -0.10535117983818054, 0.06906954199075699, 0.20031219720840454, -0.09733008593320847], [0.05493105202913284, 0.19023430347442627, -0.04518398642539978, -0.027500463649630547, -0.10192088037729263, -0.2558286488056183, 0.04061230272054672, -0.06740386039018631, 0.06151552498340607, 0.010991067625582218, 0.09011875838041306, 0.1005931869149208, 0.12302643060684204, -0.06235448643565178, 0.059632305055856705, 0.27079734206199646, 0.4204654395580292, -0.10970139503479004, 0.158262699842453, 0.09909793734550476, 0.21178896725177765, -0.1489565372467041, -0.10030332207679749, -0.03910024091601372], [-0.11164385825395584, -0.12693871557712555, 0.011265612207353115, -0.20998939871788025, -0.152668297290802, 0.1444130390882492, -0.13837690651416779, -0.02836429327726364, -0.17675894498825073, -0.3703606128692627, 0.013614639639854431, -0.03108440712094307, -0.07323482632637024, -0.08806433528661728, 0.03110063448548317, -0.1411980241537094, -0.05281494930386543, -0.04229680448770523, -0.1023346558213234, 0.11817487329244614, 0.10049793869256973, 0.04832473769783974, 0.2011849582195282, 0.10741255432367325], [-0.031170453876256943, 0.3096032738685608, 0.14320069551467896, -0.16085655987262726, -0.06752454489469528, 0.11495501548051834, 0.04946247488260269, -0.012548125348985195, -0.48913848400115967, 0.768197774887085, -0.03063104674220085, -0.20878075063228607, -0.0710182934999466, 0.1421046406030655, -0.05811943858861923, -0.008456290699541569, 0.18544872105121613, -0.13213752210140228, -0.08839970082044601, 0.018798798322677612, 0.04595106095075607, -0.21908000111579895, -0.17987549304962158, 0.18952172994613647], [-0.2380731701850891, -0.2245544195175171, -0.22037392854690552, 0.06539751589298248, 0.3046492636203766, -0.06038727983832359, 0.24120406806468964, -0.18170017004013062, -0.10210233926773071, -0.0074211726896464825, -0.15587355196475983, -0.12438798695802689, 0.03640669584274292, -0.0765547975897789, -0.13784268498420715, -0.13096220791339874, -0.19170516729354858, 0.009701409377157688, -0.09788182377815247, 0.07646036148071289, -0.1532069742679596, -0.14769254624843597, -0.1478380411863327, -0.20416444540023804], [-0.11309078335762024, -0.09177280217409134, 0.03920115530490875, -0.018777569755911827, -0.03487157076597214, 0.08628429472446442, -0.05199834704399109, 0.16145558655261993, 0.298742413520813, -0.19698603451251984, -0.05695604905486107, 0.25443634390830994, -0.12094105780124664, 0.12130528688430786, 0.006679004058241844, 0.01787586696445942, -0.07304491102695465, -0.059892889112234116, 0.2738359272480011, -0.04740015044808388, -0.1922265738248825, -0.01540426630526781, 0.019144993275403976, 0.051083289086818695], [0.16441482305526733, 0.044711124151945114, 0.06427622586488724, -0.037669431418180466, 0.1157015934586525, -0.1252111941576004, -0.0020857895724475384, 0.003345031989738345, -1.9196622371673584, -0.8747662901878357, 0.07590720802545547, -0.028791382908821106, -0.025700803846120834, 0.13916514813899994, 0.06521538645029068, -0.13783007860183716, -0.04559648782014847, 0.12914223968982697, 0.025498833507299423, -0.03613131120800972, 0.1111525446176529, -0.1283818632364273, -0.051343709230422974, -0.19152681529521942], [0.012952727265655994, -0.18163515627384186, 0.23748353123664856, -0.03515860438346863, 0.13396801054477692, 0.09948121011257172, -0.09773416817188263, 0.13425959646701813, -0.013631968759000301, -0.004987353924661875, 0.27586477994918823, 0.1673693060874939, -0.019618773832917213, 0.18172438442707062, -0.2724967896938324, 0.31550994515419006, 0.0824790820479393, -0.1186707615852356, -0.09847358614206314, 0.05527215078473091, -0.15415501594543457, 0.13884641230106354, -0.12764379382133484, 0.02635565586388111], [-0.0215859804302454, -0.2567318379878998, 0.07360061258077621, -0.17015251517295837, -0.3443981111049652, 0.12568630278110504, 0.09066135436296463, 0.08427601307630539, 1.4144140481948853, 0.5191937685012817, -0.10555543005466461, 0.3009510636329651, -0.07775382697582245, -0.16168519854545593, 0.19197885692119598, -0.12308062613010406, 0.01124129444360733, -0.26949289441108704, 0.03024202771484852, -0.047048892825841904, 0.11353355646133423, 0.07104379683732986, -0.06024472415447235, 0.09240774065256119], [-0.04428374022245407, 0.11671946942806244, 0.049553096294403076, -0.020229848101735115, -0.30082497000694275, 0.2042810320854187, -0.10739287734031677, -0.1098845824599266, 1.9011945724487305, 0.20397435128688812, -0.027418363839387894, 0.09114312380552292, -0.14423689246177673, 0.047856636345386505, -0.06627333909273148, -0.007935796864330769, 0.08699779212474823, -0.014303303323686123, -0.17297807335853577, -0.3649679720401764, 0.1906544268131256, -0.181415393948555, 0.06123709678649902, 0.046627577394247055], [0.1323135644197464, 0.1406874656677246, 0.07105589658021927, 0.06302323192358017, 0.11620735377073288, 0.13811960816383362, -0.22558535635471344, -0.17735393345355988, -0.03173507750034332, 0.010938955470919609, -0.023469962179660797, -0.11477275937795639, -0.0008228772785514593, -0.33878427743911743, 0.053135890513658524, -0.05081918090581894, 0.03715307638049126, 0.524969756603241, 0.1487770527601242, -0.008402049541473389, -0.09966607391834259, 0.015621439553797245, 0.10185456275939941, 0.006172006484121084], [-0.014149206690490246, -0.4492238163948059, -0.06940565258264542, 0.09626632183790207, 0.1826382279396057, -0.043978191912174225, -0.14040040969848633, 0.17365871369838715, -1.8344846963882446, -0.11988600343465805, -0.03796353563666344, 0.1972489058971405, -0.028004733845591545, -0.04673566296696663, -0.03809646517038345, -0.09219077229499817, -0.09969255328178406, 0.08450652658939362, -0.048789069056510925, -0.20433209836483002, 0.019902480766177177, 0.03688229247927666, 0.07091587036848068, 0.0318126305937767], [-0.07679270207881927, 0.021167829632759094, -0.10124319046735764, 0.09467288851737976, -0.1510493904352188, -0.11776255816221237, 0.3554653525352478, -0.08973141759634018, 0.6646393537521362, -0.2606935203075409, 0.1907210499048233, -0.23508654534816742, -0.023299474269151688, -0.18775348365306854, -0.058559536933898926, 0.04503300413489342, 0.06272084265947342, 0.13147616386413574, -0.04127633571624756, 0.06943397223949432, 0.10687311738729477, 0.2381293624639511, -0.22242911159992218, -0.3554169237613678], [0.09469657391309738, 0.10920432209968567, 0.16177861392498016, 0.07673237472772598, -0.01713727042078972, -0.08865033090114594, 0.05062182992696762, -0.10929102450609207, -0.3983851373195648, 1.2985244989395142, -0.013547482900321484, -0.19298069179058075, 0.18380826711654663, 0.10037633776664734, -0.009284359402954578, -0.2079709768295288, 0.2785003185272217, 0.11880172044038773, -0.15281328558921814, -0.2324409782886505, 0.047778740525245667, -0.0923667848110199, 0.006363518536090851, 0.14607559144496918], [0.05757083371281624, 0.3015444278717041, 0.10501841455698013, -0.21600356698036194, -0.020441550761461258, 0.00345300673507154, -0.06387842446565628, -0.09506933391094208, -0.3698986768722534, 0.1307639181613922, 0.09717798233032227, -0.0014133970253169537, -0.23177337646484375, -0.1369691789150238, 0.14277859032154083, -0.15556594729423523, -0.05388326197862625, 0.19577352702617645, -0.12061302363872528, 0.026666253805160522, 0.07411597669124603, 0.011908678337931633, 0.08205405622720718, -0.05940217524766922], [-0.0446004755795002, -0.4300256073474884, 0.018722612410783768, 0.06990690529346466, 0.018006402999162674, -0.10172874480485916, -0.050659988075494766, 0.05790587142109871, -0.2021428644657135, -0.0877499207854271, -0.2253257781267166, 0.13040593266487122, -0.06775344163179398, -0.3000825345516205, 0.2869434058666229, 0.07384896278381348, -0.32696598768234253, 0.10649950802326202, -0.09206592291593552, 0.08906827121973038, 0.01942138932645321, 0.23912274837493896, -0.07506895810365677, -0.17573843896389008], [-0.20287014544010162, 0.07928977161645889, -0.1638028919696808, -0.19569885730743408, 0.049959633499383926, -0.023796357214450836, -0.15369710326194763, -0.015308883041143417, -0.06608100980520248, -0.08103696256875992, 0.008933191187679768, 0.035600487142801285, 0.008147341199219227, 0.04050689935684204, -0.19180423021316528, 0.16458168625831604, -0.0639558732509613, -0.05675897374749184, 0.04008515179157257, -0.18004092574119568, 0.007044376339763403, -0.07137317955493927, -0.15759648382663727, -0.13988734781742096], [0.12262364476919174, -0.03697112575173378, -0.11368592828512192, -0.18513718247413635, -0.16676075756549835, -0.09478184580802917, 0.1928267627954483, 0.048499640077352524, -0.43059492111206055, 0.17676088213920593, 0.08981164544820786, 0.4372755289077759, 0.16295428574085236, -0.28920263051986694, 0.10520700365304947, 0.21257051825523376, -0.004581316374242306, 0.2886921763420105, -0.17814138531684875, -0.02100808173418045, 0.09569989144802094, -0.2822430431842804, -0.06824508309364319, 0.10484800487756729], [-0.11011948436498642, 0.08225540071725845, 0.1615169793367386, 0.14875806868076324, -0.314650297164917, -0.03405578434467316, 0.19750136137008667, 0.13426002860069275, -2.0724735260009766, 0.7336305975914001, 0.047666408121585846, -0.14387081563472748, 0.026388440281152725, -0.025984127074480057, 0.14342501759529114, -0.14555732905864716, -0.1468619704246521, -0.05078001692891121, 0.04387778043746948, -0.18376293778419495, -0.01921621523797512, -0.049937326461076736, -0.09475646167993546, 0.03492758050560951], [-0.043180130422115326, -0.15641282498836517, -0.10560379177331924, 0.18788762390613556, -0.12330332398414612, 0.15292447805404663, -0.07446199655532837, -0.14082613587379456, -1.9241915941238403, 0.10212398320436478, -0.01990090310573578, -0.09775207191705704, -0.10962168872356415, 0.0070878975093364716, -0.07333951443433762, 0.1264820694923401, 0.24058502912521362, 0.07499679177999496, -0.10186900198459625, -0.04621083289384842, 0.18253658711910248, -0.0013100680662319064, -0.07085263729095459, 0.12487559765577316], [-0.11984074860811234, -0.1229904517531395, 0.060748789459466934, 0.09017307311296463, 0.18184354901313782, 0.025591639801859856, 0.13187608122825623, 0.13101807236671448, 0.19296124577522278, 1.0432490110397339, -0.16802087426185608, -0.15296387672424316, -0.2385748326778412, 0.14466777443885803, 0.011840124614536762, -0.20447760820388794, -0.06249326840043068, 0.18142510950565338, 0.02996428869664669, -0.4084882140159607, 0.04004444181919098, -0.17779524624347687, 0.10841736942529678, 0.15916405618190765], [0.19633786380290985, -0.13849052786827087, 0.16740141808986664, 0.20754972100257874, -0.07531692087650299, -0.024789506569504738, 0.10023298114538193, -0.18413734436035156, 0.574757993221283, 0.008103604428470135, -0.0746825709939003, -0.4886144995689392, -0.1468791365623474, -0.10501762479543686, -0.15342935919761658, 0.13106660544872284, -0.18461444973945618, 0.05377271771430969, -0.033894285559654236, -0.1634020358324051, -0.05226863548159599, -0.02310343086719513, -0.154811829328537, -0.12468215823173523], [-0.08050983399152756, 0.24504946172237396, -0.13917064666748047, 0.06767528504133224, -0.07642512023448944, -0.1912575364112854, -0.15895827114582062, 0.03624037653207779, 0.8411943316459656, 0.32336708903312683, -0.00861271284520626, 0.23762363195419312, 0.08619795739650726, 0.17704613506793976, 0.03524494916200638, 0.16416442394256592, 0.24764646589756012, 0.07170524448156357, 0.08181259036064148, 0.0423106923699379, 0.02337905392050743, -0.10493550449609756, -0.20466819405555725, 0.023166634142398834], [0.12680953741073608, -0.07001347839832306, 0.15762959420681, -0.031624697148799896, -0.18281190097332, 0.11503877490758896, 0.025363437831401825, -0.045822881162166595, -1.8913841247558594, 1.2529280185699463, 0.1295965611934662, -0.05751827731728554, -0.10869351029396057, 0.16153843700885773, -0.011081431061029434, -0.1211971640586853, 0.07974082976579666, -0.011860204860568047, -0.014433667995035648, -0.38382819294929504, -0.029811030253767967, 0.03172117844223976, -0.1950731724500656, 0.06823333352804184], [-0.03219179809093475, -0.6662101745605469, 0.2076384723186493, -0.17190472781658173, -0.0010454296134412289, 0.032278746366500854, -0.16413237154483795, -0.077562615275383, 0.07213235646486282, -0.40710899233818054, 0.13420675694942474, 0.09179200977087021, -0.20596730709075928, -0.05269131436944008, -0.10657661408185959, 0.17405670881271362, -0.21000869572162628, 0.2805883586406708, -0.143712118268013, -0.2059236764907837, -0.07204446941614151, -0.1912786364555359, -0.11327984929084778, 0.06674839556217194], [-0.11028512567281723, 0.21445715427398682, -0.10395422577857971, -0.2320544272661209, 0.12618814408779144, -0.0023706513457000256, 0.014768498949706554, 0.14222697913646698, 1.0820770263671875, 0.5320960879325867, -0.23851163685321808, -0.27347931265830994, 0.023550869897007942, -0.06512892246246338, -0.1388821303844452, -0.22967705130577087, -0.40677446126937866, 0.05763985216617584, 0.11777841299772263, 0.08462314307689667, 0.1419583112001419, 0.16192412376403809, -0.1863318681716919, -0.13733811676502228], [0.0005822909879498184, -0.02660594880580902, 0.0038915486074984074, 0.037790004163980484, -0.1893072873353958, -0.015171291306614876, 0.027386942878365517, 0.057931412011384964, -1.2510125637054443, -0.751022458076477, -0.0464024655520916, 0.20317606627941132, -0.13195866346359253, 0.035060252994298935, 0.03588803485035896, 0.11583422124385834, 0.0008988429908640683, 0.10250035673379898, -0.174869567155838, -0.0154380789026618, -0.05903339013457298, 0.019502349197864532, -0.11677882820367813, -0.059434227645397186], [-0.0788104459643364, -0.12421061843633652, -0.12711569666862488, 0.17214566469192505, -0.12729644775390625, 0.021823665127158165, 0.043904487043619156, -0.15846021473407745, -0.04761001467704773, -0.13424287736415863, -0.1795433759689331, -0.13635532557964325, 0.13501793146133423, 0.06478666514158249, -0.15749603509902954, 0.17776334285736084, -0.19777773320674896, -0.1225104108452797, 0.1828455775976181, -0.19235268235206604, -0.10318100452423096, 0.1729806363582611, 0.1846729815006256, -0.10717220604419708], [0.04002515599131584, -0.272962749004364, -0.09586811065673828, -0.14788828790187836, -0.06654229760169983, -0.003113631857559085, 0.02977827377617359, 0.18892642855644226, -0.5701717138290405, 0.18140853941440582, 0.12031727284193039, -0.19890262186527252, -0.16497503221035004, -0.0670296773314476, 0.1727631837129593, -0.20047716796398163, 0.02036060020327568, -0.0008849035948514938, -0.016291175037622452, -0.2259449064731598, 0.07889917492866516, 0.009048759937286377, -0.06306800991296768, -0.08299192786216736], [-0.019810875877738, 0.26114901900291443, 0.12789344787597656, 0.1702941507101059, -0.11952921003103256, 0.07286129891872406, 0.14095249772071838, -0.017222438007593155, -0.7920928597450256, -0.8411640524864197, 0.19324977695941925, -0.19301438331604004, 0.03725665435194969, -0.032660599797964096, -0.1581110954284668, 0.10258767753839493, -0.1420208364725113, -0.053841907531023026, 0.1318710893392563, -0.2715624272823334, 0.20870168507099152, -0.04632652923464775, 0.047727763652801514, 0.1340629905462265], [-0.19098708033561707, 0.1103915199637413, -0.06650204211473465, -0.0350680872797966, -0.02795027755200863, 0.08311101794242859, 0.1663629114627838, -0.15102830529212952, -0.0783584713935852, -0.08272360265254974, -0.19845011830329895, 0.18386821448802948, 0.09924088418483734, 0.14189840853214264, 0.15572230517864227, 0.09385502338409424, 0.14717727899551392, 0.11327987909317017, -0.026318512856960297, -0.008555288426578045, -0.13199616968631744, -0.24514837563037872, -0.12636907398700714, -0.12950965762138367], [-0.07797973603010178, -0.14656811952590942, -0.02088247425854206, 0.12402786314487457, -0.09555144608020782, 0.011851782910525799, -0.10241665691137314, 0.05334770679473877, 1.4336562156677246, 0.7807337045669556, 0.09391157329082489, -0.18922236561775208, -0.12140025198459625, -0.10257573425769806, 0.13844940066337585, -0.021811002865433693, -0.10440567880868912, 0.05076674744486809, -0.11848574876785278, -0.5213483572006226, -0.10130112618207932, 0.11608719825744629, -0.11129137873649597, 0.08676771819591522], [0.1039963960647583, -0.09680546075105667, 0.20300522446632385, 0.09621518105268478, 0.12777425348758698, 0.08813443779945374, 0.09479116648435593, 0.17587745189666748, -0.8030451536178589, 0.2050665020942688, -0.15542781352996826, 0.3359587788581848, -0.012586167082190514, 0.2039821445941925, -0.16135762631893158, -0.09325596690177917, 0.0935753732919693, 0.11056961864233017, -0.0667557418346405, -0.024167947471141815, 0.018860498443245888, 0.05232330784201622, 0.07698895782232285, -0.2415531575679779], [0.2188611924648285, 0.3375262916088104, 0.24506112933158875, 0.05297970399260521, 0.04900527000427246, 0.037478163838386536, 0.08649957925081253, 0.012535217218101025, 0.3832625150680542, 0.8685116767883301, 0.15760958194732666, 0.0968194380402565, -0.16023460030555725, 0.00843465980142355, 0.22625932097434998, 0.003937520552426577, 0.20198935270309448, -0.11486194282770157, -0.0006487114587798715, -0.3810613751411438, -0.014884665608406067, -0.10899773240089417, 0.090901680290699, 0.19183455407619476], [0.14443232119083405, 0.1795153021812439, 0.20638985931873322, -0.05940040946006775, 0.19058680534362793, -0.0296005979180336, 0.1259174644947052, 0.08457975834608078, -0.5829818844795227, 0.7428770065307617, -0.061542853713035583, 0.13351930677890778, -0.16646835207939148, -0.10416088253259659, -0.0014574158703908324, 0.19982591271400452, 0.36792293190956116, 0.06081265211105347, 0.07393227517604828, 0.19842059910297394, 0.1375320851802826, 0.042752813547849655, -0.12143553048372269, 0.13777649402618408], [0.0447751022875309, -0.03389151394367218, 0.05021366849541664, -0.01677805371582508, -0.0712270513176918, 0.08893734961748123, -0.04509976506233215, -0.0379042886197567, 0.20443999767303467, -0.1025702953338623, 0.25241902470588684, -0.06665500998497009, -0.06405416131019592, 0.09306782484054565, 0.03846273198723793, 0.4531427323818207, 0.2748236358165741, 0.1576758772134781, -0.13099707663059235, -0.08764208108186722, 0.027225397527217865, -0.05749326944351196, -0.1417316049337387, 0.08894971013069153], [-0.031472451984882355, -0.007526805624365807, 0.060924820601940155, -0.15055088698863983, -0.03207487240433693, -0.09766844660043716, -0.053614407777786255, -0.015671659260988235, -0.08089430630207062, -0.03464954346418381, 0.12341306358575821, -1.4430240392684937, -0.03485039621591568, 0.13456599414348602, -0.0871897041797638, -0.03795703500509262, 0.05763847008347511, -0.03368360176682472, 0.04847453907132149, -0.055749956518411636, 0.10600829124450684, -0.07402752339839935, 0.17746616899967194, 0.13374319672584534], [0.06423037499189377, -0.05336250364780426, 0.04961950331926346, -0.008846325799822807, -0.16553714871406555, -0.08867298066616058, -0.09086690098047256, 0.1316809058189392, 1.3475128412246704, 0.6360858082771301, 0.16850242018699646, 0.1652289181947708, 0.03741821274161339, -0.07765509933233261, 0.018298128619790077, -0.1892836093902588, -0.09432964771986008, 0.09498445689678192, -0.0002419743686914444, -0.4445941150188446, -0.0835288017988205, -0.06643795222043991, 0.04147779196500778, 0.10905247181653976], [0.21917571127414703, 0.016790688037872314, -0.09453178197145462, -0.15081609785556793, 0.10856883227825165, 0.13539652526378632, 0.09058979898691177, -0.09697992354631424, 2.0004072189331055, -0.39496421813964844, 0.1408628672361374, -0.015775464475154877, -0.19861015677452087, 0.1727769821882248, -0.11603757739067078, -0.015262795612215996, -0.06659050285816193, 0.01436037290841341, 0.09977906197309494, -0.0944804921746254, 0.10603165626525879, -0.04118549823760986, -0.09623783081769943, 0.09723660349845886], [0.23179343342781067, 0.029723670333623886, 0.08974786102771759, -0.02077307179570198, 0.1038535088300705, 0.023960188031196594, 0.030252067372202873, 0.07590921968221664, -2.433598041534424, -0.8351845145225525, -0.06763124465942383, 0.10669608414173126, 0.013618241995573044, -0.11256412416696548, 0.09750846773386002, -0.10878229141235352, 0.11064334213733673, -0.035336241126060486, 0.043203115463256836, 0.4522411525249481, 0.01235656626522541, 0.043912313878536224, 0.01720709726214409, 0.016284454613924026], [-0.2300906777381897, 0.08470156043767929, -0.02955811843276024, -0.1505381315946579, -0.049650344997644424, -0.09735552221536636, 0.017560014501214027, 0.07773899286985397, -0.34481069445610046, 0.5233337879180908, 0.15490639209747314, -0.04265519976615906, -0.18106143176555634, -0.015647144988179207, -0.06250413507223129, -0.062191080302000046, -0.1886875480413437, -0.0009499720763415098, -0.000557567982468754, 0.28118225932121277, -0.05909351631999016, -0.010504765436053276, -0.1493392288684845, -0.05328419804573059], [-0.03011103719472885, 0.23255853354930878, -0.0861465260386467, 0.10100167244672775, 0.1958501785993576, -0.20765097439289093, 0.12232279032468796, -0.12996603548526764, 0.753996729850769, 0.008098114281892776, 0.09352953732013702, 0.005642620846629143, 0.5323957204818726, -0.04236266016960144, -0.07865309715270996, 0.005843281280249357, -0.21183453500270844, -0.17425435781478882, 0.16954457759857178, 0.013483806513249874, -0.005486873909831047, 0.04027561843395233, 0.028042351827025414, 0.03259875997900963], [0.14701411128044128, 0.22166329622268677, -0.10716855525970459, -0.1378123164176941, -0.01216648519039154, 0.10208869725465775, -0.20589782297611237, -0.19078785181045532, 1.3692882061004639, 0.21421973407268524, 0.15251894295215607, -0.2570505440235138, -0.06489942967891693, 0.04535597562789917, 0.12297526746988297, -0.21299666166305542, 0.12797363102436066, -0.07182908803224564, 0.0872885212302208, 0.011338956654071808, 0.06790952384471893, 0.1323883980512619, 0.07975683361291885, 0.20668916404247284], [0.08777979016304016, -0.062152814120054245, -0.09962775558233261, -0.0029713439289480448, 0.058292120695114136, -0.12289419025182724, -0.09741827845573425, 0.21375693380832672, -1.7899937629699707, -0.2023998647928238, -0.08186675608158112, -0.06729783862829208, 0.1962212473154068, 0.010537651367485523, 0.16356965899467468, -0.028905285522341728, 0.22423602640628815, -0.02030743844807148, 0.10828108340501785, -0.09691815078258514, 0.06712502986192703, -0.18599474430084229, -0.11296458542346954, 0.1881583034992218], [0.08156024664640427, -0.20562903583049774, -0.1478857845067978, 0.03453678637742996, -0.20488089323043823, -0.1651902049779892, 0.2200927734375, 0.02961200848221779, 0.2816201150417328, -0.6071439385414124, 0.04714549705386162, 0.3089091181755066, -0.20971336960792542, -0.02039283514022827, 0.13950654864311218, -0.1709696352481842, 0.0570666640996933, -0.010370264761149883, 0.19091428816318512, -0.02027062699198723, 0.1605457365512848, 0.1457211822271347, -0.07097695022821426, 0.17066076397895813], [-0.11992862820625305, -0.028496049344539642, -0.0645289495587349, -0.022148262709379196, 0.014590010978281498, -0.14606334269046783, -0.14249958097934723, 0.18908432126045227, -1.2344344854354858, 0.7036411762237549, -0.13680517673492432, -0.021052798256278038, -0.07572674751281738, -0.07428957521915436, 0.12748384475708008, 0.1392660290002823, 0.2251192182302475, 0.03263702243566513, 0.13953229784965515, -0.4005153179168701, 0.06681932508945465, 0.08980764448642731, -0.010339586064219475, 0.15721122920513153], [0.14088977873325348, -0.19710220396518707, 0.047738149762153625, 0.17632640898227692, -0.08002916723489761, -0.02836332470178604, 0.029542241245508194, -0.0014122925931587815, -0.28990375995635986, 0.16070155799388885, -0.017260568216443062, 0.1436866670846939, 0.012435308657586575, -0.01065325178205967, 0.0013540885411202908, -0.05066976696252823, -0.21165570616722107, -0.21353483200073242, 0.1055087298154831, -0.020338017493486404, 0.1430070549249649, -0.11472640186548233, -0.1517895609140396, -0.10593565553426743], [0.08335104584693909, 0.09990126639604568, 0.15397365391254425, -0.05567687377333641, -0.02290417067706585, -0.19145534932613373, 0.02222881279885769, 0.016528505831956863, -0.24798357486724854, 1.5539590120315552, 0.05309751257300377, 0.059782736003398895, -0.17752929031848907, -0.0034281958360224962, -0.20021289587020874, 0.11353155225515366, -0.10135430097579956, 0.015734706073999405, 0.022122612223029137, 0.045639339834451675, 0.17005333304405212, 0.07404687255620956, -0.08114167302846909, 0.06423044204711914], [-0.047808315604925156, 0.26369619369506836, -0.1750740110874176, 0.10375037789344788, 0.07155263423919678, -0.12159932404756546, -0.10815607756376266, -0.1707460582256317, 0.06469368189573288, -0.5886667370796204, 0.20479416847229004, -0.5098668336868286, -0.05160797759890556, 0.01738123968243599, -0.2720135450363159, -0.10205885022878647, -0.24284309148788452, 0.10421819239854813, 0.05444525554776192, -0.14651235938072205, -0.18173350393772125, 0.06526414304971695, -0.1053541824221611, 0.05266273021697998], [0.007985319942235947, 0.2667244076728821, 0.08735726028680801, 0.013767753727734089, -0.02498171664774418, -0.1796858012676239, 0.22455620765686035, 0.06620631366968155, -0.6068437099456787, -0.1016133576631546, 0.10679750144481659, 0.4974972903728485, 0.12790416181087494, -0.007434159051626921, -0.11620480567216873, 0.18059729039669037, -0.19641940295696259, -0.14822179079055786, -0.05025893449783325, 0.22734017670154572, -0.047335363924503326, -0.04209543764591217, 0.10692884773015976, 0.007811716292053461], [0.23712888360023499, -0.4157531261444092, -0.01950880140066147, 0.06498109549283981, -0.10546283423900604, -0.016760289669036865, 0.3869270384311676, -0.03910757973790169, -0.45768290758132935, 0.0396292544901371, -0.10078778862953186, 0.15826429426670074, 0.015588016249239445, 0.0699533224105835, -0.062726229429245, 0.06693489849567413, 0.08998799324035645, -0.38001078367233276, 0.1664818972349167, 0.019920948892831802, -0.017354317009449005, -0.07537190616130829, -0.04052532836794853, 0.10619158297777176], [-0.28403735160827637, 0.25431767106056213, -0.10259048640727997, 0.01700984314084053, -0.005978548899292946, 0.18449382483959198, -0.057142067700624466, 0.14825421571731567, -0.4004124104976654, -0.11944998055696487, 0.07998085021972656, 0.030052514746785164, -0.033949144184589386, 0.16859763860702515, -0.14180108904838562, 0.23331528902053833, 0.0989636555314064, -0.022892359644174576, -0.11589828133583069, 0.08436385542154312, 0.08469296246767044, 0.11538242548704147, -0.08251652866601944, 0.003636167850345373], [-0.0511963814496994, -0.1758497953414917, -0.14362961053848267, -0.14340105652809143, 0.026161449030041695, -0.07224880903959274, 0.012906616553664207, 0.2554847300052643, 0.013712999410927296, -0.2312876135110855, 0.18589122593402863, 0.12064038962125778, -0.30003589391708374, -0.5866631865501404, -0.15353378653526306, 0.08125431835651398, 0.1274709552526474, 0.031524401158094406, 0.06833440065383911, 0.017208337783813477, 0.011089062318205833, 0.14984676241874695, -0.1510581523180008, -0.062077827751636505], [-0.013358327560126781, -0.33428725600242615, -0.05372660607099533, 0.05479712411761284, 0.10050548613071442, 0.09361141175031662, -0.020524851977825165, 0.07019337266683578, -0.7631492018699646, -0.08303231000900269, 0.046677879989147186, -0.09387113153934479, 0.2243870198726654, 0.11943108588457108, 0.14034441113471985, -0.11703503876924515, 0.21706074476242065, 0.02934143878519535, -0.12019073963165283, -0.035437215119600296, -0.10375285893678665, -0.14377188682556152, -0.19039423763751984, 0.14744886755943298], [0.11580763757228851, -0.1442757099866867, 0.08723492920398712, 0.0885542780160904, -0.14761722087860107, 0.0872824415564537, 0.029135042801499367, 0.11973635852336884, 0.01903800666332245, 0.022412758320569992, -0.010620844550430775, 0.12731528282165527, 0.36047598719596863, 0.1610444039106369, -0.17676247656345367, -0.08570954203605652, 0.04126347601413727, 0.07807570695877075, 1.087941288948059, 0.1803649663925171, -0.012608369812369347, 0.09859659522771835, -0.1543259471654892, 0.08778823912143707], [0.1538599282503128, 0.060271501541137695, 0.08035409450531006, -0.09606922417879105, 0.0229438915848732, -0.011088813655078411, -0.15246126055717468, 0.056736670434474945, -0.40345147252082825, -0.379471093416214, -0.13745127618312836, -0.1386570930480957, -0.12036563456058502, -0.009082854725420475, -0.14027941226959229, 0.17354919016361237, 0.12301811575889587, 0.23018985986709595, 0.06136065348982811, -0.24305441975593567, -0.006263408809900284, 0.1714257448911667, -0.17119835317134857, 0.0114767299965024], [0.1026221513748169, 0.09118247032165527, 0.10459671914577484, -0.03407105803489685, 0.15216954052448273, -0.14912939071655273, -0.08847986161708832, 0.06959018856287003, -2.3951566219329834, -0.024763930588960648, 0.21207210421562195, 0.14585378766059875, 0.12030909210443497, -0.07977039366960526, 0.275495320558548, -0.1296277493238449, -0.0881328359246254, 0.028473753482103348, 0.015352721326053143, -0.033362895250320435, -0.17577232420444489, 0.10345768183469772, 0.04942107945680618, 0.17249944806098938], [-0.1099541187286377, -0.05713355168700218, 0.06120773032307625, -0.02245609275996685, 0.07205236703157425, -0.06203962862491608, 0.24818545579910278, 0.21544715762138367, -0.5911433696746826, -0.013018595986068249, 0.027223940938711166, 0.06977827847003937, 0.010141583159565926, 0.11365201324224472, -0.07012932002544403, -0.11471810191869736, -0.014619875699281693, -0.2041233330965042, 0.20377296209335327, -0.0761062428355217, 0.13891835510730743, 0.03742992877960205, 0.10317585617303848, -0.22913704812526703], [0.2207084447145462, 0.37662914395332336, -0.11612777411937714, 0.057815466076135635, -0.17351815104484558, 0.05723237246274948, -0.10773594677448273, 0.19351570308208466, 0.1589379757642746, 0.08955753594636917, -0.032599613070487976, 0.1135392114520073, 0.24438680708408356, -0.02381192147731781, 0.021432068198919296, 0.1462564617395401, 0.0029555000364780426, 0.03416348621249199, 0.0565979927778244, -0.037268880754709244, 0.055658917874097824, 0.08441978693008423, -0.04420601949095726, 0.02510279417037964], [-0.15453442931175232, -0.15216749906539917, 0.04381265863776207, 0.023872271180152893, -0.08266762644052505, -0.21528638899326324, -0.13558979332447052, -0.030922044068574905, 0.08244093507528305, 0.1293552815914154, 0.0003115904692094773, 0.09236010164022446, 0.10939820110797882, -0.2751057744026184, -0.3047693371772766, -0.13172273337841034, -0.01509961485862732, 0.037727728486061096, -0.1646874099969864, 0.0023035365156829357, 0.13417518138885498, -0.11786989867687225, -0.1654842495918274, -0.05252895876765251], [0.0142307598143816, 0.2299017310142517, 0.20271679759025574, -0.18359734117984772, 0.1654367744922638, -0.008523097261786461, 5.236375727690756e-05, 0.09845846146345139, -1.7994461059570312, -1.114548683166504, 0.21355010569095612, -0.11240735650062561, 0.11786971986293793, 0.06594749540090561, -0.020015329122543335, -0.18066927790641785, 0.0055113863199949265, 0.07911563664674759, -0.06560718268156052, -0.015133279375731945, 0.13713592290878296, 0.05890724062919617, -0.05743275210261345, -0.12594087421894073], [-0.06638573110103607, 0.08579123020172119, 0.13763388991355896, 0.12727317214012146, 0.10451599955558777, -0.07502153515815735, 0.016486842185258865, -0.026820650324225426, 1.9222520589828491, -0.7499552369117737, 0.22422121465206146, 0.14762122929096222, 0.13551439344882965, -0.03632306680083275, 0.17732012271881104, -0.10316149890422821, -0.07378125190734863, -0.17262382805347443, -0.043032579123973846, -0.21417954564094543, 0.04508158564567566, 0.07865044474601746, -0.12513260543346405, -0.08515948057174683], [-0.017144611105322838, -0.18747183680534363, 0.18998964130878448, 0.17578569054603577, 0.17589356005191803, -0.11900592595338821, 0.26843640208244324, 0.20620384812355042, 1.5529892444610596, -0.45493829250335693, 0.2127501517534256, 0.34616631269454956, 0.05697901174426079, 0.148024320602417, 0.1398436427116394, -0.05478639528155327, 0.13135594129562378, -0.0912223532795906, -0.06695608794689178, -0.25663891434669495, 0.18136093020439148, 0.1211838573217392, 0.0686885267496109, -0.19338881969451904], [0.188288152217865, 0.24596653878688812, -0.09523210674524307, -0.06959148496389389, -0.00712725892663002, -0.17130085825920105, 0.04567040875554085, 0.18801259994506836, -0.11389102786779404, -1.0668455362319946, 0.1930500864982605, -0.473837286233902, -0.18020032346248627, 0.04463593661785126, 0.07168165594339371, 0.16316258907318115, 0.07218710333108902, -0.14838413894176483, 0.00790174026042223, 0.07461635023355484, -0.13665595650672913, -0.19134485721588135, 0.14863909780979156, -0.09327759593725204], [-0.12112414091825485, 0.13155636191368103, -0.04353863745927811, -0.13154326379299164, 0.17455291748046875, 0.04200762137770653, 0.06250093877315521, 0.25876736640930176, 0.11061328649520874, 0.2143738716840744, -0.1409706175327301, -0.20451335608959198, 0.09270493686199188, 0.350065141916275, 0.04434935003519058, 0.03932228684425354, -0.1012466698884964, 0.1473938375711441, -0.16473372280597687, -0.12805280089378357, 0.23594416677951813, 0.028386030346155167, -0.0694640725851059, 0.09520579874515533], [-0.03592582046985626, -0.22969800233840942, 0.17077668011188507, 0.05200423300266266, 0.00523871835321188, -0.16720996797084808, 0.06229838356375694, 0.10137777775526047, -0.0846460685133934, -0.37495020031929016, -0.010032212361693382, 0.25074824690818787, 0.1348704844713211, 0.14874620735645294, -0.04442301020026207, -0.1454273909330368, -0.16658703982830048, 0.0140019990503788, 0.19715137779712677, 0.01399502158164978, 0.1604262739419937, -0.21496601402759552, -0.029090555384755135, 0.06804767996072769], [-0.08840370923280716, -0.3890456259250641, -0.14873452484607697, 0.059606000781059265, 0.0005825390690006316, 0.1602364182472229, -0.06353378295898438, -0.07622379809617996, -0.018990296870470047, -0.3394535183906555, 0.07111530750989914, -0.019220465794205666, 0.17192630469799042, -0.07888500392436981, 0.05336249992251396, 0.13423483073711395, -0.03130456805229187, -0.21834266185760498, -0.26230600476264954, -0.027993561699986458, 0.05681770294904709, -0.0461399219930172, -0.035956744104623795, 0.12683001160621643], [-0.13716812431812286, 0.2950323224067688, -0.03693295642733574, 0.14418508112430573, -0.013115026988089085, -0.1323731243610382, -0.09797808527946472, -0.06423922628164291, -2.166095495223999, -0.12878908216953278, 0.18184936046600342, -0.06557967513799667, 0.11835204064846039, -0.0731646865606308, -0.048768527805805206, 0.10567810386419296, -0.12539014220237732, 0.02227906510233879, -0.003443573135882616, -0.19030651450157166, 0.08278809487819672, 0.04303240031003952, -0.13684245944023132, -0.004064241424202919], [0.07157639414072037, -0.28979238867759705, 0.19157399237155914, 0.1293252408504486, -0.0813567265868187, -0.006291728932410479, 0.07295742630958557, 0.20092478394508362, 1.2545157670974731, 0.3227445185184479, -0.25237584114074707, 0.05107453465461731, -0.2418912798166275, -0.14425116777420044, -0.1479562371969223, 0.14856509864330292, 0.11949627846479416, -0.11032243818044662, -0.062469564378261566, -0.1655632108449936, 0.019201353192329407, -0.07596001029014587, -0.2464427947998047, -0.037286147475242615], [0.10896630585193634, -0.0307967197149992, -0.05484369024634361, -0.005640499759465456, 0.0759403184056282, 0.04142886772751808, -0.01634378358721733, 0.07747162133455276, 1.3090527057647705, -1.2582677602767944, -0.07511435449123383, 0.2967090308666229, -0.2826533913612366, 0.027085408568382263, 0.11894270777702332, 0.10494574904441833, -0.11524227261543274, 0.06547380983829498, -0.03675132244825363, 0.036702319979667664, 0.09086563438177109, 0.05288193002343178, 0.19072280824184418, -0.007163480389863253], [-0.2637728750705719, -0.001422276720404625, -0.16383127868175507, 0.16932374238967896, 0.019985007122159004, 0.16662536561489105, 0.10269147902727127, -0.10543332248926163, 0.14004653692245483, 0.0025449704844504595, 0.05987412482500076, -0.1517123132944107, 0.24426020681858063, -0.13319078087806702, 0.1323024481534958, -0.14184513688087463, 0.2252243459224701, -0.4815303683280945, -0.11933990567922592, 0.05442040413618088, 0.13469025492668152, 0.022713102400302887, -0.22877870500087738, 0.07713226974010468], [0.02848649211227894, 0.38673633337020874, 0.23832102119922638, 0.17809289693832397, 0.1415683478116989, -0.13697274029254913, 0.07818664610385895, 0.09604517370462418, 0.7858531475067139, 0.5919355750083923, -0.18442009389400482, 0.030235502868890762, 0.12580733001232147, 0.07019495964050293, -0.18697461485862732, -0.14631372690200806, 0.17259882390499115, -0.07951794564723969, 0.1294752061367035, -0.5657984018325806, 0.13701020181179047, -0.020446626469492912, -0.21454550325870514, -0.054835543036460876], [0.07328096777200699, 0.004900200292468071, -0.033712562173604965, -0.03532407060265541, -0.008690938353538513, 0.2011258900165558, 0.20336419343948364, -0.08868268877267838, -0.15670105814933777, -0.11339415609836578, -0.021710723638534546, -0.23522865772247314, 0.18443085253238678, 0.073163241147995, 0.22459502518177032, 0.11979915201663971, 0.03827742114663124, -0.1648438721895218, -0.06663940101861954, 0.043748851865530014, -0.05551447719335556, -0.07988671213388443, 0.09298720210790634, -0.3183498978614807], [-0.10718727856874466, 0.3349241614341736, -0.16113150119781494, -0.024135300889611244, 0.11304333806037903, 0.011696036905050278, -0.09575369209051132, 0.11593008786439896, 1.982190728187561, 1.2058625221252441, 0.11943875998258591, -0.1500633805990219, -0.10213778913021088, -0.11018235236406326, 0.2216593474149704, -0.062192775309085846, -0.14400635659694672, 0.10870938003063202, -0.021983256563544273, -0.25064316391944885, 0.01772473379969597, -0.12168775498867035, -0.2129572033882141, 0.18113018572330475], [0.08607277274131775, 0.000369773042621091, 0.03455699235200882, 0.10503673553466797, 0.12269598990678787, -0.06084469333291054, 0.011188861913979053, 0.13548411428928375, 1.612987756729126, 0.45065954327583313, 0.122260183095932, 0.43441733717918396, -0.07294874638319016, 0.1496543437242508, -0.06362540274858475, 0.22773867845535278, 0.013317086733877659, -0.0027314394246786833, -0.07532494515180588, -0.2910073697566986, 0.03598730266094208, -0.11833640933036804, -0.16329006850719452, 0.00555003434419632], [0.14924931526184082, -0.19143405556678772, -0.0735316202044487, 0.05306332930922508, -0.26663294434547424, -0.09704067558050156, -0.014380455017089844, -0.029801910743117332, -0.16657230257987976, -0.8507790565490723, -0.02447124943137169, -0.09716025739908218, -0.06961639970541, 0.08736174553632736, 0.13126921653747559, 0.02732989564538002, 0.054442744702100754, 0.11860133707523346, -0.13840962946414948, -0.4704442024230957, 0.13035781681537628, -0.08271093666553497, -0.17539486289024353, 0.06052028015255928], [0.07791031152009964, -0.007683732081204653, 0.06477867066860199, -0.009199446067214012, 0.08052098751068115, 0.037989504635334015, -0.009755690582096577, -0.05650331825017929, 0.6746407151222229, 0.8046190738677979, -0.13556164503097534, -0.048198118805885315, -0.09097360819578171, 0.1633497029542923, 0.17493653297424316, -0.13041339814662933, -0.14323614537715912, -0.04853024333715439, -0.18489718437194824, -0.39500802755355835, 0.20960281789302826, 0.008912001736462116, -0.17944683134555817, -0.16671496629714966], [-0.04226416349411011, -0.11936963349580765, 0.09670630842447281, -0.04778851568698883, -0.02779385820031166, -0.08660085499286652, -0.11948662996292114, 0.08147759735584259, 0.5580120086669922, 0.062409285455942154, 0.029221562668681145, -0.22431497275829315, -0.014911532402038574, 0.016960525885224342, -0.19406573474407196, -0.23994922637939453, -0.2572968602180481, 0.054587479680776596, 0.21445082128047943, -0.3223658502101898, -0.23601900041103363, 0.048143234103918076, -0.029854843392968178, -0.09504221379756927], [-0.09239467233419418, 0.08256935328245163, 0.2769317328929901, -0.10130871087312698, 0.023370971903204918, 0.13548067212104797, -0.11094821244478226, 0.004654779098927975, -0.9494343996047974, 1.3175381422042847, 0.12580670416355133, -0.013579042628407478, -0.03737797960639, 0.09677253663539886, 0.2365190088748932, -0.19873370230197906, 0.05138611048460007, -0.07301303744316101, 0.006970774848014116, 0.00963473692536354, 0.05500844866037369, 0.07678788155317307, -0.12603777647018433, -0.0839555487036705], [-0.1575566679239273, 0.02913115918636322, -0.19343622028827667, -0.07777144759893417, -0.16469533741474152, -0.09451786428689957, 0.03146784007549286, -0.018136044964194298, 1.0927475690841675, -1.1068617105484009, 0.0720745325088501, -0.19085422158241272, -0.031337738037109375, 0.15064169466495514, 0.024906955659389496, 0.11661703139543533, 0.09626084566116333, -0.0434555821120739, -0.04370716214179993, 0.21343886852264404, 0.20159444212913513, 0.17442074418067932, 0.13745659589767456, 0.17669342458248138], [0.14698337018489838, -0.05520673096179962, -0.06149446591734886, -0.1563969999551773, -0.009308842942118645, -0.2075943946838379, -0.2592286169528961, 0.06819411367177963, 0.15568210184574127, 0.010220296680927277, -0.008723690174520016, 0.19093886017799377, 0.1537615954875946, -0.020758872851729393, 0.0192473903298378, 0.15115877985954285, 0.21263352036476135, 0.01668710820376873, 0.08006767928600311, -3.5286608181195334e-05, 0.24911321699619293, 0.037976957857608795, 0.10222090035676956, -0.09686773270368576], [0.221706360578537, -0.10513924807310104, 0.1485547423362732, -0.12377125024795532, 0.1343553215265274, 0.02237776666879654, 0.04358232766389847, -0.04484318941831589, 1.0313715934753418, 0.9642482995986938, 0.22066333889961243, 0.09951113909482956, 0.10307788848876953, 0.0551457405090332, -0.2075807750225067, -0.06398440897464752, -0.009623730555176735, -0.023210547864437103, -0.027757929638028145, -0.28942006826400757, 0.08710245788097382, 0.09596708416938782, 0.0007173360208980739, 0.004084605257958174], [-0.09835948050022125, -0.22022461891174316, -0.11403372138738632, -0.05851919576525688, -0.0075485799461603165, -0.1348121017217636, 0.1414550393819809, 0.005609515123069286, -0.015249993652105331, 0.7373289465904236, 0.13486790657043457, 0.002015256555750966, 0.16632521152496338, 0.11153312027454376, 0.03431733697652817, -0.058035027235746384, -0.2194450944662094, 0.007327552884817123, -0.1811555176973343, -0.07848689705133438, 0.09441515058279037, 0.05921595171093941, -0.17691351473331451, 0.09867756813764572], [0.18844060599803925, -0.14468437433242798, 0.06640461087226868, 0.13813282549381256, -0.03646589070558548, -0.08864732086658478, 0.10554242879152298, -0.013001897372305393, -0.6338707804679871, 1.6582307815551758, 0.1716231107711792, 0.050171803683042526, -0.028872044757008553, -0.10078088939189911, -0.05318564921617508, 0.09268142282962799, 0.012944469228386879, 0.10971980541944504, 0.03863781318068504, -0.06661824882030487, 0.18733277916908264, -0.12524636089801788, -0.24433673918247223, 0.18514052033424377], [-0.09311489760875702, -0.0651908814907074, 0.19428691267967224, 0.19813911616802216, -0.17960673570632935, -0.005578151438385248, -0.1994984894990921, 0.21165138483047485, 1.2943779230117798, -0.4992106258869171, 0.0859287902712822, -0.14227603375911713, 0.18736210465431213, 0.11137646436691284, -0.16077402234077454, -0.17132821679115295, 0.1949625015258789, 0.07559844851493835, 0.06753715872764587, -0.19684256613254547, -0.09562945365905762, 0.12462635338306427, 0.033594049513339996, 0.012810615822672844], [0.05804876610636711, 0.25327184796333313, 0.20296360552310944, -0.06747234612703323, -0.08968605846166611, -0.05092893913388252, 0.06723042577505112, 0.02998182736337185, -2.400933265686035, 1.0714958906173706, 0.15098896622657776, -0.16413921117782593, -0.05439358204603195, -0.03735041618347168, 0.08715677261352539, -0.032108716666698456, -0.0983080193400383, -0.07380611449480057, 0.10554614663124084, 0.3195640742778778, -0.0938403531908989, 0.07663659006357193, -0.23944661021232605, 0.0020416672341525555], [-0.04465549439191818, -0.19603994488716125, 0.011482679285109043, 0.156428724527359, 0.10467316955327988, -0.0354287214577198, 0.09486342966556549, 0.1321800947189331, 1.268134593963623, 1.2448605298995972, 0.11805689334869385, -0.09451813995838165, -0.1742623746395111, 0.12459004670381546, 0.08478232473134995, 0.14980046451091766, -0.05056764930486679, 0.19970591366291046, 0.03861341252923012, -0.41429299116134644, 0.16998736560344696, -0.006846968550235033, 0.046491917222738266, -0.052653968334198], [0.15602870285511017, 0.12241289764642715, -0.06924563646316528, 0.020620182156562805, 0.178764209151268, 0.03084365464746952, 0.03620845451951027, 0.055724579840898514, -0.44502803683280945, -0.26583582162857056, 0.18801063299179077, 0.32715973258018494, 0.16817478835582733, 0.18943975865840912, -0.01422973908483982, 0.12120489776134491, -0.0050263130106031895, -0.21106824278831482, 0.07751830667257309, -0.03669027239084244, -0.10265321284532547, 0.22426505386829376, 0.051310498267412186, 0.08228269219398499], [0.18820372223854065, 0.38600966334342957, 0.02725856378674507, 0.15178950130939484, -0.11818715929985046, -0.07615304738283157, 0.10788501799106598, 0.19799315929412842, 2.0079598426818848, 0.40946394205093384, -0.028330720961093903, 0.023389359936118126, -0.003089393023401499, -0.15823163092136383, -0.20607522130012512, 0.16350208222866058, 0.4143381714820862, -0.14882299304008484, 0.028547566384077072, -0.5995021462440491, 0.034969259053468704, -0.13937263190746307, -0.059356894344091415, 0.03547728434205055], [0.10246820002794266, 0.09618275612592697, 0.008975908160209656, 0.16476306319236755, -0.0643235445022583, -0.1170293539762497, 0.17266668379306793, 0.13642939925193787, -0.5384930968284607, -0.236429363489151, -0.11083798110485077, -0.14337334036827087, -0.050605595111846924, -0.005686346907168627, -0.0023435961920768023, -0.01775261014699936, -0.20055900514125824, 0.13216622173786163, 0.1597532033920288, -0.2435675859451294, 0.11552078276872635, -0.1366095244884491, -0.11312133818864822, 0.02426965720951557], [0.09332842379808426, -0.21778762340545654, 0.039794668555259705, 0.1774579882621765, -0.15922892093658447, -0.12190982699394226, -0.13702629506587982, 0.10966860502958298, 1.3686976432800293, -0.07988810539245605, -0.05590017884969711, -0.2562061548233032, 0.18198713660240173, 0.11635985225439072, 0.11597957462072372, 0.1993880718946457, 0.1800910085439682, 0.025192467495799065, 0.06284791976213455, 0.04704059660434723, -0.10148321092128754, 0.04650440067052841, 0.174250066280365, 0.04532584920525551], [-0.04926149174571037, 0.3197523057460785, 0.2524547874927521, 0.02087092213332653, 0.008868481032550335, -0.2813018262386322, -0.02693532034754753, -0.08861199021339417, 0.5407153964042664, 0.618469774723053, 0.16634251177310944, 0.24129264056682587, -0.1848360300064087, 0.1324031502008438, -0.06357362866401672, 0.1720779687166214, 0.25557729601860046, -0.1484415978193283, 0.007661734241992235, -0.33981671929359436, 0.12050081044435501, 0.15420827269554138, 0.037980396300554276, -0.1851225048303604], [0.17933383584022522, -0.1446758657693863, -0.14966285228729248, -0.03747722506523132, -0.3271581530570984, -0.01722603477537632, -0.17219407856464386, 0.18347032368183136, -0.48349785804748535, -0.7173768877983093, -0.05965365469455719, -0.13255731761455536, -0.013875981792807579, 0.0531417652964592, 0.23019668459892273, -0.17910796403884888, 0.1350279599428177, 0.12093957513570786, 0.10458546876907349, 0.21676227450370789, 0.09306243807077408, -0.048881303519010544, -0.06917507946491241, 0.05383102223277092], [0.06495054066181183, 0.2719203531742096, 0.014754765667021275, -0.0805998146533966, 0.2782348692417145, 0.10699412971735, 0.06210100278258324, -0.029525812715291977, -0.2110612541437149, -0.3372795581817627, 0.013003741391003132, -0.24335278570652008, -0.2329632192850113, 0.02430742233991623, -0.04468308016657829, 0.0724414736032486, -0.20023532211780548, 0.05360203608870506, -0.17952662706375122, 0.14873994886875153, 0.16328614950180054, -0.028673522174358368, 0.040125153958797455, -0.09124626219272614], [-0.13147614896297455, 0.37807318568229675, -0.027654685080051422, 0.14475850760936737, -0.10272268950939178, 0.03404729440808296, -0.18047261238098145, 0.07684559375047684, 0.5832043290138245, -0.07785999029874802, 0.03567110374569893, -0.4025711417198181, -0.15531757473945618, -0.012233755551278591, -0.08817226439714432, -0.0029868611600250006, -0.13063961267471313, 0.04487170651555061, 0.0293259434401989, -0.019281648099422455, -0.20229247212409973, -0.013866386376321316, -0.08852639049291611, 0.16273804008960724], [0.012260086834430695, -0.17209561169147491, 0.06315973401069641, 0.0696982815861702, -0.03037233278155327, 0.03168632835149765, -0.005124656017869711, 0.06872452050447464, 0.013780379667878151, 0.06847844272851944, -0.013876223005354404, -0.9273281693458557, -0.10547155886888504, -0.01438421942293644, 0.09693899005651474, 0.16787312924861908, -0.0642133578658104, 0.015138193964958191, 0.11225569248199463, 0.04706360399723053, 0.11201153695583344, 0.0037111013662070036, -0.12050551921129227, 0.10974946618080139], [-0.02253453992307186, -0.1686921864748001, -0.13600097596645355, -0.07929988950490952, -0.09246359765529633, 0.015969937667250633, -0.04469776526093483, -0.22027724981307983, -0.07970817387104034, -0.48305994272232056, 0.0920700803399086, 0.1501408964395523, 0.0781732052564621, -0.18773484230041504, -0.35324057936668396, -0.09326314181089401, -0.035412415862083435, -0.2884839177131653, 0.196145698428154, -0.16911430656909943, 0.13370639085769653, 0.11214491724967957, 0.00957457348704338, -0.11180639266967773], [0.21189670264720917, -0.08363298326730728, -0.09637846797704697, 0.029892370104789734, -0.1539277732372284, -0.13737355172634125, 0.11992261558771133, 0.046781349927186966, 0.4129664897918701, 1.3168121576309204, 0.02080143615603447, -0.20007383823394775, -0.05997692048549652, 0.07417970895767212, 0.20864006876945496, 0.13629469275474548, 0.2180492877960205, 0.024295035749673843, 0.007085684686899185, -0.07206319272518158, 0.15946227312088013, 0.034646887332201004, -0.2586231231689453, -0.07834725081920624], [0.02335076406598091, 0.2781716287136078, 0.03726974502205849, 0.08224010467529297, 0.08551770448684692, 0.000540714303497225, -0.02555233985185623, 0.26916342973709106, -0.20139208436012268, -0.13322696089744568, 0.032903194427490234, -0.1273934692144394, 0.08014951646327972, 0.033743105828762054, -0.16337141394615173, 0.14816252887248993, -0.0005365122342482209, -0.0026685018092393875, -0.07481944561004639, 0.028993461281061172, 0.04543009400367737, 0.2807379364967346, -0.20976342260837555, -0.041457682847976685], [0.08744419366121292, 0.07206788659095764, -0.09120327234268188, -0.005341879092156887, -0.1587173491716385, 0.009033839218318462, -0.1554211676120758, 0.19738590717315674, -0.3247412443161011, -0.04746965691447258, 0.17768192291259766, 0.1254449486732483, 0.2459431290626526, -0.050948310643434525, 0.13473133742809296, 0.04287279397249222, -0.21987436711788177, -0.31745269894599915, -0.21226094663143158, -0.05753251165151596, 0.10515676438808441, 0.010652909986674786, -0.1962999850511551, -0.07972738146781921], [-0.11291541904211044, 0.3796897530555725, 0.08976466953754425, 0.05861421674489975, 0.08642338961362839, -0.19395773112773895, -0.05476314574480057, -0.17963378131389618, -1.135481834411621, 0.21384793519973755, -0.15998080372810364, 0.20925801992416382, -0.13670912384986877, -0.11458850651979446, 0.042765695601701736, 0.010937223210930824, -0.05001560598611832, -0.023329205811023712, 0.09256473928689957, 0.013251484371721745, 0.07684226334095001, 0.008587763644754887, 0.08304727077484131, -0.018136881291866302], [0.0017099134856835008, 0.043191250413656235, 0.21663209795951843, -0.04723474010825157, -0.07071235775947571, -0.20011399686336517, 0.13530351221561432, 0.18506821990013123, -2.7787346839904785, 0.7083550691604614, -0.04203606769442558, 0.1707003265619278, 0.1091388463973999, -0.021406028419733047, 0.054854147136211395, -0.046498581767082214, 0.0014706109650433064, -0.1159135103225708, -0.002221534727141261, -0.1933836191892624, 0.10504333674907684, 0.058159396052360535, -0.06327958405017853, 0.11170130223035812], [0.07057344913482666, -0.013558533973991871, 0.035009562969207764, -0.0478978306055069, 0.040508680045604706, -0.10752447694540024, -0.09426906704902649, 0.17699994146823883, -0.5240524411201477, 0.16151082515716553, 0.06818822771310806, -0.11261408776044846, 0.17774324119091034, 0.1383148580789566, -0.01079343818128109, 0.2088368535041809, 0.09171916544437408, -0.0432451106607914, 0.08566512167453766, 0.16126149892807007, 0.10437974333763123, 0.13672181963920593, -0.05307215079665184, -0.08823921531438828], [0.17979660630226135, 0.21142986416816711, -0.20901337265968323, -0.0950106531381607, -0.00020243183826096356, 0.09724567830562592, -0.13319461047649384, 0.07054044306278229, 0.574546754360199, -0.9030720591545105, 0.06919442862272263, 0.31558558344841003, -0.009897863492369652, 0.15932931005954742, 0.09412208199501038, -0.04565989226102829, 0.11015855520963669, 0.14604917168617249, 0.17595840990543365, -0.1706790030002594, 0.06763650476932526, -0.029593952000141144, 0.04196392744779587, 0.08478973805904388], [-0.09293989837169647, -0.2911900579929352, 0.2479640692472458, -0.0556243360042572, 0.05391020327806473, -0.223425954580307, -0.011318554170429707, 0.15990638732910156, 1.3428995609283447, -0.14909254014492035, -0.05615648254752159, -0.1294611245393753, -0.0912674218416214, 0.0517730750143528, -0.12418825179338455, 0.04152420535683632, -0.0752786248922348, -0.08894889801740646, -0.18132278323173523, -0.0765090063214302, -0.21034514904022217, 0.059405967593193054, -0.19179889559745789, 0.15629585087299347], [-0.1969410628080368, -0.10158808529376984, 0.22444260120391846, 0.2551446557044983, -0.25834035873413086, -0.145150288939476, 0.17650139331817627, -0.058139391243457794, -0.18608510494232178, -0.3387417495250702, 0.1973414421081543, -0.16033141314983368, -0.12949912250041962, 0.1531171202659607, 0.054447270929813385, 0.110134556889534, -0.05122528597712517, 0.03233468905091286, 0.5626338124275208, 0.020214559510350227, -0.05216880142688751, 0.07299253344535828, -0.23055399954319, -0.09928617626428604], [0.02037832885980606, -0.08842537552118301, -0.06868959218263626, -0.13870872557163239, 0.03655257076025009, 0.0042870789766311646, -0.17065569758415222, -0.05783240124583244, 0.18284295499324799, 0.005180748179554939, 0.08265076577663422, -0.1398513913154602, 0.00672914506867528, -0.08503751456737518, 0.11826812475919724, 0.13641305267810822, 0.029152762144804, 0.10398416966199875, 0.17668776214122772, 0.14223326742649078, -0.009249584749341011, 0.07774578779935837, 0.03307603299617767, 0.10074802488088608], [0.2758817672729492, -0.34094101190567017, -0.14544188976287842, 0.0309879332780838, -0.04879242554306984, 0.07399629056453705, -0.11566729098558426, 0.042871519923210144, -0.04112951457500458, -0.067954882979393, -0.01829819567501545, 0.013799533247947693, 0.049396857619285583, -0.25464504957199097, -0.1415906697511673, 0.01639682613313198, 0.000657588941976428, 0.032857492566108704, -0.18793626129627228, 0.004570207558572292, -0.02072862721979618, -0.012317304499447346, -0.17230933904647827, -0.029703594744205475], [0.17065978050231934, -0.25853025913238525, -0.07724057883024216, -0.25121060013771057, -0.05461135134100914, 0.09526446461677551, -0.0744449570775032, -0.1452166736125946, -0.2774418294429779, -0.4402591288089752, 0.03356879949569702, 0.0061551835387945175, -0.1253627985715866, 0.23432886600494385, -0.25086677074432373, -0.10053340345621109, -0.27992507815361023, -0.2135085165500641, 0.040225349366664886, -0.018313327804207802, -0.0984049141407013, 0.12251751869916916, 0.0295695960521698, 0.014047037810087204], [0.0445198193192482, 0.16137628257274628, 0.03577198088169098, 0.10542233288288116, 0.2376994639635086, -0.07003394514322281, 0.010849068872630596, 0.048958972096443176, 0.15427611768245697, -0.04781908541917801, -0.0876307487487793, 0.0048280744813382626, 0.17946268618106842, 0.18828503787517548, 0.0071556828916072845, -0.041077498346567154, -0.15977270901203156, 0.31998518109321594, 0.05693918094038963, 0.012992643751204014, -0.2046058624982834, -0.10798303037881851, 0.027880987152457237, -0.055915459990501404], [0.18063345551490784, 0.11910238116979599, -0.1408928781747818, 0.10860511660575867, 0.10522294044494629, 0.04064400866627693, -0.16627471148967743, 0.14456231892108917, 0.03602226823568344, -0.167768195271492, -0.02084605023264885, -0.0684337466955185, -0.08066308498382568, -0.43019503355026245, 0.23246900737285614, 0.18661095201969147, 0.21082326769828796, -0.3847959339618683, -0.03902621194720268, -0.02767212502658367, -0.023421011865139008, 0.0451158732175827, 0.0073149921372532845, -0.02510003373026848], [0.08898615837097168, -0.08709916472434998, -0.009194158017635345, -0.15554578602313995, 0.13156993687152863, -0.06672312319278717, 0.15439319610595703, -0.14012442529201508, -0.044047292321920395, -0.8260993957519531, -0.11735790222883224, 0.03432179242372513, -0.1343238353729248, 0.016141653060913086, 0.1374126523733139, -0.06571567803621292, 0.1024567112326622, -0.14281810820102692, -0.003340786322951317, -0.0681392028927803, 0.18236276507377625, 0.0868794173002243, 0.008982827886939049, 0.09532017260789871], [0.24544395506381989, 0.25597602128982544, 0.11110402643680573, 0.012260635383427143, 0.10478831082582474, -0.026276186108589172, -0.024653708562254906, 0.10326118767261505, -0.7244976162910461, 1.1984697580337524, 0.13440760970115662, 0.18508051335811615, 0.01623542793095112, 0.19619818031787872, -0.04031282663345337, 0.17665377259254456, -0.00669472198933363, 0.02776680514216423, -0.1954466700553894, -0.0331842340528965, 0.04843951389193535, 0.12058752775192261, 0.08391755074262619, 0.04910750314593315], [-0.0754089206457138, 0.26126161217689514, 0.16335192322731018, -0.01619475521147251, -0.18884696066379547, -0.0036281540524214506, -0.05185859650373459, 0.022393206134438515, -0.32469186186790466, 0.8353738188743591, 0.16572077572345734, 0.15604668855667114, 0.10785025358200073, -0.11188212037086487, -0.049472205340862274, -0.19942070543766022, -0.1361471712589264, -0.11082492023706436, 0.08907387405633926, -0.255207359790802, -0.07243480533361435, -0.11117633432149887, 0.03199556842446327, -0.06966101378202438], [0.07268136739730835, -0.15078800916671753, 0.1632826328277588, -0.18297244608402252, 0.17937372624874115, 0.11869074404239655, 0.10509765148162842, -0.040818020701408386, 0.02708655782043934, 0.057289354503154755, -0.061622343957424164, 0.01754753477871418, 0.06051532179117203, -0.06622098386287689, 0.1429743617773056, 0.12502209842205048, -0.0856502428650856, -0.05509291589260101, 0.14380113780498505, -0.15973269939422607, -0.09051311016082764, -0.10303711146116257, 0.12206405401229858, 0.09565635025501251], [-0.18986284732818604, 0.28983110189437866, -0.03937909007072449, 0.07748959213495255, 0.14087004959583282, -0.22260800004005432, -0.004196645691990852, 0.03456374630331993, -0.11382558196783066, 1.0383317470550537, -0.008102874271571636, 0.09374497085809708, -0.007701199501752853, -0.0004849680990446359, -0.237986758351326, -0.0789823830127716, 0.19152714312076569, 0.1776333898305893, 0.10624513775110245, -0.4120634198188782, -0.0822213888168335, 0.055619027465581894, -0.26050540804862976, -0.015347079373896122], [0.18486209213733673, -0.3103838264942169, 0.01371257659047842, 0.161978617310524, -0.04008808732032776, -0.1018630787730217, -0.14629900455474854, 0.16717086732387543, 1.684644103050232, 0.27758654952049255, 0.07055818289518356, 0.11474558711051941, 0.07950572669506073, 0.11284409463405609, 0.04562430828809738, 0.058915890753269196, 0.14869239926338196, -0.03248542174696922, -0.0705411285161972, 0.129415825009346, 0.04884548485279083, -0.109974205493927, -0.021120775490999222, 0.06401597708463669], [0.004131193272769451, -0.3472481667995453, 0.17283384501934052, -0.12299791723489761, -0.19530664384365082, -0.11800217628479004, 0.16603107750415802, -0.12983438372612, -0.38913607597351074, 0.04116728901863098, -0.07197641581296921, 0.039122581481933594, 0.027230313047766685, 0.06771832704544067, 0.14873427152633667, -0.04004429280757904, -0.04874713346362114, -0.23116356134414673, -0.10552512109279633, 0.05543862655758858, 0.02821899577975273, -0.1845688372850418, 0.1591760814189911, -0.01813233643770218], [-0.06380362808704376, -0.10275153070688248, -0.0877847671508789, 0.20601889491081238, 0.011467673815786839, -0.14168773591518402, -0.0059957243502140045, 0.05781745910644531, -1.627966046333313, 0.9242861866950989, -0.1758035570383072, 0.19013939797878265, 0.007600733544677496, -0.07142887264490128, -0.15759778022766113, -0.18655802309513092, -0.022139132022857666, 0.11876487731933594, 0.06612300127744675, -0.4945984184741974, -0.11710306257009506, 0.14973311126232147, -0.21329031884670258, 0.16276128590106964], [-0.10702086985111237, 0.056693580001592636, 0.16540180146694183, 0.15366296470165253, 0.1305788904428482, 0.06450354307889938, -0.13816912472248077, 0.08634653687477112, -1.7160484790802002, -0.07915177196264267, 0.04659448564052582, 0.16790542006492615, -0.06071886792778969, 0.0308070108294487, 0.11329302936792374, 0.011539219878613949, 0.06608176976442337, -0.09452501684427261, -0.09230567514896393, -0.03933756798505783, -0.172387033700943, -0.18688848614692688, -0.2135295271873474, -0.14453820884227753], [0.13560199737548828, -0.194919615983963, 0.24674832820892334, 0.07265276461839676, -0.14987345039844513, -0.08044049143791199, 0.1387292593717575, 0.06845228374004364, -2.8120641708374023, 0.06330142170190811, -0.08305864781141281, -0.07676400244235992, -0.042164795100688934, 0.12933805584907532, -0.12316926568746567, 0.10786937177181244, -0.22756344079971313, -0.03250783309340477, -0.017283573746681213, 0.1768745481967926, -0.09900476783514023, -0.10918962955474854, -0.08509305864572525, -0.017944904044270515], [-0.009266492910683155, -0.3550153374671936, 0.08844070136547089, -0.118592768907547, -0.11035189777612686, -0.02967728115618229, -0.14660249650478363, 0.18741129338741302, -0.7088315486907959, 0.8785427212715149, 0.20081864297389984, 0.012142414227128029, -0.10323508083820343, 0.1962762475013733, -0.03299302980303764, -0.21245963871479034, -0.11937517672777176, -0.031235741451382637, 0.07132594287395477, -0.3870909810066223, 0.20456507802009583, -0.059610627591609955, -0.22146935760974884, -0.01867397129535675], [-0.22722965478897095, -0.12749019265174866, 0.19334523379802704, 0.1483958214521408, 0.18587970733642578, 0.14420944452285767, -0.05456140264868736, -0.10820760577917099, 0.26117265224456787, 0.0691836029291153, 0.05335473269224167, -0.045500725507736206, 0.17687739431858063, 0.16187524795532227, 0.1391030102968216, 0.10702305287122726, 0.12085369974374771, 0.2199307233095169, 0.20266813039779663, -0.12169341742992401, -0.1133984923362732, -0.09599438309669495, -0.08398400247097015, -0.07643774151802063], [0.13421812653541565, 0.04955434054136276, -0.04293788969516754, -0.029934978112578392, -0.15435199439525604, -0.03700561076402664, -0.08596636354923248, 0.14272929728031158, 2.3663992881774902, -0.46869757771492004, 0.20099307596683502, 0.01680292934179306, 0.11617890000343323, -0.01872379146516323, -0.08826516568660736, -0.22073645889759064, 0.22424188256263733, -0.13194480538368225, -0.025691218674182892, 0.006955836433917284, -0.06535249948501587, -0.14465896785259247, -0.23860986530780792, 0.13631698489189148], [-0.14833398163318634, 0.3340730369091034, -0.06955404579639435, 0.11788415163755417, -0.07808326929807663, -0.103033646941185, 0.1214810386300087, -0.1603802740573883, 0.5379837155342102, 0.2825927436351776, 0.09716019034385681, -0.24306322634220123, -0.18130747973918915, -0.23098160326480865, 0.18962900340557098, -0.037990495562553406, 0.040060579776763916, -0.1464238166809082, -0.04986141249537468, 0.067405104637146, 0.2107894867658615, -0.17407163977622986, -0.19840019941329956, -0.14354780316352844], [-0.0866527110338211, -0.18130911886692047, 0.11431495100259781, 0.18055404722690582, -0.1459403932094574, -0.16705578565597534, -0.2018328458070755, 0.044481534510850906, 1.8205516338348389, 0.19516928493976593, -0.08860581368207932, 0.021803203970193863, 0.21011656522750854, 0.06677065044641495, -0.041955891996622086, -0.2143971472978592, 0.08998771756887436, 0.11093052476644516, -0.1415218710899353, 0.01170912105590105, -0.028766842558979988, 0.11388657987117767, -0.1472911387681961, -0.16731494665145874], [0.30238890647888184, 0.05255543440580368, -0.05095680430531502, -0.018812572583556175, -0.03771444037556648, 0.03547033667564392, -0.23041199147701263, -0.11457537859678268, -0.08806195110082626, -0.010649404488503933, 0.03580369055271149, 0.12098422646522522, -0.011244691908359528, 0.35278961062431335, 0.02866976335644722, 0.023154491558670998, 0.057717639952898026, 0.17043665051460266, 0.20783336460590363, -0.010496694594621658, 0.13393834233283997, -0.007813788019120693, -0.07086678594350815, 0.0380246676504612], [0.1461089849472046, -0.16181059181690216, -0.18676093220710754, 0.10340200364589691, 0.14105339348316193, 0.18497547507286072, 0.19064855575561523, -0.1892210990190506, -0.03284712880849838, -0.03591536357998848, 0.09027714282274246, 0.05016527697443962, -0.06259962171316147, -0.021348748356103897, -0.017173582687973976, 0.07116644829511642, -0.02070756070315838, -0.06207727640867233, 0.09338752925395966, -0.09421736747026443, -0.0862518772482872, 0.14173266291618347, 0.10853133350610733, 0.13404648005962372], [0.023906221613287926, 0.09614211320877075, -0.1689058095216751, 0.15391209721565247, 0.2556147277355194, -0.13666430115699768, -0.1509380042552948, 0.10378850251436234, -2.424370527267456, 0.48345616459846497, -0.06058356538414955, 0.030645113438367844, -0.0383032001554966, -0.017939144745469093, -0.009195021353662014, 0.08753523975610733, 0.021478546783328056, -0.029666196554899216, -0.04317330941557884, 0.2454022914171219, -0.12376227229833603, -0.09704495966434479, -0.16999471187591553, 0.02060393989086151], [0.19300155341625214, -0.2724057137966156, 0.2018909454345703, 0.10064697265625, 0.21842291951179504, 0.004314257297664881, 0.06377594918012619, 0.1280522495508194, 0.5651399493217468, -0.2709372639656067, -0.01128266379237175, 0.14075908064842224, 0.22603239119052887, -0.12368226051330566, -0.10189428925514221, 0.0739319771528244, 0.23631183803081512, 0.23406603932380676, -0.2227884978055954, 0.05011861026287079, 0.04643342271447182, 0.05450104922056198, 0.10375650972127914, -0.1251467913389206], [0.02784823440015316, -0.19318313896656036, -0.17290954291820526, -0.09371272474527359, 0.013177120126783848, 0.17272548377513885, 0.11492407321929932, -0.11924789100885391, -1.6840877532958984, -0.9010617136955261, 0.02536662481725216, -0.0458800233900547, -0.08333765715360641, 0.08202897012233734, 0.12348444014787674, -0.16322264075279236, 0.11554007232189178, 0.033243466168642044, -0.11955533921718597, 0.052850183099508286, 0.039801448583602905, 0.08243339508771896, 0.04082604870200157, 0.10195808112621307], [-0.08646925538778305, -0.19872866570949554, 0.16878913342952728, 0.14217282831668854, -0.03918479010462761, 0.020383235067129135, -0.05840345472097397, 0.01492683682590723, -0.2288590520620346, -0.48712873458862305, 0.18041211366653442, 0.20937767624855042, 0.14248816668987274, 0.23979376256465912, 0.051337700337171555, -0.2053034007549286, 0.087559275329113, -0.020184636116027832, -0.02706293761730194, 0.12370066344738007, -0.13628393411636353, -0.13561256229877472, 0.19542229175567627, 0.08052976429462433], [0.1188960075378418, -0.24359816312789917, -0.07051463425159454, 0.16777554154396057, -0.10635393857955933, -0.014935297891497612, 0.1409032791852951, 0.15088336169719696, -0.06787438690662384, -0.028631962835788727, -0.06112572178244591, -0.16968032717704773, 0.13737498223781586, -0.0802934467792511, -0.16045914590358734, 0.14638595283031464, 0.2598227262496948, -0.0762624517083168, 0.08361436426639557, -0.017180146649479866, 0.018531551584601402, -0.02580266445875168, 0.03516867011785507, 0.1923365592956543], [-0.12283898144960403, 0.1461542546749115, -0.06142004579305649, 0.21402227878570557, -0.08107522875070572, 0.03292558714747429, -0.03597279265522957, 0.17809860408306122, -0.40059003233909607, 1.042734146118164, -0.18807263672351837, 0.046158317476511, 0.06767348200082779, 0.12912426888942719, -0.07380469888448715, -0.23172783851623535, -0.1320376992225647, -0.08470176160335541, 0.08361414074897766, -0.24835412204265594, 0.011144444346427917, 0.08356475830078125, -0.2119925171136856, -0.06828119605779648], [-0.14182494580745697, -0.3509027361869812, -0.08649660646915436, -0.07249680906534195, 0.03686477988958359, -0.08263806253671646, 0.162629172205925, 0.051495425403118134, 0.009144924581050873, -0.33571845293045044, -0.2559249997138977, 0.0413263738155365, 0.13863931596279144, 0.0722847655415535, -0.01713896170258522, -0.14430983364582062, 0.10538588464260101, -0.13350863754749298, -0.13548323512077332, -0.1951698362827301, 0.15423786640167236, -0.05680220201611519, -0.1074940487742424, 0.045002419501543045], [0.10318836569786072, -0.14705081284046173, 0.022425564005970955, -0.13299687206745148, 0.20497208833694458, 0.07472388446331024, -0.2862084209918976, -0.10634918510913849, 0.06225501000881195, 0.1714426428079605, 0.12717163562774658, 0.15412381291389465, 0.08167947083711624, -0.1229509487748146, -0.09362684190273285, 0.008832782506942749, 0.07811286300420761, -0.43453025817871094, -0.14497534930706024, 0.02121889591217041, -0.00266604614444077, 0.20459724962711334, 0.08434715867042542, 0.0997539684176445], [-0.07112792134284973, -0.12792141735553741, -0.2226811945438385, -0.10186858475208282, -0.12082347273826599, -0.06932872533798218, -0.19771094620227814, -0.17281755805015564, -0.10410381853580475, -0.19849520921707153, -0.1780386120080948, 0.1598956286907196, 0.042732514441013336, -0.15165844559669495, -0.007593423593789339, -0.1869106888771057, -0.09791532903909683, 0.2369302213191986, -0.045472562313079834, 0.048681341111660004, -0.051708586513996124, -0.010981171391904354, 0.05313233286142349, -0.03127894178032875], [0.20075248181819916, -0.07449780404567719, -0.14391684532165527, 0.14350484311580658, -0.1920953243970871, 0.12668266892433167, -0.12068796157836914, 0.21804343163967133, -0.7556459307670593, -0.07923168689012527, 0.09603111445903778, 0.04035066068172455, 0.03229349106550217, -0.21796227991580963, -0.3142895996570587, 0.1533939093351364, 0.022405939176678658, -0.3234627842903137, 0.006784557364881039, 0.053755879402160645, -0.17492541670799255, -0.020678991451859474, -0.10566410422325134, 0.002001506043598056], [-0.15073959529399872, 0.04851059243083, -0.04800306633114815, 0.16399063169956207, 0.17476816475391388, -0.022585421800613403, -0.09303781390190125, 0.2079862505197525, -1.7142083644866943, -0.7793845534324646, 0.20349998772144318, 0.07227860391139984, -0.013467716053128242, 0.08533792942762375, -0.12006107717752457, -0.043045032769441605, 0.17581118643283844, 0.1293569952249527, -0.14361722767353058, -0.013742582872509956, -0.1256420761346817, -0.08902262151241302, 0.08489461988210678, -0.05676528066396713], [-0.04377426952123642, -0.026429293677210808, -0.08371490240097046, 0.24518433213233948, -0.1404561698436737, 0.04493601992726326, -0.16299889981746674, 0.10242321342229843, 0.3107525408267975, -0.6498015522956848, 0.2941989600658417, 0.2431633323431015, 0.03677811846137047, -0.061239924281835556, -0.1482621282339096, 0.0949467346072197, -0.2666870057582855, 0.10455478727817535, 0.06464502960443497, 0.17295801639556885, -0.10282610356807709, -0.07879586517810822, -0.13870030641555786, -0.06858396530151367], [0.12765496969223022, -0.09351228177547455, 0.14248259365558624, -0.03626900538802147, 0.10384346544742584, 0.14935597777366638, 0.035920605063438416, -0.009311349131166935, 0.8125923275947571, -0.34880518913269043, 0.07095648348331451, 0.11131491512060165, -0.007297398988157511, -0.0409015528857708, -0.0314662866294384, -0.10157418996095657, -0.1231761947274208, 0.21618250012397766, -0.18418404459953308, 0.1160089373588562, -0.15629088878631592, -0.04660901427268982, -0.006983951665461063, -0.07147924602031708], [-0.046171996742486954, 0.12315968424081802, 0.13726021349430084, 0.20583920180797577, -0.08544689416885376, -0.0006805686862207949, 0.06223175674676895, 0.12941217422485352, 1.7032517194747925, 0.1348724514245987, 0.026491794735193253, 0.3394952118396759, 0.2755485773086548, 0.20362648367881775, 0.059191927313804626, -0.1635311394929886, -0.03497264161705971, -0.18283602595329285, -0.10647548735141754, -0.08433450758457184, -0.1802757978439331, 0.18563856184482574, 0.05203504115343094, 0.17533345520496368], [0.09517870843410492, 0.23455163836479187, 0.15455281734466553, 0.11176884174346924, 0.1381855607032776, 0.15003955364227295, 0.05574809014797211, -0.1692589670419693, 1.9070091247558594, -0.5780279040336609, 0.14143407344818115, -0.08412470668554306, -0.17096175253391266, 0.18841634690761566, 0.06901776790618896, -0.19321629405021667, 0.18684107065200806, 0.2077856808900833, -0.14020568132400513, 0.08333364129066467, -0.1281871646642685, -0.03082866035401821, 0.13084937632083893, -0.011299245990812778], [-0.07251567393541336, 0.031305670738220215, 0.05789227783679962, -0.18280579149723053, -0.19683334231376648, 0.05200912058353424, 0.17119646072387695, -0.048558663576841354, 0.04883598908782005, -0.023753410205245018, -0.1183130145072937, -0.08475181460380554, -0.0970587506890297, -0.14910492300987244, -0.16023939847946167, 0.20240412652492523, -0.1520395427942276, 0.018276404589414597, -0.007210428826510906, -0.11681666970252991, -0.09164519608020782, -0.1418612152338028, 0.13369368016719818, -0.06543338298797607], [0.13836829364299774, -0.05991174280643463, 0.053342901170253754, 0.01765468530356884, 0.1652405560016632, -0.05705182999372482, 0.10375337302684784, 0.03781144320964813, -0.9073629379272461, -0.2253865748643875, 0.22762471437454224, 0.20432507991790771, 0.17615704238414764, -0.014796985313296318, 0.26809343695640564, 0.15851131081581116, 0.028369400650262833, 0.10391122847795486, 0.20249785482883453, 0.06713138520717621, 0.005105394870042801, 0.24165984988212585, -0.09740308672189713, 0.16368083655834198], [0.07828643172979355, -0.3851783573627472, 0.008874043822288513, 0.037041183561086655, 0.0009280430967919528, -0.16752058267593384, -0.1286245882511139, 0.010850985534489155, -0.10058453679084778, 0.035526812076568604, 0.14982913434505463, -0.1363164335489273, 0.08892375230789185, -0.07007525861263275, 0.10284528881311417, -0.09520798921585083, 0.04798327013850212, 0.03165358677506447, 0.41802698373794556, 0.03463118150830269, -0.04615291953086853, 0.11287029832601547, -0.022962365299463272, 0.13689710199832916], [0.17485958337783813, -0.37926074862480164, -0.015124018304049969, 0.18436980247497559, -0.039374202489852905, -0.1088634803891182, 0.09071382880210876, -0.08969728648662567, -0.7686399817466736, 0.2211080938577652, 0.10926135629415512, -0.15522818267345428, -0.2619488835334778, -0.030922027304768562, -0.24420416355133057, 0.1602354198694229, -0.06603965908288956, -0.07858747988939285, 0.10536909103393555, 0.019945157691836357, 0.03672221302986145, 0.07061498612165451, 0.036585621535778046, 0.20414061844348907], [0.055464308708906174, -0.2595779001712799, -0.05816826969385147, 0.1706644594669342, 0.26511356234550476, 0.15984293818473816, 0.17992107570171356, 0.10727231949567795, -1.5565482378005981, 0.5129110813140869, 0.20388957858085632, -0.09945525974035263, -0.05423770844936371, 0.11388078331947327, 0.11964218318462372, -0.04346729815006256, -0.14617913961410522, 0.02082706056535244, -0.017217041924595833, 0.3696945309638977, -0.014757952652871609, 0.030101781710982323, 0.06074346601963043, 5.8602454373613e-05], [-0.06437553465366364, -0.3417949676513672, -0.1870005577802658, 0.043769046664237976, -0.09180663526058197, -0.10547944158315659, 0.11820948868989944, -0.16281844675540924, 0.012380251660943031, -0.4111340045928955, 0.035625964403152466, -0.05184843763709068, 0.0727568045258522, -0.16469597816467285, 0.14962179958820343, 0.10096222162246704, 0.26077741384506226, 0.008176671341061592, 0.029408596456050873, -0.1729152798652649, 0.1777799427509308, -0.01113023143261671, 0.06265819817781448, 0.13971571624279022], [-0.12183365225791931, -0.0470697320997715, 0.06747356057167053, 0.021005840972065926, 0.19544245302677155, 0.21037665009498596, 0.16481713950634003, -0.04665958136320114, 1.8535242080688477, -0.25870779156684875, 0.09182451665401459, 0.13406780362129211, 0.238809734582901, 0.21824641525745392, 0.2561511993408203, -0.027909748256206512, -0.08700083196163177, -0.07681914418935776, -0.0394633412361145, 0.04182190075516701, 0.020017702132463455, 0.17588499188423157, 0.09227476269006729, 0.07644671201705933], [0.2205645591020584, -0.1906759887933731, 0.14227962493896484, 0.20040620863437653, 0.052841056138277054, 0.10836030542850494, 0.012181129306554794, 0.14762122929096222, 0.0354333259165287, -0.011594224721193314, 0.02362702414393425, 0.12504568696022034, 0.35099083185195923, -0.002875586273148656, 0.09917300194501877, 0.14410626888275146, 0.10904717445373535, 0.06269575655460358, -0.018249569460749626, -0.007626009173691273, 0.11292947083711624, 0.04241323098540306, 0.05084846541285515, -0.016731752082705498], [-0.030651267617940903, -0.04066711664199829, 0.07475534826517105, -0.21297702193260193, 0.1089811623096466, -0.002203637734055519, -0.40536171197891235, 0.09295249730348587, -0.1826564520597458, -0.11512699723243713, -0.25528648495674133, 0.08239062875509262, -0.1957062929868698, 0.17679573595523834, -0.11251846700906754, 0.2131468653678894, 0.2565842866897583, -0.023820824921131134, -0.037143196910619736, 0.14676204323768616, -0.08701051026582718, -0.021161213517189026, -0.09385767579078674, 0.18229342997074127], [-0.02697432041168213, 0.35317501425743103, -0.2065555602312088, 0.13662724196910858, -0.20376068353652954, -0.19617930054664612, -0.015646303072571754, -0.12159206718206406, -1.2822178602218628, -0.8597719073295593, 0.060990024358034134, 0.27543991804122925, 0.10949142277240753, -0.0035968360025435686, -0.15888439118862152, -0.12117498368024826, -0.18404681980609894, -0.13347794115543365, -0.04670408368110657, -0.025811418890953064, 0.041157208383083344, -0.04202631860971451, -0.08213603496551514, 0.0468653179705143], [-0.06003740802407265, 0.35917794704437256, -0.06220042705535889, 0.09483178704977036, -0.02950553223490715, -0.1899363249540329, -0.049075350165367126, 0.01384664885699749, 0.2664610743522644, -0.12202039361000061, 0.07474466413259506, -0.030886324122548103, 0.4808328449726105, 0.15467651188373566, -0.10992757230997086, 0.11868061870336533, 0.249565988779068, 0.011836813762784004, 0.0698154866695404, 0.1448107212781906, 0.18633794784545898, 0.009221134707331657, -0.017318356782197952, 0.02314944565296173], [0.15116585791110992, -0.11310561001300812, 0.13484396040439606, 0.2458556890487671, 0.04031599685549736, 0.1584215611219406, 0.15072567760944366, 0.15622791647911072, -0.33699870109558105, 0.3073456585407257, -0.04242750629782677, 0.006201498676091433, -0.11854523420333862, -0.226106658577919, 0.02725469321012497, -0.19226232171058655, -0.5227125287055969, -0.008075401186943054, -0.12977127730846405, 0.014801643788814545, -0.0022456999868154526, -0.03758307173848152, 0.0798945426940918, -0.13259589672088623], [0.06261659413576126, 0.06585318595170975, -0.14310859143733978, 0.14441996812820435, 0.10589906573295593, -0.13728481531143188, -0.108682781457901, 0.11880985647439957, 0.4642746150493622, -0.4583955407142639, -0.1335594356060028, 0.16518564522266388, 0.2398291379213333, -0.07794419676065445, -0.11326159536838531, -0.11630599200725555, 0.023837298154830933, -0.0614948533475399, -0.15060704946517944, -0.22767120599746704, -0.012896610423922539, -0.1332019716501236, 0.0012849082704633474, 0.1357603669166565], [0.113758884370327, 0.07416218519210815, 0.10617595165967941, -0.13401736319065094, -0.19521890580654144, 0.01901235245168209, 0.05982609838247299, 0.08626464009284973, 0.4945845305919647, -0.0996270701289177, 0.1425795704126358, 0.2366524636745453, -0.11758469045162201, 0.13628730177879333, -0.11938946694135666, 0.05137934163212776, 0.13346804678440094, -0.09663417935371399, -0.022945629432797432, -0.17410516738891602, -0.19749058783054352, 0.06628507375717163, 0.023584946990013123, -0.011626717634499073], [0.07955586165189743, 0.12095198780298233, 0.03687416389584541, -0.11314477771520615, 0.07961927354335785, -0.045249443501234055, -0.026119019836187363, 0.07244035601615906, -0.1302773654460907, 0.3831108510494232, 0.024800145998597145, -0.005443182308226824, 0.1378478854894638, -0.1444852501153946, -0.024004284292459488, -0.04476432129740715, 0.020807776600122452, -0.01583767682313919, -0.02621530555188656, 0.21649014949798584, 0.04690881446003914, -0.1005987897515297, 0.05686500295996666, 0.10163554549217224], [-0.0009516358841210604, 0.03174344450235367, 0.17755773663520813, 0.0609857439994812, -0.03336787596344948, -0.20421360433101654, 0.14896269142627716, 0.1897525042295456, 0.09101971983909607, -0.08274993300437927, 0.10035420209169388, -0.21786893904209137, 0.7283626198768616, 0.00497661717236042, 0.13904458284378052, -0.07849300652742386, 0.1590505838394165, 0.31869933009147644, 0.02161293476819992, -0.01850045844912529, 0.07278824597597122, -0.06257045269012451, -0.10800570994615555, -0.044939491897821426], [0.07953864336013794, 0.10106968134641647, -0.11854402720928192, -0.14213241636753082, -0.17700913548469543, 0.056429602205753326, -0.07634074985980988, -0.09377384930849075, -2.290456771850586, 0.38400664925575256, 0.13691963255405426, 0.14349204301834106, -0.136927530169487, 0.16917285323143005, -0.0060835606418550014, 0.011793561279773712, 0.013639403507113457, 0.03528484329581261, -0.014006350189447403, -0.5636532306671143, 0.05511244758963585, -0.14946621656417847, -0.13639867305755615, -0.016176536679267883], [0.20738708972930908, 0.3334317207336426, -0.1762429177761078, -0.08515679091215134, 0.28441065549850464, -0.13933613896369934, -0.09276045113801956, 0.17674055695533752, 0.3597675859928131, -0.09757400304079056, 0.12915974855422974, 0.27526548504829407, 0.2998068034648895, -0.08808467537164688, 0.005750366020947695, -0.11571203917264938, -0.044028740376234055, 0.031297191977500916, -0.14214865863323212, -0.08909198641777039, -0.059796448796987534, 0.03975750878453255, -0.008191918022930622, 0.1143307015299797], [-0.18999919295310974, 0.2774704694747925, -0.029485514387488365, 0.13185596466064453, -0.09320035576820374, 0.1713300347328186, 0.17784325778484344, -0.00968232098966837, 0.07444760948419571, -0.11771202832460403, -0.09311054646968842, 0.21088211238384247, 0.01858345791697502, 0.23756824433803558, -0.010293418541550636, -0.04876416176557541, -0.008024298585951328, 0.09832265973091125, 0.3776583969593048, -0.18997593224048615, 0.1280488818883896, -0.026494858786463737, 0.15777580440044403, 0.10084273666143417], [0.03446052968502045, 0.19113105535507202, 0.16969577968120575, -0.0677710622549057, -0.08693871647119522, 0.10175497829914093, -0.12289460003376007, 0.14543791115283966, 0.5368251800537109, 0.3535557687282562, 0.19167399406433105, -0.026982270181179047, -0.252261757850647, 0.17851297557353973, -0.25680866837501526, 0.21990378201007843, 0.4215834438800812, 0.11661165207624435, 0.011169352568686008, -0.29337528347969055, -0.16023696959018707, -0.044947586953639984, -0.13727985322475433, 0.020927678793668747], [-0.24995450675487518, -0.2552279233932495, 0.043006762862205505, -0.06105424091219902, 0.2892289459705353, -0.01836572028696537, 0.25193333625793457, 0.09297347068786621, 0.6406453847885132, -0.08448541164398193, 0.07399027049541473, -0.06567464023828506, 0.06215662509202957, -0.022989945486187935, -0.36070603132247925, 0.004193257540464401, -0.15930044651031494, 0.15372219681739807, -0.07317686825990677, -0.0020765310619026423, 0.11777344346046448, 0.4489489495754242, 0.08392008394002914, -0.08450476825237274], [-0.0008775577298365533, -0.06773305684328079, 0.02943355403840542, -0.007846863940358162, -0.1757815033197403, -0.17659991979599, 0.04165541008114815, 0.0726492628455162, 1.331493616104126, -0.04097631201148033, -0.18039055168628693, -0.2018328458070755, 0.12787911295890808, 0.17651385068893433, -0.1987975537776947, -0.0210967306047678, 0.22819121181964874, -0.01945687085390091, 0.010479631833732128, -0.02302907221019268, -0.05495942384004593, -0.05102770775556564, -0.033848755061626434, 0.027131568640470505], [0.04918702691793442, -0.7946274280548096, 0.1435650885105133, -0.10179443657398224, -0.04374999552965164, 0.11916724592447281, 0.06788698583841324, -0.04536106437444687, -0.17558501660823822, 0.05198526754975319, 0.15991099178791046, 0.026592552661895752, -0.2280646413564682, 0.08979272097349167, 0.0391911119222641, -0.025218240916728973, 0.015175200067460537, 0.035855818539857864, -0.01974099688231945, -0.21762102842330933, -0.02367861568927765, -0.01365652959793806, -0.06098480895161629, -0.023598963394761086], [0.1310940682888031, 0.13019679486751556, 0.19266076385974884, 0.04055581986904144, 0.1136503741145134, 0.009659749455749989, 0.05510178953409195, 0.027161136269569397, 1.6806926727294922, 0.7997487187385559, -0.11591008305549622, -0.2290903776884079, -0.026483451947569847, -0.04928680509328842, -0.14650122821331024, -0.0600576251745224, -0.1094091609120369, -0.011009824462234974, 0.1731795370578766, -0.1869307905435562, -0.1477549523115158, -0.12473707646131516, -0.12663565576076508, 0.13028055429458618], [0.10966227203607559, 0.03410470858216286, 0.0732167512178421, -0.018843909725546837, 0.01073559932410717, 0.06340484321117401, 0.006260968279093504, 0.027911389246582985, 0.029301190748810768, 0.004416977521032095, -0.10318274796009064, 0.034833718091249466, -0.26313984394073486, -1.3660950660705566, 0.07941415160894394, 0.020302502438426018, 0.09690382331609726, 0.12223107367753983, -0.06149522587656975, 0.10785507410764694, 0.14608098566532135, -0.0011667066719383001, 0.08861377835273743, 0.11797156929969788], [0.18387794494628906, 0.6380425095558167, -0.020735081285238266, 0.02465544268488884, -0.0836452767252922, 0.07044081389904022, 0.11628842353820801, -0.11624308675527573, 0.14728116989135742, 0.26990148425102234, -0.17690902948379517, 0.25124382972717285, -0.01675133779644966, 0.05095843970775604, -0.11205693334341049, -0.0065050069242715836, -0.10470592975616455, -0.18152128159999847, -0.11604377627372742, 0.004842186812311411, 0.101614810526371, -0.026578987017273903, 0.048069603741168976, -0.10131418704986572], [-0.03302432596683502, -0.11285075545310974, 0.09710539132356644, 0.06699449568986893, -0.09466695785522461, 0.18342231214046478, -0.051150426268577576, 0.21876758337020874, -0.16938066482543945, -0.1929466277360916, -0.0938963070511818, 0.5726863145828247, 0.233911395072937, 0.15930576622486115, -0.10836607217788696, 0.035125114023685455, -0.2259645313024521, -0.00882690493017435, -0.061651382595300674, 0.12408538907766342, -0.10586356371641159, -0.03961167484521866, 0.1151457354426384, 0.14637447893619537], [-0.015738844871520996, 0.2424296736717224, 0.07572657614946365, 0.043096769601106644, 0.04619164392352104, 0.025002647191286087, 0.07553702592849731, 0.04422978311777115, -0.0663205236196518, 0.08888352662324905, -0.15511344373226166, -0.047705210745334625, 0.06857962906360626, -0.27107977867126465, 0.34066542983055115, -0.1481824815273285, -0.03152455762028694, 0.46431609988212585, -0.07246463745832443, -0.028760762885212898, -0.0023942054249346256, -0.020982414484024048, 0.06680934131145477, 0.010070208460092545], [0.04811202362179756, -0.1751304566860199, -0.12605535984039307, 0.1033434346318245, 0.20114216208457947, 0.02038816548883915, 0.020022498443722725, 0.19321998953819275, 0.41161665320396423, 0.17409734427928925, 0.02766464836895466, 0.21531139314174652, 0.0798875167965889, 0.23969389498233795, 0.13015572726726532, -0.08701848983764648, 0.07805982977151871, 0.11637907475233078, 0.12328650802373886, -0.04697568714618683, 0.1010863408446312, 0.05612228810787201, 0.07852040976285934, -0.09359709173440933], [-0.012347097508609295, 0.20122702419757843, -0.009904409758746624, -0.16059152781963348, 0.21142572164535522, -0.0076651121489703655, -0.1774778962135315, 0.17135784029960632, 1.821918249130249, -0.40384548902511597, 0.011346629820764065, -0.2158336490392685, -0.1576528549194336, -0.15315644443035126, 0.0685262531042099, 0.1767979860305786, 0.1970217376947403, -0.1599498838186264, 0.004200252704322338, -0.02691921964287758, -0.029275625944137573, 0.21615605056285858, 0.24988779425621033, -0.10815536230802536], [0.09798970073461533, -0.41463321447372437, -0.05447962135076523, -0.14671461284160614, -0.02292688935995102, 0.09567990899085999, 0.08852051198482513, 0.2514020800590515, -0.0694086104631424, 0.03913133218884468, -0.07387252151966095, 0.24151897430419922, -0.0010642703855410218, 0.058784935623407364, 0.1670878529548645, 0.025009896606206894, 0.1334325671195984, -0.10266067832708359, 0.09366054087877274, 0.11046334356069565, 0.2276303917169571, -0.09242456406354904, 0.04836456850171089, -0.04956783726811409], [-0.12930338084697723, -0.44140923023223877, 0.189112588763237, -0.00956200622022152, 0.019558481872081757, -0.21344414353370667, 0.11148308962583542, -0.03612344712018967, 0.06615777313709259, 0.15044431388378143, 0.0016361658927053213, 0.3257542550563812, 0.16216734051704407, -0.10311683267354965, 0.05709107220172882, -0.19914565980434418, 0.026953252032399178, 0.25018492341041565, -0.02431824617087841, -0.1856163889169693, -0.022642921656370163, -0.03295188397169113, 0.041609592735767365, 0.05170455947518349], [-0.1095031201839447, 0.12454874068498611, -0.18457822501659393, -0.10174660384654999, 0.0015840692212805152, 0.05875685438513756, 0.019349878653883934, 0.12613756954669952, -0.20106683671474457, -0.24019519984722137, 0.18541763722896576, 0.42011862993240356, -0.14231714606285095, -0.2715201675891876, 0.21563167870044708, 0.02223299816250801, 0.016703112050890923, 0.1519174873828888, -0.06127990782260895, -0.0385398343205452, 0.12176735699176788, 0.03239138051867485, 0.1772640198469162, 0.027449145913124084], [0.060316137969493866, -0.0921991840004921, -0.1458558887243271, 0.05410809814929962, 0.11308059096336365, 0.05282027646899223, 0.02771804668009281, -0.06459042429924011, 1.7804747819900513, -0.0915115475654602, 0.10098621249198914, -0.1715448498725891, -0.17856405675411224, 0.015506548807024956, 0.02854280360043049, -0.10306896269321442, 0.17956969141960144, -0.11435546725988388, 0.049403008073568344, 0.128024622797966, -0.03255283460021019, -0.019548555836081505, 0.0524124801158905, 0.022808894515037537], [-0.11862142384052277, 0.0902867242693901, 0.21717475354671478, 0.15862642228603363, -0.07659955322742462, -0.007132191210985184, -0.12534914910793304, 0.08225930482149124, -0.2983695864677429, -0.12054173648357391, 0.09954927116632462, -0.04288044199347496, 0.22921471297740936, 0.20604342222213745, 0.04808727651834488, 0.15874367952346802, 0.09782767295837402, 0.08527173846960068, -0.009171396493911743, -0.5011242628097534, 0.20524102449417114, 0.18505482375621796, -0.08460862189531326, 0.12121481448411942], [0.022859349846839905, 0.13781820237636566, -0.04745512455701828, -0.13958339393138885, 0.11735598742961884, -0.06584779918193817, -0.05188747122883797, 0.15004056692123413, 1.7493997812271118, -0.46250197291374207, 0.20600742101669312, 0.0839591696858406, 0.15366140007972717, 0.271897554397583, -0.08404785394668579, -0.055524397641420364, -0.13345292210578918, -0.07050161063671112, -0.08148498833179474, -0.2900661826133728, 0.03951939195394516, -0.16068615019321442, -0.13397926092147827, 0.1884652078151703], [-0.014895805157721043, 0.24803376197814941, -0.10756745934486389, -0.025341911241412163, 0.06734973937273026, 0.013251279480755329, 0.022771945223212242, 0.10390008985996246, 1.2500901222229004, 1.5146714448928833, 0.17917828261852264, 0.2133372724056244, -0.16403473913669586, 0.14281314611434937, 0.03136375918984413, 0.15065182745456696, -0.11784250289201736, -0.05503343418240547, 0.03889142721891403, 0.27503082156181335, 0.09180457890033722, -0.010572967119514942, 0.052307285368442535, 0.04005209356546402], [-0.22208711504936218, 0.19718685746192932, 0.12832646071910858, 0.050331782549619675, -0.05606713891029358, 0.2032221257686615, -0.1097942665219307, 0.1719767451286316, 1.3756557703018188, -0.11063235998153687, 0.18115687370300293, -0.09012909233570099, -0.05390620976686478, -0.193472757935524, 0.10256800800561905, 0.1635621190071106, 0.25995877385139465, 0.1276661455631256, -0.01361472625285387, -0.2801640033721924, 0.159367635846138, -0.17763300240039825, -0.030071264132857323, 0.09530669450759888], [0.0746079608798027, -0.5093225836753845, 0.2317434698343277, -0.09269433468580246, 0.17522011697292328, -0.0631161704659462, -0.1227581724524498, -0.11666055023670197, 0.48189806938171387, -0.036008499562740326, 0.09810947626829147, 0.15847836434841156, 0.1702529788017273, -0.101159006357193, -0.12600235641002655, -0.040266793221235275, -0.0216892808675766, -0.023269623517990112, -0.09960632771253586, -0.22629514336585999, -0.04343327134847641, -0.029434870928525925, -0.11880778521299362, 0.15494349598884583], [0.0044003319926559925, 0.34577369689941406, 0.019107284024357796, 0.16035543382167816, -0.18656517565250397, -0.156813383102417, -0.06887757778167725, -0.15953202545642853, -2.1666171550750732, 0.052190475165843964, 0.022807283326983452, 0.17954416573047638, -0.129033625125885, -0.20983871817588806, -0.04127676412463188, -0.08234424889087677, -0.11999958008527756, 0.036700539290905, -0.07794210314750671, -0.07297716289758682, 0.0779229924082756, -0.12146073579788208, 0.09035354852676392, 0.04256271943449974], [0.019647609442472458, -0.11723640561103821, -0.0843561664223671, 0.1122673973441124, -0.048844218254089355, -0.1533108353614807, 0.024712257087230682, -0.003680554451420903, 0.6115357279777527, 0.1070764809846878, -0.14890477061271667, -0.1618068516254425, -0.09237957745790482, -0.3619590103626251, -0.4435126781463623, -0.1337203085422516, -0.2361462414264679, 0.020074494183063507, -0.03563358262181282, 0.007855791598558426, 0.019069483503699303, 0.051438845694065094, 0.18132828176021576, 0.04344606399536133], [0.1662004142999649, 0.1821018010377884, 0.001961525296792388, 0.16536562144756317, 0.02342258021235466, 0.10318585485219955, -0.13658522069454193, -0.09927010536193848, 0.23819854855537415, -0.21449488401412964, 0.2055191546678543, -0.09355411678552628, -0.0958632156252861, -0.008759720250964165, 0.13586248457431793, 0.0012368662282824516, -0.037268590182065964, 0.040667735040187836, 0.34501180052757263, 0.04767662659287453, -0.030056454241275787, -0.1809188574552536, -0.22772952914237976, -0.050642017275094986], [-0.2070147693157196, -0.09988284111022949, 0.13794448971748352, -0.13451573252677917, 3.0072689696680754e-05, 0.07975373417139053, -0.18420472741127014, 0.12520207464694977, 0.5152745842933655, 0.1372544914484024, 0.14227460324764252, -0.21002663671970367, -0.23312851786613464, 0.1353914737701416, -0.037844300270080566, -0.0900542140007019, 0.10633115470409393, 0.11677747964859009, 0.1016775369644165, 0.10892733186483383, -0.040850721299648285, -0.09625279158353806, 0.15868571400642395, 0.07368536293506622], [0.00442539481446147, -0.35961034893989563, -0.09884008765220642, -0.048758991062641144, -0.06365787982940674, 0.13102427124977112, -0.06377521902322769, 0.07402199506759644, -0.7310734987258911, 0.15489095449447632, 0.1557694971561432, 0.1543016880750656, -0.03178243339061737, 0.249344140291214, 0.02140694484114647, -0.2042408138513565, 0.1017603725194931, 0.08365434408187866, -0.023286016657948494, 0.02351757325232029, 0.030655190348625183, 0.18770712614059448, -0.25052955746650696, 0.0837082713842392], [0.21778875589370728, 0.21365898847579956, 0.12588928639888763, 0.14929036796092987, 0.038005415350198746, -0.08403768390417099, 0.13922591507434845, 0.06388899683952332, 0.07967875152826309, 0.10290075838565826, -0.1438390463590622, 0.4659877419471741, 0.29656654596328735, 0.29727086424827576, -0.0404658280313015, 0.015361945144832134, -0.11943228542804718, 0.11897294223308563, -0.17187640070915222, 0.031245559453964233, -0.15869639813899994, 0.0615086629986763, 0.08569847047328949, 0.039892952889204025], [-0.2318703830242157, -0.29315823316574097, 0.009317812509834766, 0.025935577228665352, 0.14589989185333252, 0.20173564553260803, -0.042302243411540985, 0.2315952628850937, -0.3295562267303467, -0.23645983636379242, -0.8363282680511475, 0.1094384640455246, -0.18518732488155365, -0.034783441573381424, 0.04972101002931595, -0.032773636281490326, 0.008150960318744183, -0.00477862823754549, 0.47206801176071167, -0.04094724357128143, -0.08390947431325912, -0.024488132447004318, -0.03139675408601761, -0.01728624291718006], [0.06415286660194397, -0.15712463855743408, -0.16447937488555908, -0.3026295304298401, 0.10950715094804764, 0.16247312724590302, 0.3436449468135834, 0.10067801177501678, -0.16410961747169495, 0.055335480719804764, -0.05547844246029854, 0.007493298500776291, -0.14122141897678375, 0.07128731906414032, -0.06361432373523712, -0.020408915355801582, -0.037722811102867126, 0.061260759830474854, 0.4678572118282318, -0.3283812999725342, -0.14289669692516327, -0.16693371534347534, -0.05281415954232216, 0.0891065001487732], [-0.05840275064110756, 0.12116655707359314, 0.24324728548526764, 0.03269543871283531, -0.10202541202306747, -0.046216949820518494, -0.1254715919494629, -0.0803992748260498, -0.6007434725761414, 0.4450416564941406, 0.029416348785161972, -0.04841270670294762, -0.11497815698385239, 0.2079925388097763, 0.168246328830719, -0.11103019118309021, 0.2611587643623352, -0.09150013327598572, 0.5211755037307739, -0.24694141745567322, 0.2856884002685547, -0.10534632205963135, -0.1699889600276947, -0.15461884438991547], [-0.10271618515253067, 0.028622906655073166, -0.042113225907087326, 0.1654021441936493, -0.06115637719631195, 0.19865873456001282, 0.08175640553236008, -0.1641605794429779, 0.09155236929655075, 0.19270974397659302, -0.15574298799037933, 