{"architecture": [24, 256, 256, 128, 6], "activation": "relu", "weights": {"net.0.weight": [[0.0447734110057354, 8.48084528115578e-05, 0.00955286156386137, 0.05651871860027313, -0.1427386999130249, 0.1730653941631317, 0.15337416529655457, 0.05276063457131386, 0.3276543915271759, -0.04956243559718132, 0.045583631843328476, -0.6940862536430359, 0.11118223518133163, 0.1353130042552948, -0.13532142341136932, -0.13321201503276825, 0.28295251727104187, -0.13932889699935913, 0.04910581558942795, -0.10172048956155777, 0.20535509288311005, -0.18981046974658966, -0.14159664511680603, 0.05048757046461105], [0.18915265798568726, 0.08390454947948456, -0.06779716908931732, 0.15325936675071716, -0.09654680639505386, 0.16145308315753937, 0.06321042776107788, 0.1928195059299469, 0.2979201674461365, 0.007104022894054651, 0.06875744462013245, -0.5262446999549866, 0.08483225107192993, 0.22097474336624146, -0.053413838148117065, 0.11605849862098694, -0.10132484883069992, 0.08559469878673553, -0.16449840366840363, 0.07341558486223221, -0.18613620102405548, -0.10654324293136597, 0.06381887942552567, 0.19602489471435547], [-0.019452134147286415, -0.10128384828567505, -0.1422072947025299, 0.04212678596377373, 0.17503267526626587, -0.16754654049873352, 0.09134316444396973, -0.18730908632278442, 0.8089699149131775, -0.029858049005270004, 0.03858620300889015, 0.012804257683455944, -0.2246004343032837, 0.1995975524187088, -0.10847504436969757, -0.061077941209077835, 0.008513621054589748, -0.2058597207069397, 0.10463050752878189, 0.021941788494586945, 0.1396435797214508, 0.1683626025915146, 0.19779817759990692, -0.20997141301631927], [-0.0921802967786789, -0.11260015517473221, 0.11219863593578339, 0.09408731013536453, -0.02442040480673313, -0.03312180936336517, 0.07785812765359879, -0.18376196920871735, 0.6939280033111572, -0.2644307613372803, -0.03212859854102135, -0.3237484097480774, -0.08161292225122452, 0.18289156258106232, -0.1213320791721344, -0.0461728498339653, -0.15599863231182098, 0.07552330195903778, 0.058394379913806915, 0.08082648366689682, 0.16308164596557617, 0.018993481993675232, -0.1655140370130539, 0.13723468780517578], [-0.11437582969665527, -0.11348205804824829, -0.07352802157402039, 0.1159212738275528, 0.13324934244155884, 0.012663195841014385, 0.038342513144016266, 0.19407697021961212, 0.24405717849731445, 0.2733575701713562, -0.04033542424440384, -0.08142249286174774, -0.16153404116630554, 0.1081850528717041, -0.02880619466304779, -0.13797762989997864, 0.04173189029097557, 0.1829821765422821, -0.055666930973529816, 0.032977744936943054, 0.16740675270557404, -0.1759507805109024, 0.20379701256752014, -0.034913502633571625], [-0.030908184126019478, 0.1440003663301468, -0.0880676656961441, -0.2695934474468231, 0.18064986169338226, 0.11715859919786453, 0.08679886162281036, -0.08384717255830765, -0.02794278971850872, 0.05839106813073158, 0.1507544219493866, 0.07454321533441544, -0.12180043756961823, -0.12697291374206543, -0.07427388429641724, 0.032139331102371216, -0.10464593023061752, -0.024965737015008926, 0.29145297408103943, 0.07230272889137268, 0.13129884004592896, -0.07402224093675613, 0.028452398255467415, -0.1313522458076477], [-0.09661558270454407, -0.04767265170812607, -0.0880829393863678, 0.08925218135118484, -0.16214211285114288, 0.08081309497356415, -0.12607966363430023, -0.17004244029521942, 0.0345575287938118, -0.3518596887588501, -0.18395382165908813, 0.21166199445724487, -0.1373518705368042, 0.22449353337287903, -0.09801437705755234, -0.11689572781324387, -0.06332089006900787, 0.09191448241472244, -0.08500164747238159, -0.17634576559066772, 0.14898768067359924, -0.0007345186895690858, 0.08977840095758438, 0.14446820318698883], [0.07987767457962036, 0.14475661516189575, -0.004901428706943989, 0.09666353464126587, 0.07365377992391586, -0.2373664677143097, 0.07775173336267471, 0.15388987958431244, -0.1039636954665184, 0.176314577460289, -0.06800965219736099, 0.27879878878593445, 0.3805610239505768, -0.1593833714723587, 0.07059329003095627, 0.009541182778775692, -0.12144113332033157, 0.16973944008350372, 0.1376814991235733, -0.034737396985292435, -0.10444501787424088, -0.08650021255016327, -0.08695074170827866, 0.18848049640655518], [-0.2328849881887436, -0.0014016403583809733, -0.026856889948248863, 0.07130677253007889, -0.037835706025362015, -0.1461348533630371, 0.0008284349460154772, 0.007757976185530424, -0.19367490708827972, -0.01146500464528799, -0.16711540520191193, -0.48190176486968994, 0.23615670204162598, 0.06528978794813156, 0.14189571142196655, 0.16952194273471832, -0.061406832188367844, 0.21871377527713776, -0.13521018624305725, 0.11080683022737503, 0.10430733859539032, -0.12036854773759842, -0.19409318268299103, 0.2579849362373352], [0.11860623955726624, 0.0215736273676157, -0.050787992775440216, -0.1351429969072342, 0.1876264363527298, -0.06024802848696709, -0.08523555845022202, 0.1935170739889145, -0.2416791319847107, 0.2155807763338089, -0.08429164439439774, 0.29500868916511536, -0.06734903156757355, -0.1940293163061142, -0.08907780796289444, -0.10400132089853287, 0.17490223050117493, -0.02838510274887085, 0.07368491590023041, -0.33230552077293396, -0.1334443837404251, 0.14616654813289642, 0.12153762578964233, -0.00951276533305645], [0.09047585725784302, 0.08929139375686646, -0.15343274176120758, -0.15501859784126282, -0.20479048788547516, -0.030280103906989098, -0.013389283791184425, -0.16300123929977417, -0.04881146550178528, -0.07861890643835068, -0.15966740250587463, -0.5142847299575806, -0.29141169786453247, 0.09277205169200897, 0.05659269168972969, -0.12986084818840027, -0.07745247334241867, -0.09125063568353653, 0.012906246818602085, -0.17151622474193573, 0.125444695353508, -0.03370795398950577, -0.15472616255283356, 0.17568424344062805], [-0.11696683615446091, -0.15617497265338898, -0.11068040132522583, 0.1592482477426529, 0.17300182580947876, 0.21476241946220398, -0.06635666638612747, 0.15101869404315948, -0.19545093178749084, 0.043775156140327454, -0.07120747864246368, -0.04597577080130577, 0.18571332097053528, -0.12570612132549286, -0.1488470733165741, 0.06670936942100525, -0.006690014619380236, -0.007059240713715553, -0.007594785653054714, -0.07522901892662048, -0.19129347801208496, 0.18596693873405457, -0.16755011677742004, 0.12709011137485504], [-0.1671893298625946, 0.030412444844841957, 0.22390606999397278, 0.005269060377031565, -0.13026781380176544, 0.11649864912033081, 0.009061701595783234, 0.2075105607509613, -0.01897772215306759, 0.6021437644958496, 0.07226134836673737, -0.04199345409870148, 0.16324737668037415, 0.08508854359388351, -0.02867652289569378, -0.17636573314666748, 0.24965783953666687, 0.03378088027238846, 0.028697224333882332, -0.024585504084825516, 0.1086130142211914, -0.06559304147958755, -0.04211025685071945, 0.054631080478429794], [-0.0073142447508871555, -0.018597230315208435, 0.18844032287597656, -0.042923759669065475, -0.013407173566520214, 0.17110797762870789, 0.12452582269906998, -0.1683710664510727, -0.05726536363363266, 0.0601203553378582, 0.12937605381011963, -0.19779834151268005, 0.06885723769664764, 0.16909143328666687, -0.09883186966180801, 0.02300170622766018, -0.08989977836608887, -0.12435604631900787, 0.051239028573036194, -0.4273048937320709, 0.11593333631753922, -0.0034075691364705563, -0.04106048867106438, 0.14907371997833252], [0.08085519820451736, 0.019512346014380455, -0.0019167083082720637, -0.20062272250652313, 0.08362845331430435, -0.06926543265581131, 0.2179664671421051, -0.1870490163564682, -0.5618669390678406, -0.1291435807943344, 0.13609662652015686, -0.24683071672916412, 0.26798516511917114, 0.19542737305164337, -0.06776928901672363, -0.1683187484741211, -0.036338962614536285, -0.0626998096704483, -0.08553963899612427, -0.0668838769197464, 0.11048795282840729, -0.15309254825115204, -0.13010594248771667, 0.0679069384932518], [0.2109033614397049, 0.07945460081100464, 0.028172239661216736, 0.003082983661442995, 0.1209043487906456, -0.06920884549617767, 0.03058641403913498, -0.03995693475008011, 0.262514591217041, -0.03535255417227745, 0.18073627352714539, -0.6775912046432495, 0.04694996401667595, -0.1152178943157196, -0.16227945685386658, -0.05829988420009613, 0.13963408768177032, -0.022278154268860817, -0.017769398167729378, -0.028886398300528526, 0.07820383459329605, 0.0636695846915245, 0.15761221945285797, -0.13048352301120758], [-0.0496218316257, -0.11756685376167297, -0.1023794636130333, -0.1576082855463028, -0.13107925653457642, -0.10288195312023163, -0.0451754629611969, 0.08185496181249619, 0.0029962249100208282, -0.07736513763666153, -0.1928095668554306, -0.029260022565722466, -0.18668478727340698, -0.036763470619916916, 0.0643077939748764, 0.015319363214075565, 0.1535295695066452, 0.2092406451702118, -0.1331714540719986, -0.28731298446655273, -0.08557306975126266, -0.06791037321090698, 0.026249729096889496, 0.06107361614704132], [0.1973530352115631, -0.10192106664180756, 0.044103413820266724, 0.038487933576107025, -0.041458483785390854, -0.08825234323740005, 0.18524186313152313, -0.16029131412506104, -0.6915763020515442, 0.522871196269989, -0.07746298611164093, 0.014853437431156635, -0.0042930846102535725, 0.02484482154250145, 0.026558993384242058, -0.04746256396174431, 0.027194788679480553, -0.02761000394821167, -0.05302458256483078, -0.39431390166282654, 0.06089829280972481, 0.19869354367256165, 0.17553775012493134, 0.0661928653717041], [0.08815477788448334, -0.052641116082668304, -0.024178259074687958, 0.0069393133744597435, 0.007089328020811081, -0.04669477418065071, 0.026597624644637108, -0.14798934757709503, 0.10691877454519272, 0.12853842973709106, -0.0874556377530098, 0.3297484219074249, -0.2850947678089142, 0.08851104229688644, 0.017980964854359627, -0.1901913732290268, 0.1956704705953598, 0.2043221890926361, -0.09047247469425201, -0.06967656314373016, 0.1650708019733429, -0.07978862524032593, 0.018403038382530212, -0.02362840436398983], [0.26200035214424133, -0.011485127732157707, -0.07218144088983536, -0.057594019919633865, -0.007169627118855715, -0.07811883836984634, 0.034698523581027985, -0.11628901958465576, 0.02566971629858017, 0.032707132399082184, 0.09916975349187851, 0.14368435740470886, -0.12918883562088013, 0.15619218349456787, 0.03460320830345154, 0.020361850038170815, 0.07554706186056137, -0.052495818585157394, 0.049549948424100876, -0.04134296625852585, 0.19503773748874664, -0.06427197903394699, -0.08768909424543381, -0.23274193704128265], [-0.16833877563476562, -0.0515286847949028, 0.18801023066043854, -0.12999863922595978, -0.18716786801815033, 0.03146566450595856, -0.1391451209783554, -0.1566828489303589, 0.08195950090885162, -0.08002077043056488, 0.06801241636276245, 0.06095495447516441, 0.11634109169244766, 0.002464883029460907, -0.04216638579964638, -0.016479190438985825, -0.061091214418411255, -0.1314256340265274, 0.04927214980125427, -0.07145340740680695, -0.03905061259865761, -0.18976746499538422, -0.06432434171438217, -0.007944812066853046], [-0.1973443180322647, 0.06067114323377609, -0.13794457912445068, 0.029570123180747032, 0.301369845867157, -0.09466099739074707, -0.14551739394664764, 0.11452235281467438, -0.1310003101825714, 0.06586875021457672, 0.038386180996894836, -0.44652771949768066, 0.050986360758543015, 0.04215241223573685, 0.04015711322426796, -0.09399766474962234, 0.12050023674964905, 0.25929272174835205, -0.09469863027334213, -0.07491720467805862, 0.11618003994226456, -0.03884280100464821, -0.017805302515625954, -0.16684211790561676], [-0.16880576312541962, 0.15567989647388458, -0.033815573900938034, -0.0783257782459259, 0.015599739737808704, -0.04754801094532013, -0.14992696046829224, 0.16908609867095947, 0.2535117566585541, 0.07158023864030838, -0.11264379322528839, -0.21963126957416534, 0.14733071625232697, 0.19173309206962585, 0.043144047260284424, 0.22240515053272247, 0.21925055980682373, 0.20745588839054108, -0.10348241776227951, 0.034621670842170715, 0.04713819921016693, -0.010500498116016388, 0.1663297414779663, 0.06115296110510826], [0.25465530157089233, -0.028762316331267357, -0.07658889889717102, -0.08390939235687256, 0.043561775237321854, -0.028445277363061905, -0.11585678160190582, -0.10212694108486176, -0.061842627823352814, -0.04133220016956329, 0.013448629528284073, 0.19022268056869507, 0.42510390281677246, -0.030417922884225845, 0.02146727778017521, -0.1235140934586525, 0.21141678094863892, 0.1215994730591774, -0.010773591697216034, -0.025703558698296547, 0.21416985988616943, -0.03213028982281685, -0.2159232348203659, 0.009036830626428127], [0.020928924903273582, 0.07272256910800934, -0.018582673743367195, 0.08853915333747864, 0.11415927112102509, -0.07304219901561737, 0.037184834480285645, -0.20029893517494202, -0.4009583294391632, -0.07469573616981506, 0.08294534683227539, 0.3065820038318634, 0.1974743753671646, 0.1684206873178482, -0.1825239509344101, -0.10213591903448105, 0.1710679531097412, -0.13408854603767395, -0.08619794994592667, 0.021473554894328117, -0.11802271008491516, 0.13132260739803314, 0.14448030292987823, 0.14998474717140198], [0.09965412318706512, 0.0890723392367363, -0.22053112089633942, 0.16131079196929932, -0.020995160564780235, 0.20784379541873932, -0.06488386541604996, -0.05317997932434082, -0.19427555799484253, -0.15153096616268158, -0.24372470378875732, -0.21069000661373138, 0.033507511019706726, -0.09344145655632019, 0.06757159531116486, 0.1863408237695694, -0.1773187667131424, -0.11679672449827194, 0.002153261099010706, 0.036773886531591415, -0.024773238226771355, 0.17996424436569214, 0.10050109028816223, -0.03305046260356903], [-0.05243774503469467, 0.06494937837123871, 0.08989998698234558, 0.10675955563783646, 0.17161399126052856, -0.1568356454372406, 0.09355540573596954, 0.17071668803691864, 0.7343926429748535, 0.18922099471092224, 0.008168457075953484, 0.3212224841117859, -0.25087907910346985, 0.16709725558757782, -0.10634174942970276, -0.13060322403907776, -0.020456288009881973, -0.09288100153207779, -0.03675679862499237, -0.0745978131890297, -0.15021885931491852, 0.17295551300048828, 0.16083942353725433, -0.22427527606487274], [0.12772807478904724, 0.08260758221149445, -0.1332549899816513, 0.10088110715150833, 0.1173182874917984, -0.1113509088754654, -0.11093069612979889, 0.13371159136295319, -0.03490390628576279, 0.07271210104227066, -0.16080449521541595, 0.3759198784828186, 0.3703141510486603, 0.041049640625715256, -0.061002012342214584, -0.1322668492794037, 0.07406111061573029, 0.046779364347457886, 0.07935795933008194, -0.0640871673822403, 0.16407954692840576, -0.18751341104507446, -0.15293985605239868, -0.1356613039970398], [0.1014970913529396, 0.08776066452264786, -0.13940010964870453, -0.06332208216190338, 0.11898425221443176, 0.021889615803956985, 0.08994675427675247, 0.1261827051639557, 0.33556053042411804, -0.23065976798534393, -0.0910387933254242, -0.27909624576568604, -0.09648482501506805, -0.3258538842201233, 0.06103353947401047, -0.10776834934949875, -0.04083085432648659, -0.1591401994228363, -0.17777571082115173, -0.022530075162649155, -0.03558420389890671, -0.014794458635151386, 0.12892821431159973, -0.1472625434398651], [0.09016600251197815, -0.07194692641496658, 0.043125323951244354, 0.08989609032869339, 0.13177402317523956, -0.16693729162216187, -0.007150108460336924, -0.06418398022651672, -0.16505767405033112, 0.21582533419132233, -0.12711048126220703, -0.1694023460149765, 0.1439470499753952, 0.21082758903503418, -0.07201448827981949, -0.003654254600405693, 0.1252676546573639, 0.03155839815735817, -0.052258364856243134, 0.12357916682958603, -0.021132076159119606, 0.11734474450349808, -0.06269966810941696, -0.021338921040296555], [-0.09751202166080475, 0.031785327941179276, -0.0853273794054985, 0.10403317958116531, -0.01200966164469719, -0.1365068405866623, 0.03671763837337494, 0.011727960780262947, -0.06767045706510544, 0.04735894128680229, 0.028127731755375862, -0.0014650066150352359, 0.2920069694519043, 0.204026997089386, -0.06952928751707077, -0.1255086362361908, 0.15774674713611603, -0.06830989569425583, -0.09298354387283325, 0.02531183511018753, 0.008434438146650791, -0.07214989513158798, -0.12930776178836823, -0.084635891020298], [0.22565872967243195, 0.08708931505680084, -0.032061509788036346, -0.11642672121524811, -0.10303108394145966, 0.1591421514749527, 0.01099387276917696, 0.1647280603647232, -0.09713040292263031, 0.13385947048664093, -0.044612985104322433, 0.17551273107528687, -0.059135619550943375, 0.024565955623984337, 0.023870324715971947, 0.0983692929148674, 0.04802614077925682, -0.15708711743354797, 0.41331663727760315, -0.026147594675421715, 0.04583894461393356, 0.0059148031286895275, 0.06128205731511116, -0.05538353696465492], [-0.06763583421707153, 0.04763426259160042, 0.07616310566663742, 0.11219171434640884, -0.09963850677013397, -0.1152583584189415, -0.006149377673864365, -0.15311217308044434, -0.19709156453609467, -0.03619316965341568, -0.0008383680833503604, -0.09563703835010529, -0.11639264225959778, 0.03918109089136124, 0.04842071235179901, 0.2077331691980362, -0.01606418751180172, -0.12882176041603088, -0.005221872590482235, 0.033864233642816544, 0.02250785194337368, 0.04876412823796272, -0.0010817935690283775, 0.08013009279966354], [0.02552666887640953, -0.22593671083450317, 0.012072710320353508, 0.1472359448671341, 0.014558032155036926, -0.12064800411462784, 0.01521063782274723, -0.054919417947530746, 0.2204664796590805, 0.11054441332817078, 0.05604939162731171, 0.10654827952384949, 0.13560090959072113, 0.04366303235292435, 0.11869052797555923, -0.07230713218450546, 0.12699787318706512, 0.1455806940793991, 0.16423702239990234, 0.08658242970705032, 0.054750923067331314, 0.1354493796825409, 0.0022975546307861805, 0.19685021042823792], [-0.06976472586393356, 0.14269350469112396, 0.03731284663081169, -0.14812743663787842, 0.2611195743083954, 0.08751000463962555, -0.1915791779756546, 0.19887050986289978, 0.16679231822490692, 0.09876352548599243, 0.07991717010736465, -0.17449410259723663, -0.018046244978904724, -0.07401219010353088, 0.005653942469507456, 0.49390682578086853, 0.07433174550533295, 0.0013405364006757736, -0.09261613339185715, 0.1205473244190216, 0.02303861826658249, 0.13667356967926025, -0.14564009010791779, -0.023198137059807777], [-0.04805891215801239, -0.08067025244235992, 0.20406624674797058, 0.055053312331438065, 0.005733420141041279, 0.20474880933761597, -0.15601836144924164, 0.15517033636569977, -0.7198746800422668, -0.16835662722587585, -0.07769709080457687, 0.12581172585487366, -0.009172002784907818, 0.18625804781913757, -0.14687050879001617, -0.08585594594478607, 0.12486755102872849, -0.01822763681411743, -0.06865622103214264, 0.0768236517906189, -0.048203472048044205, -0.1278480589389801, -0.10893748700618744, 0.10947747528553009], [0.1853516697883606, -0.05130600556731224, 0.06447548419237137, 0.04907621070742607, 0.10404673218727112, 0.18241839110851288, 0.010726016946136951, -0.16407646238803864, 0.052983421832323074, 0.10556607693433762, -0.10393381118774414, -0.24161343276500702, -0.20664118230342865, 0.052606988698244095, -0.06500671803951263, 0.1512778401374817, 0.11443059891462326, -0.3576526641845703, 0.0889219343662262, 0.15200497210025787, 0.212349534034729, -0.34756898880004883, 0.10376502573490143, 0.041716620326042175], [-0.16045734286308289, 0.048729538917541504, 0.08857175707817078, -0.031274713575839996, 0.0886354148387909, 0.05419358238577843, 0.04930057376623154, 0.09060117602348328, -0.0819874033331871, -0.04772024229168892, 0.04244086146354675, -0.02006738819181919, 0.15327751636505127, -0.10087233781814575, 0.04644908756017685, -0.17481321096420288, 0.15654750168323517, 0.23664668202400208, -0.0015121886972337961, -0.15058714151382446, -0.12496732920408249, 0.07898439466953278, -0.008155716583132744, -0.1547839641571045], [0.16770721971988678, 0.16524329781532288, -0.0493919812142849, 0.028876392170786858, 0.039244163781404495, 0.08714616298675537, -0.20179776847362518, -0.1296018809080124, -0.08881844580173492, 0.029043277725577354, -0.0967249721288681, -0.23381122946739197, -0.11812889575958252, -0.1700328290462494, -0.22369734942913055, 0.12703736126422882, -0.3078697621822357, -0.16032825410366058, -0.15140801668167114, -0.18847033381462097, 0.20227794349193573, -0.3047409951686859, -0.08082056790590286, -0.1579360067844391], [-0.21980924904346466, -0.03190968558192253, -0.16389399766921997, -0.11427628248929977, 0.330110639333725, 0.10797915607690811, 0.060930974781513214, 0.05756964534521103, -0.6219089031219482, 0.0876123458147049, -0.10718029737472534, -0.35305356979370117, -0.2891973555088043, 0.02783760242164135, 0.15530869364738464, -0.1652364581823349, 0.23421968519687653, 0.03557165339589119, 0.006653524935245514, -0.19851095974445343, 0.050921306014060974, 0.09712936729192734, 0.14014177024364471, -0.10347982496023178], [0.04179472476243973, 0.1173783391714096, 0.11916962265968323, -0.04420013353228569, 0.026119953021407127, 0.12054729461669922, 0.024789856746792793, 0.21216827630996704, 0.14486268162727356, -0.11555278301239014, -0.026702171191573143, -0.4686313569545746, 0.17292875051498413, 0.19778990745544434, 0.11988016963005066, 0.009342032484710217, 0.17550994455814362, 0.10210032016038895, -0.12969516217708588, -0.05102641507983208, 0.1730797290802002, 0.021037304773926735, 0.12405799329280853, -0.17799225449562073], [-0.03409172594547272, -0.08276934176683426, -0.16539794206619263, -0.19526535272598267, -0.22610469162464142, 0.19037342071533203, 0.05223217234015465, 0.21099360287189484, 0.117001973092556, 0.07112114876508713, 0.11812420934438705, -0.035808149725198746, -0.20152558386325836, -0.4042796194553375, -0.04066639393568039, 0.1274084895849228, -0.007767260540276766, 0.3970266878604889, -0.09535779803991318, 0.03786343336105347, -0.003277295036241412, 0.09510011970996857, -0.13410185277462006, 0.12798164784908295], [0.025730237364768982, 0.016394345089793205, -0.07523725181818008, -0.06195836514234543, -0.10921428352594376, -0.046801917254924774, -0.11927176266908646, 0.0890536978840828, -0.16417670249938965, 0.02501763217151165, -0.07722567766904831, -0.19913940131664276, 0.023104200139641762, -0.013231487013399601, 0.028754210099577904, -0.03531024605035782, 0.07740841805934906, -0.04684877023100853, 0.35568109154701233, 0.03504585102200508, 0.16149590909481049, 0.1225622296333313, -0.151224747300148, -0.12624213099479675], [-0.1255706399679184, 0.0963539257645607, 0.10946212708950043, 0.03145113214850426, -0.22579257190227509, -0.13264203071594238, 0.03178061917424202, -0.18415293097496033, -0.26891759037971497, -0.12193162739276886, -0.04599912092089653, -0.17140816152095795, -0.2668728232383728, 0.04807223379611969, 0.15290026366710663, -0.09699533879756927, -0.12311392277479172, -0.14504079520702362, 0.20409426093101501, 0.038965124636888504, 0.011413590051233768, 0.03468678146600723, 0.058647800236940384, -0.012570329941809177], [0.00953624490648508, 0.0095070144161582, 0.0013725243043154478, 0.1364755928516388, -0.00316976523026824, 0.09440591931343079, -0.033821042627096176, -0.08089929819107056, -0.0813041627407074, 0.5102678537368774, 0.18074637651443481, -0.19937917590141296, 0.18253093957901, 0.062091462314128876, -0.14044465124607086, 0.05107488855719566, -0.17315447330474854, -0.31214237213134766, -0.16436298191547394, -0.18367323279380798, 0.11240699887275696, -0.25599437952041626, 0.00292438012547791, 0.11880852282047272], [-0.14119111001491547, 0.18174627423286438, -0.14358794689178467, 0.19918498396873474, -0.09743686765432358, 0.07539870589971542, 0.08080708235502243, 0.22049205005168915, -0.27558302879333496, 0.2869076728820801, -0.11539604514837265, 0.27666258811950684, 0.038623448461294174, -0.11268056929111481, -0.03344687446951866, 0.06127436086535454, 0.16972315311431885, -0.12539725005626678, -0.06121906638145447, -0.03918526694178581, -0.003944570664316416, -0.15274055302143097, 0.07579473406076431, 0.203072652220726], [0.1382419764995575, -0.12040740251541138, 0.1689637154340744, -0.13134118914604187, 0.07074585556983948, -0.13410881161689758, -0.01116391085088253, 0.10640548914670944, 0.4807913303375244, -0.2613362967967987, 0.00977383367717266, -0.07811606675386429, -0.16077087819576263, -0.055396661162376404, 0.024851428344845772, -0.04801275581121445, -0.09158738702535629, -0.2816186547279358, 0.05196191743016243, -0.19527997076511383, -0.04874647036194801, -0.3064826726913452, 0.06033594161272049, -0.24476639926433563], [0.0709177702665329, -0.0624067448079586, -0.0329090841114521, 0.05856764689087868, 0.08634630590677261, 0.04646579176187515, 0.11353691667318344, 0.038533810526132584, 0.26300477981567383, 0.07988891750574112, -0.13014939427375793, -0.10705403983592987, 0.25918349623680115, -0.08244602382183075, -0.06796389073133469, -0.07851475477218628, -0.045705653727054596, 0.10586575418710709, 0.23882858455181122, -0.10439980775117874, 0.17722760140895844, -0.20240283012390137, 0.03630141541361809, 0.12068840861320496], [-0.17234326899051666, -0.1481814980506897, -0.020767338573932648, 0.11967351287603378, -0.1725490838289261, 0.03818168118596077, -0.06860142946243286, -0.06832747906446457, -0.16956421732902527, 0.267813503742218, -0.010571620427072048, -0.05643469840288162, -0.14135301113128662, -0.11279299855232239, -0.10191908478736877, 0.03281082957983017, -0.1071203276515007, -0.10828177630901337, 0.19158217310905457, 0.06530528515577316, 0.10714445263147354, -0.08334313333034515, 0.08929236233234406, 0.06978370249271393], [0.10993555933237076, 0.03634824603796005, -0.18250484764575958, 0.08351296931505203, 0.05375571548938751, 0.1934759020805359, 0.024031799286603928, -0.050541847944259644, -0.17940934002399445, -0.2934150695800781, -0.030662745237350464, 0.17742010951042175, -0.17124183475971222, 0.04611729085445404, -0.16809827089309692, -0.028103891760110855, -0.0685504674911499, 0.2270093858242035, -0.08730435371398926, -0.19587916135787964, 0.10004793107509613, 0.024089882150292397, -0.04842791706323624, -0.20017200708389282], [0.04334738850593567, -0.010009929537773132, -0.13921968638896942, -0.16291892528533936, 0.03348759561777115, 0.06513018161058426, 0.0611867792904377, -0.10649315267801285, 0.04832949861884117, 0.07138319313526154, 0.13229556381702423, 0.18124651908874512, -0.052072953432798386, -0.26439014077186584, -0.13365711271762848, 0.014795859344303608, 0.1789540946483612, 0.2103087455034256, -0.2024904191493988, 0.010047887451946735, 0.22561334073543549, 0.20153163373470306, -0.07990187406539917, -0.024074582383036613], [-0.057897891849279404, 0.12353794276714325, 0.1138981282711029, 0.15958331525325775, -0.15344120562076569, 0.2121136635541916, -0.026256289333105087, -0.01365647278726101, -0.3401566445827484, 0.23634503781795502, 0.04973598197102547, 0.25177520513534546, -0.18602360785007477, 0.07942178100347519, 0.11302164196968079, -0.13873308897018433, -0.1300681233406067, -2.444837718940107e-06, -0.10198471695184708, 0.013579272665083408, -0.2116624265909195, -0.20972637832164764, -0.05928698182106018, 0.10433227568864822], [-0.27762043476104736, -0.13326279819011688, 0.08881166577339172, -0.1430501490831375, 0.00019093137234449387, -0.053137779235839844, 0.057718489319086075, -0.08889767527580261, -0.28812068700790405, 0.2582192122936249, 0.14792665839195251, -0.4015519320964813, -0.06314286589622498, -0.14385832846164703, -0.06448447704315186, -0.15845754742622375, 0.056733354926109314, 0.16700774431228638, -0.029996803030371666, -0.06528155505657196, 0.136069193482399, 0.06199788674712181, -0.1758204996585846, 0.12055654078722], [-0.03693901374936104, -0.0026562439743429422, 0.1260572224855423, 0.09732400625944138, 0.009484793059527874, -0.18661049008369446, 0.07348998636007309, -0.1044870913028717, 0.0036778280045837164, -0.232541024684906, 0.13596545159816742, -0.3301897943019867, -0.03003362938761711, -0.2151360809803009, 0.12086667865514755, 0.08130163699388504, 0.008024767972528934, -0.2788108289241791, -0.008238916285336018, 0.17914903163909912, 0.12734512984752655, 0.12195240706205368, 0.18773607909679413, 0.04935517907142639], [-0.003942433744668961, 0.020423466339707375, 0.03381364792585373, 0.10310833156108856, -0.05607038736343384, 0.1258438527584076, -0.18218180537223816, 0.06424462795257568, -0.16648492217063904, 0.03353821858763695, -0.1344420611858368, -0.025398164987564087, 0.14133134484291077, 0.1656760275363922, 0.035696547478437424, 0.13528436422348022, -0.1906450241804123, -0.156156986951828, 0.09192418307065964, 0.2200457751750946, -0.09821304678916931, -0.066098652780056, -0.13084514439105988, 0.1805291473865509], [-0.06936506181955338, -0.09324893355369568, -0.1972515881061554, -0.16991658508777618, 0.00794690940529108, -0.08110085874795914, 0.062414560467004776, -0.17850817739963531, -0.5889940857887268, -0.0664818063378334, 0.061046138405799866, -0.1355879157781601, -0.2874132990837097, 0.03796767443418503, 0.1623159795999527, 0.19726450741291046, 0.10699695348739624, 0.17261052131652832, -0.03385607525706291, 0.018310049548745155, 0.09199578315019608, 0.13370175659656525, 0.1442318558692932, 0.16749082505702972], [-0.21577399969100952, 0.042286813259124756, 0.08971001952886581, -0.12953950464725494, -0.13638736307621002, -0.19123290479183197, 0.11776423454284668, -0.04583923518657684, -0.0452849417924881, 0.09399944543838501, -0.16348128020763397, 0.30755603313446045, -0.07178068161010742, 0.03752549737691879, -0.1298825740814209, 0.11937860399484634, 0.31606152653694153, -0.05693608149886131, 0.04000096768140793, 0.21401429176330566, -0.001449938048608601, 0.03738783672451973, -0.1445012092590332, -0.025944987311959267], [0.21274179220199585, -0.06505849212408066, -0.09512155503034592, 0.07631271332502365, 0.02825978957116604, 0.04416868835687637, 0.19411079585552216, 0.1693686693906784, 0.18946044147014618, 0.0016957753105089068, 0.03174147754907608, 0.10214214026927948, 0.15112872421741486, 0.15916676819324493, 0.056411709636449814, 0.1452997773885727, -0.0542147159576416, -0.12945392727851868, 0.20887789130210876, 0.027122585102915764, -0.0851341262459755, 0.09864150732755661, -0.15675035119056702, -0.06949567794799805], [-0.15942171216011047, 0.11523833125829697, 0.16982348263263702, -0.1413124054670334, -0.030057506635785103, 0.10048997402191162, 0.014139819890260696, 0.10715948790311813, 0.07626302540302277, -0.02048174850642681, -0.035051584243774414, 0.10231776535511017, 0.29392698407173157, 0.021045813336968422, -0.07150661200284958, 0.23656630516052246, -0.024879248812794685, -0.16142918169498444, -0.1123790368437767, 0.01545804738998413, 0.13693733513355255, -0.10009925812482834, 0.07334855198860168, 0.03157876059412956], [0.11243623495101929, 0.06077270954847336, 0.16485057771205902, 0.2069588154554367, 0.08627619594335556, -0.2114090472459793, -0.060114867985248566, 0.11654074490070343, 0.4616069197654724, -0.41118893027305603, -0.039328645914793015, 0.3294103443622589, 0.032206546515226364, -0.006109079346060753, -0.1013014018535614, 0.03048405796289444, 0.17712293565273285, 0.08731512725353241, 0.017028579488396645, -0.1517142802476883, -0.04352061450481415, 0.14463260769844055, -0.10945560038089752, -0.1434066891670227], [-0.05185720697045326, 0.11184708029031754, -0.12172044068574905, -0.15486936271190643, -0.02866446226835251, 0.01462230272591114, -0.01238531805574894, 0.0862642228603363, -0.34110331535339355, 0.04244780167937279, 0.20075128972530365, -0.4658777713775635, 0.29787519574165344, -0.16679883003234863, -0.16637474298477173, -0.04639669135212898, 0.008772963657975197, 0.1654857099056244, -0.09257762134075165, 0.04266368970274925, -0.046726640313863754, 0.0937519297003746, -0.04093281179666519, 0.20353581011295319], [-0.014044155366718769, -0.021773256361484528, 0.02766904979944229, 0.05645309388637543, -0.02557644620537758, -0.04660182446241379, -0.1911158561706543, 0.17182208597660065, 0.4403948485851288, -0.041620343923568726, -0.0405195914208889, -0.36317208409309387, 0.279165655374527, -0.20450565218925476, 0.17902728915214539, -0.05391442030668259, -0.17796115577220917, -0.2230529487133026, 0.03550207242369652, 0.13819502294063568, 0.15758101642131805, -0.13493278622627258, 0.17566688358783722, 0.21176494657993317], [0.22367574274539948, 0.09625445306301117, 0.13144990801811218, -0.23848317563533783, -0.10682621598243713, 0.1240338683128357, 0.09851484000682831, -0.02285514771938324, 0.8147159814834595, -0.06880595535039902, 0.10100845247507095, -0.039245206862688065, -0.23572169244289398, 0.07941767573356628, -0.12966753542423248, -0.029058707877993584, -0.19820573925971985, -0.03931453078985214, -0.11117560416460037, -0.13365450501441956, 0.10158747434616089, 0.10288284718990326, -0.11317995190620422, -0.19234667718410492], [0.11947078257799149, -0.1312868893146515, -0.10420439392328262, 0.09880156069993973, -0.12053924798965454, 0.1623818576335907, 0.11155471205711365, -0.010783735662698746, -0.12579980492591858, 0.09808627516031265, 0.040377210825681686, -0.01961292326450348, -0.056199245154857635, -0.052060194313526154, -0.1640099436044693, 0.33102890849113464, 0.12570449709892273, 0.06756731122732162, 0.07849207520484924, 0.18096479773521423, -0.18383462727069855, 0.20863349735736847, 0.017989767715334892, 0.17430202662944794], [0.19779467582702637, -0.002464165911078453, -0.026992807164788246, -0.01983947865664959, 0.03096761927008629, 0.13849321007728577, 0.054602768272161484, -0.007530422881245613, 0.06798158586025238, -0.11175274848937988, 0.14085933566093445, -0.10041684657335281, 0.10915136337280273, 0.13847716152668, 0.14802639186382294, 0.12704229354858398, 0.1447063535451889, -0.010681087151169777, -0.08425058424472809, 0.1235756129026413, 0.02048010751605034, -0.43101274967193604, 0.005370178259909153, -0.08563394844532013], [0.10670999437570572, -0.033841218799352646, -0.09203499555587769, 0.10914964228868484, -0.04494321346282959, -0.18285374343395233, -0.08217757940292358, -0.01196407899260521, 0.0849725529551506, -0.04199989140033722, 0.07751549780368805, 0.3388686776161194, 0.1690312772989273, 0.11802094429731369, -0.09095017611980438, 0.02693190798163414, -0.07406158745288849, -0.16492238640785217, -0.2156042754650116, -0.14350862801074982, -0.05851195007562637, -0.03966984152793884, -0.08465784788131714, -0.10445865243673325], [0.04183952137827873, -0.03177015855908394, 0.08845455199480057, -0.09894197434186935, -0.2664976716041565, 0.18786336481571198, -0.01185272540897131, -0.017539652064442635, -0.26588714122772217, 0.4507938027381897, -0.0120999775826931, 0.031157037243247032, -0.19228655099868774, -0.005048607476055622, 0.03970969468355179, -0.09892383962869644, -0.13430514931678772, 0.03938652575016022, -0.0006465360056608915, 0.16341322660446167, 0.07810360193252563, -0.11851602047681808, -0.09054071456193924, -0.10672757774591446], [-0.0348869152367115, 0.1035342887043953, -0.1245827004313469, -0.06387128680944443, -0.20260217785835266, 0.11738994717597961, -0.033625852316617966, 0.23110999166965485, -0.34078457951545715, 0.1977863758802414, 0.24664843082427979, 0.013789365068078041, -0.27495330572128296, 0.1248655915260315, 0.056296296417713165, -0.17557969689369202, -0.10254364460706711, -0.19095511734485626, 0.06652884185314178, 0.13222777843475342, -0.011828959919512272, 0.15972283482551575, 0.04179501160979271, -0.00018006988102570176], [0.11475124210119247, -0.010710678994655609, 0.056867484003305435, 0.045808106660842896, 0.019218862056732178, -0.10989436507225037, 0.02367548830807209, 0.18728715181350708, -1.3809665441513062, -0.48077625036239624, 0.11042039096355438, 0.01168837584555149, 0.05658218637108803, -0.0675695464015007, 0.09254065155982971, 0.009049681015312672, -0.09485457092523575, 0.05931119620800018, -0.008394816890358925, -0.06515510380268097, -0.047439076006412506, 0.011264241300523281, -0.08473493158817291, -0.004511178936809301], [0.16783159971237183, 0.04419495537877083, 0.010499152354896069, -0.14656603336334229, 0.07569799572229385, -0.06750475615262985, -0.20064842700958252, -0.044653065502643585, -0.30806392431259155, 0.003949582576751709, -0.056823402643203735, 0.052306827157735825, -0.2096562683582306, 0.29131078720092773, -0.05887693166732788, 0.011305744759738445, -0.11917570978403091, 0.0036231656558811665, 0.209304079413414, 0.0933723896741867, 0.0017924414714798331, -0.18467910587787628, 0.13230739533901215, -0.11927001923322678], [0.022863976657390594, 0.17143157124519348, -0.09286942332983017, 0.14594846963882446, 0.17123177647590637, 0.11109823733568192, -0.10948479175567627, -0.0864865779876709, -0.375402569770813, -0.3701378107070923, -0.04365343600511551, 0.5966185331344604, -0.008776574395596981, 0.19744454324245453, 0.046494945883750916, 0.19711729884147644, -0.06974561512470245, -0.07474523037672043, -0.07664480060338974, -0.2572672963142395, 0.021328920498490334, 0.17859092354774475, 0.09319528937339783, 0.05451059713959694], [0.09054610133171082, -0.023993849754333496, 0.13094431161880493, -0.15149807929992676, -0.13164785504341125, 0.15605737268924713, 0.14560748636722565, 0.06460082530975342, -0.14817994832992554, 0.10045790672302246, 0.09796451032161713, -0.10955870151519775, -0.04223040118813515, 0.11097563803195953, 0.09028203040361404, -0.1905873417854309, -0.16815191507339478, 0.3385058641433716, 0.3383742570877075, -0.15545018017292023, -0.13867521286010742, -0.16055971384048462, -0.04689732939004898, -0.0731729045510292], [0.06452144682407379, -0.12561024725437164, 0.12451814115047455, 0.04224782809615135, 0.08381778746843338, 0.04242957383394241, -0.04837067425251007, 0.1197294220328331, 0.306535929441452, 0.025815770030021667, 0.1926722228527069, 0.24849893152713776, -0.1438431292772293, -0.24970410764217377, 0.06428142637014389, 0.0054131243377923965, -0.02681756019592285, 0.27657872438430786, -0.047474928200244904, 0.0713222473859787, 0.07478079944849014, 0.020912667736411095, 0.018505508080124855, 0.10139551013708115], [0.19664843380451202, -0.16397975385189056, -0.04045811668038368, -0.18620777130126953, -0.06669594347476959, -0.006728646345436573, 0.0611627921462059, 0.07124704867601395, 0.013861398212611675, -0.007895725779235363, -0.10881544649600983, -0.3489786684513092, 0.11406193673610687, 0.10971780121326447, -0.05684061720967293, -0.08329492807388306, -0.10173089057207108, 0.4388018548488617, -0.1493052840232849, 0.1300269514322281, -0.012168769724667072, -0.07013598829507828, 0.08340764045715332, 0.10913582146167755], [-0.25659194588661194, 0.14639157056808472, 0.13426156342029572, 0.2202243208885193, 0.07072335481643677, 0.09129924327135086, 0.16837063431739807, -0.042205292731523514, -0.13871964812278748, -0.16888651251792908, -0.0026705388445407152, -0.5666275024414062, 0.26294782757759094, -0.03631071373820305, 0.13554178178310394, -0.20000801980495453, 0.15933853387832642, -0.03258518502116203, 0.08057033270597458, 0.09496097266674042, 0.1305803507566452, 0.2254854440689087, 0.12885542213916779, 0.06853822618722916], [-0.0028918751049786806, 0.034477926790714264, 0.011005780659615993, 0.16427798569202423, 0.1537773460149765, -0.031048689037561417, 0.038167864084243774, -0.16422276198863983, 0.05238861218094826, -0.10011792927980423, -0.10390598326921463, 0.039145566523075104, 0.17856308817863464, -0.1393497884273529, 0.0838562399148941, 0.05584454536437988, 0.0982128232717514, -0.054480843245983124, -0.1465510129928589, -0.17111465334892273, 0.03825340420007706, -0.06101580709218979, 0.04606214538216591, 0.06586311012506485], [-0.13773708045482635, -0.013488473370671272, 0.03226902335882187, -0.031503792852163315, 0.1584176868200302, 0.0075247385539114475, -0.11802195012569427, 0.01297052763402462, -0.15623952448368073, 0.07881665974855423, 0.10610893368721008, -0.9618743658065796, 0.07869050651788712, 0.05730205774307251, -0.02968728356063366, 0.08038749545812607, -0.17802323400974274, -0.10782831162214279, -0.0072256592102348804, 0.032211728394031525, -0.06611491739749908, 0.05221187695860863, -0.10371259599924088, 0.21351715922355652], [-0.015927596017718315, 0.1490171253681183, 0.16202090680599213, 0.009635834023356438, 0.1452977955341339, -0.04302053898572922, -0.14274951815605164, 0.13703535497188568, 0.15341900289058685, 0.16934122145175934, 0.08242606371641159, -0.3702561855316162, -0.15516220033168793, 0.08566322922706604, -0.02949085459113121, -0.044287994503974915, -0.016363393515348434, 0.21508435904979706, 0.008308173157274723, -0.14573557674884796, -0.09559488296508789, 0.16373184323310852, 0.19473740458488464, 0.15749941766262054], [0.08724470436573029, -0.002610287396237254, -0.06606145203113556, 0.13282084465026855, 0.020057858899235725, -0.1329406052827835, -0.011861775070428848, -0.05897454172372818, -0.18043801188468933, 0.0009585687657818198, 0.09981927275657654, -0.2192709892988205, 0.548617959022522, 0.020736565813422203, -0.10099219530820847, 0.015104444697499275, 0.10493352264165878, 0.02315441705286503, 0.313835471868515, 0.1649448126554489, -0.07545612007379532, -0.18643690645694733, 0.121473029255867, 0.0880303904414177], [-0.27158474922180176, 0.07573220133781433, 0.055762071162462234, -0.18026362359523773, -0.11707227677106857, -0.19607430696487427, -0.07078073173761368, 0.13262633979320526, 0.06484046578407288, 0.02240927889943123, 0.14060325920581818, -0.09699060022830963, -0.07538923621177673, 0.01136360689997673, -0.058909762650728226, 0.050546664744615555, 0.11439629644155502, -0.05053846165537834, 0.37163928151130676, 0.05425521358847618, -0.03112722374498844, 0.1443963497877121, -0.020400578156113625, 0.11761515587568283], [-0.050631940364837646, -0.06417451798915863, -0.15608979761600494, 0.10865438729524612, -0.14113125205039978, 0.14066383242607117, -0.1290513128042221, 0.19803929328918457, -0.34537938237190247, -0.36788275837898254, -0.14561079442501068, -0.07757415622472763, 0.05452108010649681, -0.061807867139577866, 0.04909919947385788, -0.04096295312047005, 0.14716863632202148, 0.06580149382352829, 0.025013945996761322, 0.1094742864370346, -0.0299209114164114, -0.144939586520195, -0.007582515478134155, 0.07839545607566833], [0.15791091322898865, -0.14314939081668854, -0.11481738835573196, 0.09983078390359879, 0.02747182920575142, 0.005038196220993996, -0.06045403331518173, 0.047729600220918655, 0.35462191700935364, 0.12866415083408356, -0.06653469055891037, -0.5191900730133057, -0.2747785151004791, 0.017853373661637306, 0.10591436922550201, -0.08525459468364716, 0.0692504420876503, 0.043881893157958984, -0.09486611932516098, 0.03257392346858978, 0.008956464938819408, 0.02920445054769516, -0.015843011438846588, -0.17750583589076996], [-0.018039992079138756, 0.077773317694664, 0.12179432064294815, 0.09834600985050201, -0.10919596254825592, -0.09103556722402573, 0.0626382902264595, -0.052372511476278305, 0.10691528767347336, 0.0041763558983802795, -0.042084112763404846, 0.2818068861961365, 0.46897438168525696, 0.09878721833229065, -0.10263706743717194, -0.08453525602817535, 0.008515086024999619, -0.16238020360469818, 0.09519881010055542, -0.186357319355011, 0.07365553826093674, -0.005724351387470961, 0.05075317993760109, 0.15198826789855957], [-0.1765102744102478, 0.022395912557840347, 0.19181185960769653, -0.020641151815652847, 0.022334754467010498, 0.02504129521548748, -0.15773797035217285, 0.11015981435775757, -0.03985339775681496, 0.10201265662908554, 0.03316347301006317, 0.07622402161359787, 0.05777828022837639, -0.20187416672706604, 0.14311720430850983, -0.1336992233991623, 0.08993233740329742, -0.1402166336774826, -0.0010462484788149595, 0.08295890688896179, 0.10092039406299591, 0.11327933520078659, -0.19727344810962677, -0.2004479020833969], [0.1069648265838623, 0.04690146818757057, 0.033651094883680344, -0.15218926966190338, -0.07207239419221878, -0.06470166146755219, -0.24116961658000946, 0.10817001014947891, 0.24111028015613556, 0.03929278999567032, -0.0559215173125267, 0.18259716033935547, 0.062195830047130585, -0.21277403831481934, -0.23187720775604248, -0.01572931930422783, -0.16702771186828613, -0.2043495923280716, 0.03268283233046532, -0.04321633279323578, -0.15754783153533936, -0.011542294174432755, -0.17572930455207825, 0.07501091808080673], [-0.0049117496237158775, -0.04813181981444359, 0.04129287600517273, -0.003970987629145384, 0.2975984811782837, 0.0664396807551384, -0.024322262033820152, -0.015465881675481796, 0.17727695405483246, 0.010240496136248112, -0.045883987098932266, -0.0005893689231015742, -0.10286466777324677, -0.16406162083148956, -0.028025100007653236, 0.01707737147808075, 0.1310550570487976, -0.15696106851100922, -0.05663022771477699, -0.1000223234295845, -0.16305692493915558, 0.25848376750946045, -0.010336839593946934, 0.08199970424175262], [-0.15555952489376068, -0.04922817647457123, 0.2423776537179947, -0.17623361945152283, -0.13595972955226898, 0.1585039645433426, -0.08302652835845947, -0.1730991154909134, 0.14258748292922974, 0.06288256496191025, -0.0277642123401165, 0.022795166820287704, -0.215608611702919, -0.17676563560962677, -0.13163118064403534, -0.005839501973241568, 0.15159831941127777, -0.27313873171806335, -0.10385726392269135, -0.40736663341522217, -0.15495559573173523, 0.07029975950717926, -0.05995311215519905, 0.20636729896068573], [-0.1465928703546524, 0.038592707365751266, -0.09059540927410126, 0.12288202345371246, -0.4553280174732208, -0.024448225274682045, -0.15053246915340424, -0.0916893258690834, -0.11548049747943878, -0.3435138463973999, -0.18432775139808655, -0.06720352172851562, 0.18318350613117218, 0.24387134611606598, -0.02897893451154232, -0.13627652823925018, -0.033120255917310715, -0.14708708226680756, -0.04572679474949837, -0.1705087125301361, -0.08685852587223053, -0.10879053175449371, 0.023079192265868187, -0.13941983878612518], [0.022850343957543373, -0.13722027838230133, -0.1877610683441162, -0.20625615119934082, 0.1521480530500412, -0.1530165821313858, -0.1003340631723404, -0.0413171723484993, -0.3557506203651428, -0.05644404888153076, 0.03539685159921646, 0.072581946849823, 0.04611904174089432, 0.11865852773189545, 0.07886765897274017, -0.18854209780693054, 0.10669177770614624, -0.15789881348609924, 0.10848461836576462, -0.031151138246059418, -0.03548743203282356, 0.17112310230731964, 0.0503864511847496, 0.06736386567354202], [0.17021465301513672, 0.17443612217903137, -0.025199871510267258, 0.16798773407936096, 0.052017152309417725, 0.07190851122140884, -0.07232388108968735, -0.009275521151721478, 0.4197494685649872, 0.39755281805992126, 0.00967353768646717, 0.0357145257294178, -0.09715191274881363, -0.005334633402526379, 0.053938113152980804, 0.07081647217273712, -0.15018418431282043, -0.06469566375017166, 0.04790850356221199, -0.009245841763913631, -0.12914679944515228, 0.14870238304138184, -0.14954039454460144, -0.11837206035852432], [0.08493116497993469, -0.12208519130945206, -0.16248594224452972, -0.12028548866510391, 0.31781479716300964, 0.011699582450091839, 0.10545484721660614, -0.14686404168605804, 0.281674861907959, 0.013326088897883892, -0.1657617688179016, 0.08449548482894897, -0.08113901317119598, -0.12934230268001556, -0.13260681927204132, 0.11075056344270706, -0.17538222670555115, 0.3230975568294525, 0.11307618767023087, -0.0018773041665554047, 0.07070910185575485, -0.00785068329423666, -0.16898150742053986, 0.10906178504228592], [0.22547896206378937, -0.14654408395290375, -0.09300173819065094, -0.21313679218292236, 0.10187740623950958, -0.17446576058864594, 0.05126560106873512, -0.11434755474328995, -0.24932055175304413, -0.19991686940193176, -0.015255497768521309, 0.12499179691076279, 0.026064280420541763, 0.061805661767721176, 0.06321597099304199, 0.16127467155456543, -0.18506279587745667, 0.0271933414041996, 0.263793021440506, -0.13942517340183258, 0.20605774223804474, -0.21537189185619354, 0.10105694830417633, 0.01273661945015192], [-0.20785297453403473, -0.04618685320019722, 0.12324786186218262, -0.08049719035625458, 0.057711951434612274, -0.12289808690547943, 0.1453462839126587, 0.060194119811058044, 0.0297186728566885, -0.007278577424585819, 0.14688098430633545, 0.5995935797691345, -0.0024866347666829824, 0.04375893995165825, -0.02646895870566368, 0.04160358011722565, -0.022058112546801567, 0.09422331303358078, -0.1868952363729477, -0.1426914483308792, 0.07290513068437576, -0.20129647850990295, 0.09112252295017242, -0.1643233299255371], [-0.13526999950408936, 0.07274248450994492, 0.1297043412923813, 0.03984307870268822, -0.107306107878685, -0.07353595644235611, -0.1542002111673355, -0.20250459015369415, 0.04319549351930618, 0.16538508236408234, 0.12703104317188263, 0.24915656447410583, -0.17730917036533356, 0.1972976177930832, -0.06477779150009155, 0.026808802038431168, 0.09298638999462128, 0.060908835381269455, -0.05545782670378685, 0.1694728285074234, -0.019068855792284012, 0.1297551840543747, -0.22084280848503113, -0.16278789937496185], [-0.013614253140985966, -0.015530170872807503, -0.05685483291745186, 0.04492757096886635, -0.1733984351158142, 0.07909995317459106, 0.03339558467268944, -0.05897960439324379, 0.4590589106082916, -0.21242880821228027, -0.05066078156232834, 0.24469362199306488, 0.028711959719657898, -0.034399982541799545, 0.07838355004787445, -0.13024470210075378, 0.16119930148124695, -0.10823550075292587, 0.05198284983634949, -0.20399415493011475, 0.03635881841182709, -0.1864456683397293, -0.029822807759046555, -0.0561637319624424], [0.1821214109659195, 0.07023823261260986, 0.10365744680166245, 0.20487278699874878, 0.03671243041753769, 0.12063194811344147, -0.07624189555644989, 0.08738547563552856, -0.10673175752162933, 0.006129968445748091, -0.05760203301906586, 0.05934850499033928, 0.1695103794336319, 0.06837143748998642, 0.06737952679395676, 0.07580583542585373, -0.11793077737092972, -0.08800430595874786, -0.2862049341201782, -0.0016186048742383718, -0.14449246227741241, -0.003215502481907606, -0.1397426724433899, -0.10006364434957504], [-0.23621831834316254, 0.13657909631729126, 0.080596424639225, -0.0005826809210702777, -0.28554069995880127, -0.05034523084759712, 0.18024682998657227, 0.09126302599906921, 0.36391332745552063, 0.09956727176904678, 0.15448211133480072, 0.09300868958234787, -0.18208721280097961, 0.12064821273088455, 0.19333867728710175, 0.0009330999455414712, 0.025188736617565155, -0.042758509516716, 0.09751217067241669, -0.15616902709007263, 0.012870467267930508, -0.06131581589579582, 0.02429087460041046, -0.015746496617794037], [0.21650241315364838, 0.03100050799548626, -0.04272398352622986, 0.07144875824451447, 0.0025592211168259382, 0.17662210762500763, -0.0006972084520384669, -0.12299209833145142, -0.09223663806915283, 0.5383173227310181, 0.11495103687047958, -0.30256175994873047, 0.05391089990735054, -0.1264166235923767, 0.16049553453922272, -0.1675366908311844, -0.0667438954114914, 0.2079576998949051, 0.06486179679632187, 0.09371394664049149, 0.0033417160157114267, -0.022393127903342247, -0.16449572145938873, 0.00831613503396511], [-0.025795284658670425, 0.07689645886421204, 0.12019042670726776, -0.20544521510601044, 0.25344592332839966, -0.11235339194536209, 0.02862909622490406, 0.19637338817119598, -0.23623539507389069, 0.14578130841255188, -0.2162725031375885, 0.4350855350494385, 0.02838842011988163, 0.02697071060538292, -0.002607795875519514, -0.003934044856578112, 0.014831781387329102, -0.10870871692895889, -0.004280459601432085, -0.1785939335823059, 0.09608980268239975, 0.0955888032913208, -0.17298632860183716, 0.1729612499475479], [0.2333856076002121, -0.1749488115310669, -0.18286150693893433, 0.07637875527143478, -0.0038179922848939896, -0.13688282668590546, -0.07747234404087067, -0.20175184309482574, 0.6311144828796387, 0.21967586874961853, 0.058965567499399185, 0.14837965369224548, -0.17083686590194702, 0.048417408019304276, 0.018674291670322418, 0.08344180881977081, -0.06452827155590057, 0.2248717099428177, 0.08161351829767227, -0.0739644318819046, 0.01270336378365755, -0.1385396271944046, -0.08518274873495102, -0.01678302139043808], [0.10439663380384445, 0.1622939109802246, 0.008706954307854176, -0.08727575838565826, -0.00953469704836607, 0.07191365957260132, 0.10881295055150986, 0.08170706033706665, -0.10133728384971619, 0.23162317276000977, 0.0010695697274059057, -0.3518650531768799, -0.17797841131687164, -0.15813253819942474, 0.011122075840830803, 0.12569323182106018, -0.11931166797876358, -0.252143919467926, -0.2341179996728897, -0.17784181237220764, -0.2007601410150528, -0.19440793991088867, -0.12281300127506256, -0.13299345970153809], [0.11559128761291504, 0.06989380717277527, -0.1810811311006546, 0.027420468628406525, -0.023888271301984787, 0.10316352546215057, 0.14620396494865417, -0.1535371094942093, 0.18740259110927582, -0.02760484255850315, -0.1766843944787979, 0.2173389196395874, 0.32437002658843994, -0.14034408330917358, 0.04461858049035072, -0.12862685322761536, 0.08931072801351547, 0.10095713287591934, -0.19501441717147827, 0.003961804788559675, 0.1524672955274582, -0.00976546760648489, 0.120518259704113, 0.04417986422777176], [0.12393243610858917, 0.18642795085906982, 0.08322127908468246, 0.14249499142169952, -0.034149929881095886, -0.17083390057086945, -0.006723123136907816, -0.010426993481814861, -0.25656864047050476, 0.34599819779396057, 0.1923564374446869, 0.3530222773551941, 0.012415179051458836, 0.1546647995710373, -0.12095213681459427, 0.11793511360883713, -0.004735637456178665, 0.050437845289707184, -0.07399378716945648, -0.24849741160869598, -0.1962243914604187, 0.10800736397504807, 0.14008238911628723, -0.04215867444872856], [0.07097023725509644, 0.12205713987350464, -0.12995240092277527, 0.16331781446933746, 0.02937965653836727, 0.06601139158010483, -0.09801787883043289, 0.21110638976097107, -0.7951707243919373, 0.4193502962589264, 0.023880714550614357, 0.2941109538078308, 0.12065107375383377, 0.05369002744555473, 0.15603196620941162, 0.10054109990596771, -0.031661417335271835, -0.1493278294801712, 0.01260439958423376, -0.267072856426239, 0.03238154575228691, 0.2169611155986786, 0.025990255177021027, 0.009195231832563877], [-0.05376555025577545, -0.00027379507082514465, 0.11787153035402298, -0.05375219136476517, 0.07762815803289413, 0.009608202613890171, 0.027654312551021576, 0.022444743663072586, -0.14185485243797302, -0.024332070723176003, -0.09331879019737244, 0.241771399974823, 0.10940074175596237, -0.16094078123569489, 0.013416255824267864, -0.02212699130177498, 0.17708192765712738, -0.3995320498943329, 0.3954823613166809, -0.019934307783842087, -0.07540927827358246, -0.06949461251497269, -0.11503444612026215, 0.1318357288837433], [-0.14688187837600708, 0.21000060439109802, 0.04684750735759735, 0.1252548098564148, -0.13344529271125793, 0.01403379812836647, -0.20863085985183716, 0.16109086573123932, 0.10156489908695221, 0.0665879100561142, -0.03882581368088722, 0.13500817120075226, 0.08977119624614716, -0.11273901909589767, -0.017671070992946625, 0.05156642198562622, -0.21846821904182434, 0.21622730791568756, 0.1271401345729828, -0.27433207631111145, 0.06301866471767426, 0.15620648860931396, 0.05197090655565262, 0.04494583234190941], [-0.09742837399244308, -0.011963646858930588, 0.03277852386236191, 0.06978632509708405, -0.02390504628419876, 0.03163256123661995, 0.0644967332482338, 0.17525124549865723, 0.17055349051952362, -0.035664577037096024, 0.18129166960716248, 0.3209904134273529, 0.43955719470977783, -0.01201700046658516, 0.14892792701721191, 0.0324973464012146, -0.10464241355657578, 0.18745727837085724, -0.08972188085317612, 0.11048680543899536, -0.12646925449371338, 0.1866626888513565, 0.08069990575313568, 0.16972778737545013], [0.051103122532367706, 0.02996113896369934, -0.06888819485902786, 0.08862628042697906, 0.03714759275317192, 0.128026083111763, 0.060707829892635345, 0.0273122675716877, 0.5958353281021118, 0.028630567714571953, 0.09215733408927917, -0.2733549177646637, 0.12825772166252136, 0.08541960269212723, -0.04241972044110298, -0.07535510510206223, -0.12923893332481384, 0.06746912747621536, -0.13707174360752106, -0.14068002998828888, -0.0033956612460315228, -0.03794175386428833, -0.16361185908317566, -0.08288140594959259], [0.00991026870906353, 0.02551409602165222, 0.01914100907742977, -0.11140171438455582, -0.06405029445886612, -0.01586146466434002, 0.046894654631614685, -0.18298058211803436, 0.17354026436805725, -0.06885327398777008, 0.009701701812446117, -0.8141064047813416, 0.06041822209954262, -0.05517595261335373, 0.061194658279418945, -0.11749085038900375, 0.17360800504684448, -0.004667637869715691, -0.08052314072847366, -0.2013416588306427, 0.08364806324243546, 0.13412821292877197, -0.17551709711551666, -0.16284634172916412], [0.0679815411567688, 0.14718368649482727, -0.13956767320632935, -0.021528368815779686, 0.11780491471290588, 0.11223315447568893, -0.018596317619085312, -0.012971368618309498, 0.37171459197998047, -0.24320365488529205, 0.1415896713733673, 0.2632860839366913, 0.10559605062007904, 0.14438869059085846, 0.08697666972875595, -0.10873457044363022, -0.155037522315979, -0.18611225485801697, 0.13359332084655762, 0.13095705211162567, 0.052276354283094406, 0.02932453714311123, -0.1123686134815216, 0.020604686811566353], [-0.10621537268161774, 0.05022161081433296, 0.04167947918176651, -0.06500484049320221, 0.00792196486145258, 0.0037008679937571287, -0.0837559774518013, -0.18358904123306274, -0.05690370872616768, 0.18970884382724762, -0.1334393322467804, -0.05085970461368561, 0.020942620933055878, -0.14507503807544708, -0.019353751093149185, -0.0733141377568245, 0.13483811914920807, -0.016538864001631737, 0.04090588912367821, 0.0946330651640892, 0.031004825606942177, 0.047291602939367294, 0.16596879065036774, 0.034389860928058624], [0.0625913143157959, -0.10895100980997086, 0.14450298249721527, 0.10742251574993134, 0.12329471111297607, -0.13614188134670258, -0.04057001322507858, -0.1431214064359665, -0.8728510737419128, -0.3098611533641815, -0.05563757196068764, 0.18979406356811523, -0.12579160928726196, 0.19902342557907104, -0.10855857282876968, 0.0489116795361042, 0.09422077983617783, -0.0796070322394371, -0.07293333113193512, 0.19017648696899414, -0.0029962656553834677, -0.07413692027330399, -0.09283896535634995, -0.10146240144968033], [-0.20697744190692902, 0.001421941677108407, -0.10015197843313217, -0.10446439683437347, -0.07546291500329971, -0.022904856130480766, -0.005116020794957876, 0.04192236438393593, 0.21922989189624786, 0.0015620749909430742, 0.05557708814740181, -0.22370503842830658, -0.30001798272132874, 0.039674486964941025, 0.16187784075737, 0.04907383397221565, 0.10972028225660324, 0.27786901593208313, 0.21364818513393402, -0.03679542988538742, 0.15928862988948822, -0.18194226920604706, 0.09173941612243652, -0.10906003415584564], [-0.18582603335380554, 0.17600072920322418, -0.08799440413713455, -0.020095109939575195, 0.13920380175113678, 0.0326695516705513, 0.21971860527992249, 0.07049883157014847, -0.14126496016979218, 0.04640631750226021, -0.06148708611726761, -0.06790213286876678, 0.17031115293502808, 0.1322348564863205, -0.10875284671783447, 0.22831735014915466, -0.10273391753435135, 0.08464395254850388, 0.033931028097867966, 0.01451477874070406, 0.1959705650806427, 0.05120997875928879, -0.0734369158744812, -0.1526952087879181], [-0.17484232783317566, 0.12479469925165176, -0.20474836230278015, -0.06465130299329758, -0.08789461106061935, 0.01662079617381096, 0.014874023385345936, -0.1150895208120346, 0.1781182736158371, -0.026413947343826294, 0.03911912441253662, 0.013712977059185505, -0.23033958673477173, -0.5305577516555786, 0.07572347670793533, 0.0724039301276207, 0.037827588617801666, 0.029267076402902603, -0.10386733710765839, 0.21025224030017853, 0.06582912057638168, -0.14987801015377045, -0.10911828279495239, 0.019857263192534447], [0.21036957204341888, 0.13154859840869904, 0.10004626959562302, 0.16780593991279602, -0.18139104545116425, 0.17522816359996796, 0.21471774578094482, -0.0763012170791626, 0.4186520576477051, 0.6280534863471985, 0.07512268424034119, 0.2439771145582199, -0.14480796456336975, -0.0031882275361567736, -0.10880616307258606, 0.18250161409378052, -0.05301501974463463, -0.006019590422511101, -0.02395569533109665, 0.09005463868379593, -0.13918136060237885, -0.006227845326066017, 0.08471688628196716, 0.10293345153331757], [0.03142087534070015, 0.15587720274925232, 0.09065263718366623, 0.14274460077285767, -0.00811205804347992, 0.13332293927669525, -0.048869047313928604, -0.002445826306939125, -0.04358343407511711, 0.1285429745912552, 0.20167967677116394, -0.269684374332428, 0.46464189887046814, -0.04348922148346901, 0.06366541981697083, 0.17290331423282623, -0.11132916808128357, 0.07930149137973785, -0.015402874909341335, 0.08267994225025177, 0.07296387106180191, 0.01675686053931713, 0.08641304820775986, -0.024319132789969444], [0.0029900898225605488, 0.14146462082862854, 0.10410743206739426, 0.16568616032600403, 0.012970609590411186, 0.21825864911079407, 0.13974782824516296, 0.10080862045288086, 0.4495201110839844, -0.26853862404823303, -0.026833711192011833, -0.13717594742774963, 0.07247354835271835, 0.11903776973485947, -0.07281402498483658, -0.059336524456739426, 0.12201325595378876, -0.0744602158665657, 0.21513992547988892, -0.12239660322666168, 0.08711081743240356, 0.13142940402030945, -0.07911473512649536, -0.05230792239308357], [0.059116099029779434, -0.06585974246263504, 0.13229696452617645, 0.027599822729825974, -0.12418212741613388, -0.14029939472675323, 0.20453214645385742, -0.13760364055633545, 0.22010481357574463, -0.17926205694675446, 0.03641508147120476, -0.6067554950714111, 0.0692199170589447, -0.01824270375072956, 0.1380462348461151, -0.04157135635614395, 0.053690362721681595, 0.37633609771728516, -0.08494413644075394, 0.05046053230762482, 0.11427786201238632, -0.12575097382068634, -0.11073258519172668, -0.019354108721017838], [-0.19025032222270966, 0.11444462835788727, 0.049611810594797134, 0.007313993293792009, -0.12605467438697815, -0.15969976782798767, -0.17406322062015533, -0.09470590204000473, -0.2827400267124176, -0.22754333913326263, -0.0427873358130455, -0.24344667792320251, 0.3829444944858551, -0.08994577825069427, -0.1718740612268448, -0.07243681699037552, -0.14146381616592407, -0.22050295770168304, -0.13002465665340424, -0.08033585548400879, -0.015050454996526241, 0.22648711502552032, -0.07717237621545792, 0.053151510655879974], [0.0968468189239502, -0.034068379551172256, -0.07192537188529968, 0.17339543998241425, -0.05153380334377289, 0.20778074860572815, -0.1143285483121872, -0.07890988141298294, -0.8251650929450989, -0.12939193844795227, -0.0633232370018959, 0.134518101811409, 0.023902088403701782, 0.009113742969930172, -0.07240920513868332, -0.026618916541337967, -0.041697654873132706, 0.15273502469062805, 0.02943641133606434, 0.05306191369891167, 0.16804802417755127, -0.10904988646507263, 0.08854732662439346, 0.1384436935186386], [0.0920703336596489, -0.17548973858356476, -0.13451287150382996, 0.18343676626682281, 0.14317524433135986, 0.1708698868751526, 0.003687711665406823, -0.04670095443725586, -0.20877449214458466, -0.1661125272512436, -0.02356397733092308, 0.13012804090976715, -0.27391964197158813, 0.028066318482160568, -0.14380612969398499, -0.10898471623659134, -0.08066176623106003, -0.07490644603967667, -0.09316197782754898, 0.14293520152568817, -0.1335061937570572, 0.05445200949907303, 0.11668786406517029, 0.06265022605657578], [-0.08079701662063599, 0.0901404321193695, 0.11102698743343353, -0.05097310245037079, -0.11615682393312454, 0.047315455973148346, 0.0071612149477005005, -0.13289526104927063, -0.10518616437911987, 0.15399053692817688, -0.19100210070610046, 0.03450682386755943, 0.188495934009552, 0.010142374783754349, 0.1331976354122162, 0.24031013250350952, 0.07333732396364212, 0.018824968487024307, 0.083619624376297, 0.15682655572891235, -0.19174297153949738, 0.05558346211910248, -0.013595109805464745, -0.14418497681617737], [-0.2510650157928467, 0.017319146543741226, -0.1420743763446808, 0.15595749020576477, 0.08809145539999008, -0.06193011254072189, 0.02974463813006878, 0.14886346459388733, -0.5066817402839661, 0.344260036945343, 0.15151777863502502, -0.3247494399547577, 0.042775172740221024, 0.10776201635599136, -0.022934013977646828, -0.03794734552502632, -0.10858527570962906, -0.22778509557247162, -0.08782968670129776, -0.194809228181839, 0.00419510155916214, -0.024366207420825958, -0.0974140614271164, 0.06803380697965622], [-9.688397403806448e-05, -0.15493322908878326, 0.00010409523383714259, 0.04204093664884567, -0.0458490215241909, -0.16036634147167206, -0.1559268832206726, -0.018794309347867966, 0.6618664264678955, 0.14905112981796265, 0.09281384944915771, 0.156788632273674, 0.0907161682844162, -0.0877247005701065, -0.137305349111557, 0.046326927840709686, 0.15263748168945312, -0.2144402116537094, -0.1331353634595871, -0.015760747715830803, 0.06296233832836151, -0.2523249685764313, -0.037200670689344406, 0.21118050813674927], [0.13681697845458984, 0.114689901471138, 0.08784405887126923, 0.04513342306017876, -0.13413263857364655, -0.09637098759412766, 0.018692411482334137, -0.24894073605537415, -0.13581888377666473, -0.23398394882678986, -0.05380993336439133, 0.13518689572811127, -0.17935071885585785, 0.03953279182314873, 0.185295969247818, -0.018015578389167786, 0.14403635263442993, -0.14536935091018677, 0.13432364165782928, -0.08502297848463058, -0.02417604811489582, -0.0074464199133217335, -0.13214191794395447, 0.08421017974615097], [0.295415461063385, -0.16662347316741943, -0.1653335690498352, -0.18714648485183716, 0.0712963119149208, 0.10947904735803604, -0.061187438666820526, 0.17470252513885498, 0.01580200530588627, -0.024626655504107475, 0.03963279724121094, 0.18324042856693268, 0.11674153059720993, 0.1397935301065445, -0.02611292526125908, -0.051042914390563965, -0.012925905175507069, 7.567094871774316e-05, 0.3388445973396301, 0.060023099184036255, 0.10419241338968277, -0.10863292962312698, -0.2543500065803528, 0.06440664082765579], [0.13825055956840515, 0.09924318641424179, 0.2142764925956726, 0.05733892694115639, 0.3722725510597229, -0.1508057713508606, -0.05896585434675217, 0.10214747488498688, -0.11448799073696136, 0.3464921712875366, -0.05369885265827179, 0.22840429842472076, -0.0898781344294548, -0.09145920723676682, 0.0895087718963623, 0.133544459939003, -0.12547539174556732, -0.0046601747162640095, 0.03363334387540817, -0.2535375952720642, -0.03018401935696602, -0.2284293919801712, 0.11666214466094971, -0.11977662146091461], [-0.14859238266944885, 0.12650896608829498, -0.00016624352429062128, -0.12220882624387741, 0.23625484108924866, -0.1557728499174118, -0.1159340888261795, 0.23016783595085144, 0.2914607524871826, 0.37568801641464233, 0.04842044785618782, -0.35776451230049133, 0.05748801678419113, -0.1326950341463089, 0.015592171810567379, 0.036643147468566895, -0.02584725245833397, -0.1550421416759491, -0.04686226323246956, -0.17067602276802063, 0.17945420742034912, -0.14659175276756287, 0.17201665043830872, -0.04596368595957756], [0.1526767462491989, -0.10715024918317795, -0.07891146838665009, -0.23318186402320862, -0.2952796220779419, 0.1929529756307602, 0.03991648927330971, 0.22230148315429688, 0.1438409388065338, -0.03890379145741463, 0.10816925019025803, -0.13517576456069946, 0.12581129372119904, 0.08970292657613754, -0.15164735913276672, 0.16121074557304382, -0.15835724771022797, -0.011011611670255661, -0.11307976394891739, -0.0011901736725121737, -0.0630234107375145, -0.015291274525225163, 0.12486230581998825, -0.1517276018857956], [0.12040796130895615, 0.16539916396141052, -0.157928004860878, -0.0016107596457004547, -0.021485207602381706, 0.0487949512898922, 0.107136569917202, -0.05927446112036705, 0.016713300719857216, -0.07552267611026764, 0.11384346336126328, 0.28187546133995056, 0.4472597539424896, -0.11695638298988342, -0.024086257442831993, -0.09987744688987732, -0.1284218579530716, -0.03977401182055473, -0.04569799080491066, -0.01189329382032156, -0.020792478695511818, -0.01934627629816532, -0.11305307596921921, 0.15386301279067993], [-0.0796520784497261, -0.029911313205957413, 0.16541483998298645, 0.14211049675941467, 0.13634444773197174, 0.08437172323465347, 0.05995475873351097, -0.07562507688999176, -0.2471386045217514, -0.04137348383665085, -0.050184670835733414, 0.2832312285900116, -0.1350163072347641, 0.25459080934524536, 0.2332276701927185, 0.02469988353550434, -0.17403918504714966, 0.11062362045049667, -0.06844287365674973, -0.03914949670433998, 0.07048238068819046, -0.10570179671049118, -0.18670399487018585, -0.060404401272535324], [0.11365864425897598, 0.03938852623105049, 0.10318097472190857, -0.06073476001620293, 0.11422520130872726, -0.17891427874565125, -0.13290345668792725, -0.041009772568941116, 0.13909469544887543, 0.10511184483766556, -0.017613202333450317, 0.12137342244386673, 0.046850599348545074, -0.03227391466498375, 0.047399621456861496, -0.100395068526268, -0.10372936725616455, 0.047762591391801834, 0.0009763535927049816, -0.00953691452741623, -0.039463482797145844, -0.5582116842269897, 0.12708702683448792, -0.213279128074646], [-0.0689997598528862, 0.20654861629009247, 0.16052614152431488, -0.11675865948200226, -0.0508602112531662, 0.08915014564990997, -0.0962897315621376, 0.1231050044298172, -0.23575378954410553, 0.030972659587860107, -0.08706169575452805, 0.053912363946437836, 0.22454506158828735, -0.13985148072242737, -0.02245056815445423, -0.1471172422170639, 0.21719349920749664, -0.16714951395988464, 0.1631034016609192, -0.05596325173974037, 0.012759978882968426, -0.1755272001028061, -0.24765340983867645, 0.01477357093244791], [-0.07304737716913223, 0.12903782725334167, -0.12444750219583511, -0.2099911868572235, -0.11847037076950073, 0.1151835173368454, -0.0392555296421051, 0.1822284609079361, 0.018400928005576134, -0.09590204805135727, 0.07608670741319656, 0.3544764220714569, 0.01580197922885418, -0.0008598436252214015, 0.09843585640192032, 0.060618918389081955, 0.07508151233196259, -0.3754170835018158, 0.23219530284404755, 0.034426379948854446, -0.053443390876054764, -0.03502887859940529, 0.10129272937774658, 0.09609577059745789], [0.07155182957649231, -0.1095607653260231, -0.1045149490237236, 0.06161384657025337, -0.05808531120419502, 0.1569364368915558, 0.13800296187400818, -0.11342762410640717, 0.2678071856498718, 0.16075964272022247, 0.14478981494903564, 0.35872405767440796, -0.03858747333288193, -0.13525274395942688, -0.03471454605460167, -0.0029375040903687477, 0.1638576090335846, -0.13322387635707855, 0.44218969345092773, -0.2424793392419815, 0.1723824143409729, 0.23457208275794983, 0.0757853090763092, -0.13870614767074585], [0.14031317830085754, -0.09138711541891098, 0.09714921563863754, -0.06340767443180084, 0.11438297480344772, -0.030413832515478134, 0.14981916546821594, -0.08282345533370972, -0.3730267584323883, 0.08038371056318283, 0.14323574304580688, 0.7536479234695435, 0.10380364954471588, 0.012572436593472958, -0.10565727204084396, -0.12678571045398712, 0.013381974771618843, 0.19851189851760864, 0.07694756239652634, 0.16510863602161407, 0.1318412572145462, -0.05669118091464043, 0.02466999739408493, -0.08299507200717926], [0.055709321051836014, 0.039197180420160294, 0.06912285834550858, 0.04459374397993088, -0.18391461670398712, 0.11902856081724167, 0.07270342856645584, 0.21870985627174377, -0.128553569316864, -0.11769837141036987, 0.09128791838884354, 0.4681413769721985, -0.08974545449018478, -0.006210863124579191, 0.053473394364118576, -0.03788590803742409, 0.15885622799396515, 0.13590450584888458, 0.013647343032062054, -0.017579959705471992, 0.07455196231603622, -0.02550278976559639, 0.13154347240924835, 0.027341676875948906], [-0.09109865874052048, 0.080170638859272, -0.02217460423707962, -0.09382716566324234, -0.003164450405165553, 0.08924456685781479, 0.07222398370504379, -0.04490935802459717, 0.15690530836582184, -0.17124789953231812, 0.014170041307806969, 0.09256772696971893, 0.28298887610435486, 0.11201892048120499, 0.004704332910478115, -0.162971630692482, -0.07560259848833084, -0.05217646807432175, 0.10347097367048264, -0.0451398603618145, 0.17755089700222015, 0.2692907452583313, -0.15551933646202087, 0.0739523246884346], [0.077293261885643, 0.07415429502725601, 0.1320914328098297, -0.08676449209451675, 0.04724090173840523, -0.1763329952955246, -0.09627322107553482, -0.10320301353931427, -0.08248034864664078, 0.2555709183216095, -0.14984072744846344, 0.22532768547534943, 0.4571983814239502, 0.1596856564283371, -0.021707745268940926, -0.11069168895483017, 0.11093546450138092, 0.10720647871494293, -0.10609622299671173, 0.04719121381640434, 0.036760326474905014, -0.26566264033317566, -0.16125385463237762, 0.1441674828529358], [-0.13930752873420715, 0.11447661370038986, 0.08565637469291687, 0.03453969582915306, 0.2581157684326172, 0.09466199576854706, 0.014048234559595585, 0.22081826627254486, -0.06583700329065323, -0.10759603977203369, 0.13431768119335175, -0.09072776883840561, -0.22158297896385193, -0.27509042620658875, -0.07240429520606995, 0.0704318955540657, 0.06481476128101349, 0.453125, 0.053507000207901, 0.076726995408535, -0.16661712527275085, 0.06796247512102127, -0.07057766616344452, -0.09718680381774902], [0.14499711990356445, -0.05343540757894516, 0.030679430812597275, 0.07114843279123306, -0.2816947400569916, -0.06996889412403107, -0.0016577449860051274, -0.06606678664684296, 0.2450232356786728, 0.045384183526039124, -0.15346622467041016, -0.48253363370895386, -0.00017189732170663774, 0.10141118615865707, -0.011017893441021442, 0.058728113770484924, 0.022988226264715195, -0.15201954543590546, 0.030231576412916183, -0.021968135610222816, 0.06557776778936386, 0.11187485605478287, 0.16448679566383362, -0.18115432560443878], [0.06959736347198486, -0.09698327630758286, -0.10534562170505524, 0.17417240142822266, -0.12447649240493774, -0.20618373155593872, 0.17239320278167725, -0.06666301190853119, -0.2422514706850052, -0.024285657331347466, 0.11110337823629379, -0.3607670068740845, 0.2117607295513153, 0.08064448088407516, -0.14128321409225464, -0.15273818373680115, 0.231302410364151, 0.138469859957695, 0.18494483828544617, -0.1291753500699997, 0.11087261885404587, 0.13147377967834473, 0.14637623727321625, -0.22200684249401093], [-0.03490174189209938, 0.055869705975055695, -0.012086429633200169, -0.12111113965511322, -0.11673730611801147, -0.0439845509827137, -0.00914241187274456, 0.18712089955806732, 0.6400085687637329, 0.1687355935573578, 0.07219207286834717, -0.43136563897132874, 0.06508299708366394, 0.1736460030078888, -0.10887081176042557, 0.009630607441067696, -0.009691922925412655, 0.030971616506576538, -0.001298849587328732, -0.32957032322883606, -0.05503036826848984, 0.16803333163261414, 0.17788998782634735, -0.03795860335230827], [0.06710377335548401, 0.05561622977256775, 0.20237873494625092, 0.16866499185562134, 0.331179678440094, -0.1755218356847763, 0.16297964751720428, 0.05522098392248154, 0.3519454896450043, 0.02816859260201454, -0.04440797120332718, -0.06966322660446167, 0.16078242659568787, -0.10216400772333145, 0.1499355435371399, 0.17319905757904053, 0.13410022854804993, 0.16038379073143005, -0.13430026173591614, 0.029723990708589554, -0.08819977194070816, -0.10170701891183853, 0.16244114935398102, 0.01564357429742813], [0.16537079215049744, -0.041812002658843994, -0.2079075276851654, -0.005353166256099939, 0.12539832293987274, -0.0813155546784401, 0.01713789440691471, 0.13428281247615814, -0.05538804084062576, -0.06839725375175476, 0.12806715071201324, -0.1388651728630066, -0.0554133839905262, 0.00043226382695138454, -0.2217714786529541, 0.33793905377388, 0.14919131994247437, 0.08307263255119324, -0.025493716821074486, 0.02674982324242592, -0.08197804540395737, -0.03933574631810188, -0.17940928041934967, -0.02112473174929619], [-0.017119796946644783, -0.05344218388199806, 0.12106922268867493, 0.1739463061094284, 0.05356447398662567, 0.07002023607492447, -0.07476023584604263, -0.012254120782017708, 0.014341792091727257, 0.11094633489847183, 0.14925633370876312, 0.038732413202524185, 0.21754322946071625, -0.023037508130073547, 0.0652334988117218, -0.005613395478576422, 0.16443520784378052, 0.0997634083032608, 0.037682417780160904, 0.15562857687473297, -0.1408025473356247, 0.014752928167581558, 0.11228145658969879, 0.18059895932674408], [0.12562988698482513, 0.1444459706544876, 0.15326805412769318, 0.09496892988681793, 0.02289624884724617, -0.0008508288883604109, 0.14891117811203003, 0.08813321590423584, -0.31378573179244995, -0.4291929006576538, -0.09756416082382202, -0.14241071045398712, -0.25799867510795593, -0.1274174302816391, -0.08193713426589966, 0.06294462829828262, -0.10600364208221436, -0.05194520577788353, 0.14083720743656158, -0.12062665075063705, 0.12122984230518341, -0.036239203065633774, 0.14854766428470612, -0.0412985123693943], [0.1753888726234436, -0.052544545382261276, -0.03987531363964081, -0.009914640337228775, -0.09913444519042969, 0.17501959204673767, -0.0872865542769432, -0.05993196740746498, 0.13915203511714935, 0.11449717730283737, -0.0438196174800396, -0.03639528155326843, 0.1327018290758133, -0.08316878229379654, 0.002351155038923025, 0.28784316778182983, 0.0484112985432148, -0.1508226841688156, 0.03820306435227394, 0.11182016879320145, -0.0708041787147522, -0.09563753008842468, -0.07131683826446533, -0.011689049191772938], [-0.004801619332283735, -0.004668401554226875, 0.11305298656225204, -0.10019156336784363, 0.16703742742538452, -0.1165589839220047, 0.011789096519351006, 0.01784435473382473, 0.3068254292011261, -0.004969206638634205, 0.0014034216292202473, -0.09570901095867157, 0.09246660768985748, -0.1469273716211319, -0.06350088864564896, 0.09400895237922668, 0.0826549306511879, -0.23090828955173492, 0.00030826509464532137, 0.07086477428674698, -0.08069471269845963, -0.4329918324947357, 0.09633652865886688, 0.1754077821969986], [0.22186949849128723, 0.1259007602930069, -0.11254877597093582, -0.10661455243825912, -0.15274612605571747, 0.10169193893671036, 0.0777365043759346, -0.053961604833602905, -1.025104284286499, -0.03520006313920021, 0.11447666585445404, 0.04915149509906769, -0.06200176477432251, -0.06039241701364517, 0.025587929412722588, 0.056507937610149384, -0.0019985821563750505, -0.043584905564785004, 0.033160075545310974, -0.21555717289447784, 0.011134938336908817, -0.0720532014966011, 0.11670444160699844, -0.1049167662858963], [-0.19956247508525848, 0.036636073142290115, 0.18182756006717682, -0.08474347740411758, 0.18643023073673248, -0.1215430200099945, 0.17445699870586395, 0.24745847284793854, 0.23747682571411133, -0.10455027222633362, -0.0694221630692482, 0.05327252298593521, 0.2774902880191803, 0.11725454032421112, 0.045786287635564804, 0.07019989937543869, 0.05319599062204361, 0.06928437948226929, 0.0707501694560051, -0.013079186901450157, -0.05256979912519455, 0.2808980345726013, -0.242984339594841, -0.09873002022504807], [-0.06599576771259308, 0.11993542313575745, -0.13238957524299622, -0.15908539295196533, 0.1275828778743744, -0.1741621345281601, 0.11114054918289185, 0.18124078214168549, 0.528950035572052, -0.16224399209022522, 0.13068437576293945, -0.2567726671695709, 0.07906965911388397, 0.05615229904651642, 0.02415836974978447, 0.08155892789363861, -0.08947175741195679, -0.10839150100946426, -0.12646980583667755, 0.1621226966381073, -0.18294517695903778, 0.15765346586704254, 0.1248587965965271, 0.017356522381305695], [-0.13521917164325714, 0.1497776210308075, 0.13192550837993622, -0.12749083340168, 0.23446525633335114, -0.16219861805438995, -0.05377660319209099, 0.0282049011439085, 0.781603991985321, -0.19298112392425537, -0.04712221026420593, -0.09976111352443695, -0.25147169828414917, 0.14039269089698792, 0.10896775871515274, -0.033258650451898575, 0.1828417181968689, 0.05791466683149338, -0.025352904573082924, -0.21376864612102509, -0.15740743279457092, 0.1778927892446518, 0.11587835848331451, 0.11416066437959671], [0.001326697994954884, 0.1631735861301422, -0.19179709255695343, 0.10324936360120773, 0.13270390033721924, 0.1592785120010376, -0.05458033084869385, -0.11839397996664047, -0.4253157377243042, 0.2877003252506256, 0.17577822506427765, 0.3268459141254425, -0.16318854689598083, 0.04968423768877983, 0.12831875681877136, -0.17605246603488922, 0.12746484577655792, -0.17243005335330963, 0.09021264314651489, 0.02497238479554653, -0.14276264607906342, -0.10832598805427551, 0.047428473830223083, 0.08865577727556229], [-0.1822424978017807, -0.10524531453847885, -0.1244230717420578, -0.11949948221445084, -0.09013861417770386, 0.18798421323299408, 0.04119670391082764, -0.08120270073413849, -0.01143596414476633, 0.09377191960811615, 0.009493153542280197, -0.08890911936759949, 0.13805174827575684, -0.171351358294487, -0.16105151176452637, 0.17135274410247803, -0.17689117789268494, 0.17538461089134216, -0.030741890892386436, 0.12431496381759644, -0.16204817593097687, 0.08326924592256546, 0.12526589632034302, -0.010931652039289474], [-0.07051108032464981, -0.02849154733121395, -0.04721755534410477, 0.05482293292880058, -0.11679799109697342, -0.036000996828079224, 0.008241148665547371, 0.192045196890831, -0.15623106062412262, 0.02893819846212864, -0.07322944700717926, 0.14437542855739594, -0.13590146601200104, 0.048606470227241516, 0.17257936298847198, 0.16017618775367737, -0.09266314655542374, -0.1957574039697647, -0.1185268983244896, -0.0699634701013565, -0.26825013756752014, 0.2753535807132721, -0.016944175586104393, -0.1279200166463852], [0.06619583815336227, 0.0010552355088293552, -0.05971122905611992, -0.1399819254875183, -0.0700860247015953, 0.15670031309127808, -0.12421679496765137, -0.12589384615421295, 0.195149227976799, -0.06122799217700958, 0.010182714089751244, -0.11851966381072998, -0.09046310186386108, 0.193131685256958, -0.09120264649391174, 0.30644434690475464, 0.24850593507289886, -0.10598430782556534, -0.11466621607542038, -0.13267460465431213, -0.13019602000713348, 0.12897378206253052, -0.24130968749523163, 0.06572587788105011], [-0.08746505528688431, -0.2126912921667099, 0.13780269026756287, -0.1630217581987381, 0.17549888789653778, -0.16159561276435852, -0.05431988835334778, 0.1190197542309761, 0.2521565854549408, -0.014112022705376148, -0.15465320646762848, -0.2276304066181183, -0.08173354715108871, 0.11696014553308487, 0.05771957337856293, 0.13450703024864197, 0.21712122857570648, 0.19690081477165222, -0.10005632787942886, -0.042499590665102005, 0.07545855641365051, 0.16008542478084564, -0.2153865545988083, 0.06468025594949722], [0.06015326827764511, -0.08585554361343384, -0.13230937719345093, 0.18506206572055817, -0.09887728840112686, -0.19625534117221832, 0.08978335559368134, 0.1255299597978592, -0.2831368148326874, 0.019203031435608864, -0.08925919234752655, -0.09860192984342575, 0.13095669448375702, 0.17431394755840302, -0.002929724520072341, 0.14727644622325897, -0.03589629754424095, -0.08510184288024902, 0.0034277690574526787, -0.09931736439466476, -0.06262167543172836, 0.006602211389690638, -0.17942945659160614, -0.041679494082927704], [-0.1274401694536209, 0.18269264698028564, 0.007888341322541237, 0.1872674971818924, -0.0774928629398346, -0.0008217833237722516, 0.07997976988554001, -0.14929570257663727, 0.009538366459310055, 0.019837725907564163, -0.06525617092847824, -0.001022891839966178, 0.36764487624168396, 0.04259799048304558, -0.07392791658639908, -0.24597540497779846, 0.08153790235519409, -0.3315421938896179, -0.07261329144239426, 0.0664646178483963, 0.0434282124042511, -0.2980659008026123, 0.0995345413684845, -0.010922538116574287], [-0.07090049982070923, 0.1102605015039444, -0.16003108024597168, -0.04379932954907417, -0.06207652762532234, 0.05712485313415527, -0.006494405213743448, 0.02041047252714634, -0.1466609239578247, 0.39294299483299255, 0.12983770668506622, 0.388160765171051, 0.28194865584373474, -0.08762334287166595, -0.022234328091144562, -0.009517685510218143, -0.008727291598916054, 0.29393118619918823, -0.18240699172019958, -0.17437958717346191, -0.19609440863132477, 0.09731005877256393, -0.21833552420139313, 0.04337802901864052], [-0.013101193122565746, 0.10193555057048798, 0.1416313648223877, -0.0394083596765995, -0.005851598922163248, 0.10332983732223511, 0.18387973308563232, -0.02748233452439308, 0.008442666381597519, -0.020440073683857918, -0.12304414063692093, -0.1719505339860916, -0.03720464929938316, -0.02128762938082218, -0.09403430670499802, -0.10841627418994904, -0.03140250965952873, -0.22258232533931732, 0.054259464144706726, 0.2193564623594284, -0.15069535374641418, -0.006140940356999636, -0.09242372959852219, 0.15423482656478882], [0.17440178990364075, -0.03843344375491142, 0.017674250528216362, 0.11942864954471588, 0.03256625309586525, 0.238963782787323, -0.10135141760110855, -0.14316290616989136, -0.013324407860636711, -0.027536381036043167, -0.01631253771483898, 0.20300467312335968, -0.2915918827056885, -0.09867704659700394, -0.18798263370990753, 0.0008595894905738533, -0.31670260429382324, -0.11270880699157715, 0.371700644493103, 0.11012468487024307, 0.10733821243047714, -0.027641301974654198, 0.07257828116416931, -0.0334758460521698], [-0.028956836089491844, -0.1698039025068283, -0.056930653750896454, -0.13986694812774658, -0.11720193922519684, 0.01789374276995659, 0.07382461428642273, 0.21944625675678253, -0.03917558491230011, -0.06621577590703964, 0.03136540576815605, 0.017760813236236572, -0.16548724472522736, -0.521395742893219, -0.15815101563930511, 0.042007409036159515, -0.019475648179650307, 0.33580470085144043, -0.19940167665481567, -0.009687313809990883, -0.040972400456666946, 0.022606713697314262, -0.17140203714370728, -0.02337404154241085], [0.113795705139637, 0.11183440685272217, 0.07393921166658401, -0.2470807284116745, 0.035552628338336945, 0.1224810928106308, 0.17203274369239807, 0.1429465264081955, -0.33886855840682983, 0.13381139934062958, 0.043814048171043396, -0.5092443227767944, 0.12030956894159317, 0.14504991471767426, 0.05290835723280907, 0.058888841420412064, -0.0808175653219223, 0.09702898561954498, 0.08730510622262955, 0.13974712789058685, 0.010751228779554367, -0.12082894891500473, 0.16271772980690002, 0.08275438100099564], [-0.16016711294651031, -0.11609332263469696, 0.0816553607583046, 0.030305679887533188, -0.03796880319714546, 0.061177730560302734, -0.14849773049354553, 0.037050340324640274, -0.1126793846487999, 0.2256975769996643, 0.15123596787452698, -0.020722154527902603, -0.14168968796730042, 0.15307138860225677, -0.16288810968399048, -0.16260769963264465, -0.08064879477024078, 0.11761719733476639, -0.08148691058158875, -0.0037863710895180702, 0.1466793268918991, -0.045017797499895096, 0.16912716627120972, -0.11758726835250854], [0.08619379252195358, -0.05364101380109787, -0.1182907372713089, -0.0027915427926927805, -0.04355918988585472, 0.06876815855503082, -0.10493192821741104, -0.0999395102262497, -0.6398481726646423, -0.04896269738674164, -0.0894136056303978, 0.45935162901878357, 0.06854049861431122, -0.016497595235705376, 0.1030159592628479, -0.09788573533296585, 0.1221044734120369, -0.10192733258008957, 0.11429312825202942, 0.024814939126372337, -0.12910254299640656, 0.22181029617786407, -0.19697901606559753, 0.1684192419052124], [0.08951720595359802, -0.06651433557271957, 0.13010446727275848, -0.03621111437678337, -0.04831219092011452, 0.02070491388440132, -0.16762299835681915, 0.1219395324587822, 0.33895212411880493, 0.02392977848649025, -0.030061738565564156, 0.4093957543373108, 0.13124270737171173, 0.24550901353359222, 0.1273038238286972, -0.09316754341125488, 0.2435857504606247, -0.13872094452381134, 0.03750503808259964, 0.16056965291500092, 0.14057163894176483, 0.07954785227775574, -0.2711119055747986, -0.15988042950630188], [0.040683209896087646, -0.121726855635643, 0.02615649625658989, -0.05591510981321335, 0.04346522316336632, -0.040911536663770676, 0.009973748587071896, 0.09228472411632538, -0.050694264471530914, -0.21407005190849304, -0.029676983132958412, 0.19134236872196198, -0.07513324171304703, 0.10993950814008713, -0.014076215215027332, 0.34067243337631226, 0.13662658631801605, -0.17142684757709503, -0.005325709003955126, -0.026474328711628914, -0.10591229051351547, 0.04271186515688896, -0.18347904086112976, 0.10150663554668427], [-0.081508569419384, -0.07494518160820007, 0.16706354916095734, -0.22937259078025818, 0.17468789219856262, -0.07945048809051514, 0.07541725039482117, -0.03622635453939438, -0.02938574180006981, -0.002693701768293977, -0.012883760966360569, -0.01374465599656105, -0.06313399225473404, 0.1587785929441452, -0.021921630948781967, -0.11701711267232895, 0.07540342211723328, -0.305110901594162, 0.41248515248298645, 0.10403398424386978, -0.055738817900419235, 0.1709074229001999, -0.17472262680530548, 0.02137630246579647], [0.09688746929168701, -0.09089186787605286, -0.14487512409687042, 0.04947404935956001, -0.07026771456003189, -0.1882370412349701, 0.06798125803470612, 0.0003744866990018636, 0.000703683472238481, -0.09552843123674393, -0.0671282485127449, -0.36865234375, 0.16189779341220856, 0.14829251170158386, 0.0962381511926651, -0.12765508890151978, 0.11974704265594482, 0.19869904220104218, 0.15603794157505035, -0.02844885364174843, -0.1923854798078537, -0.17967018485069275, -0.005441575311124325, 0.14820709824562073], [0.14430366456508636, 0.14301756024360657, -0.15303383767604828, 0.007919812574982643, -0.042904943227767944, -0.14528219401836395, -0.06910340487957001, 0.0025643054395914078, -0.16438503563404083, -0.0852603018283844, 0.004260294139385223, -0.319285124540329, 0.18799468874931335, -0.1397324800491333, -0.06717639416456223, 0.1378646343946457, 0.10711362212896347, 0.2821533679962158, -0.11454346776008606, -0.05483129620552063, 0.03448215126991272, -0.2599732279777527, 0.06737977266311646, 0.06459832936525345], [-0.029224440455436707, 0.11219966411590576, -0.010232971049845219, -0.11125033348798752, -0.2927400469779968, -2.497295463399496e-05, -0.10735131800174713, 0.05433696135878563, -0.008819783106446266, 0.0021571428515017033, 0.13237613439559937, 0.6478421688079834, 0.050084806978702545, 0.1957540363073349, 0.08016671985387802, -0.16878178715705872, 0.10632209479808807, 0.011377538554370403, -0.04553915187716484, -0.043768685311079025, -0.17105810344219208, 0.20134234428405762, 0.014970032498240471, -0.034677617251873016], [0.051916323602199554, -0.032554563134908676, 0.1948680430650711, -0.12707489728927612, 0.09431909769773483, -0.13231128454208374, -0.01589236967265606, 0.012391866184771061, 0.0015317918732762337, 0.06741633266210556, -0.036937177181243896, -0.06441769748926163, -0.07402017712593079, -0.06234932318329811, 0.06090791895985603, -0.04711996763944626, 0.0024412672501057386, -0.15807023644447327, 0.047224950045347214, -0.20807750523090363, -0.022538142278790474, 0.34109166264533997, -0.04157198220491409, -0.2529841363430023], [-0.222745880484581, 0.021385926753282547, -0.13836967945098877, 0.14934693276882172, 0.12828296422958374, -0.0954950675368309, -0.15332485735416412, -0.103675477206707, 0.530757486820221, 0.10972973704338074, -0.03354441002011299, 0.32446974515914917, -0.00989532470703125, 0.06251797825098038, -0.15543535351753235, 0.014629264362156391, 0.12545271217823029, 0.10909410566091537, -0.10198956727981567, -0.040561579167842865, 0.11071693897247314, -0.06657811999320984, 0.22897741198539734, 0.07927447557449341], [0.2138020098209381, -0.12773044407367706, -0.03189122676849365, 0.01970141939818859, -0.25608208775520325, 0.1090930700302124, -0.1090746819972992, 0.1962069272994995, 0.024037539958953857, 0.07091205567121506, -0.12099823355674744, -0.11823485791683197, 0.30533018708229065, 0.035133328288793564, 0.019901379942893982, 0.04204893112182617, -0.048669904470443726, -0.18182913959026337, -0.12009403109550476, 0.057403404265642166, 0.008746112696826458, -0.029998067766427994, 0.1188434585928917, 0.007840004749596119], [-0.19393132627010345, -0.12953302264213562, 0.03505721688270569, 0.1589156538248062, 0.17325736582279205, 0.18034672737121582, 0.05736995115876198, 0.030565300956368446, 0.276123046875, -0.17023302614688873, 0.130377858877182, 0.2814018428325653, 0.08763857930898666, -0.1580333113670349, 0.03575272113084793, -0.1935739815235138, -0.05297768488526344, 0.24488691985607147, 0.010217231698334217, 0.007514980621635914, -0.02551056072115898, 0.31034958362579346, -0.11023649573326111, 0.028261013329029083], [-0.03910812735557556, -0.0243532694876194, 0.1692458540201187, 0.10959687829017639, 0.22738732397556305, -0.17953351140022278, 0.046182677149772644, -0.12374352663755417, -0.3538917601108551, 0.3172331154346466, -0.13453985750675201, -0.1791938692331314, -0.2713325023651123, 0.09161420166492462, -0.08927813172340393, 0.00848518218845129, 0.11628774553537369, 0.06089680641889572, -0.00033784707193262875, -0.05241462215781212, -0.0008943819557316601, 0.1741335541009903, 0.026681531220674515, 0.0853918194770813], [-0.050103116780519485, -0.09669630229473114, -0.11388442665338516, -0.10979624092578888, -0.3727134168148041, 0.010112854652106762, -0.15693898499011993, 0.20466989278793335, -0.37916436791419983, 0.3631885349750519, 0.11476650089025497, -0.12733519077301025, -0.1360834836959839, 0.018745381385087967, 0.15861313045024872, 0.12009908258914948, -0.16595691442489624, -0.1563936024904251, 0.041374266147613525, -0.08610158413648605, -0.026541322469711304, -0.12557142972946167, -0.13786248862743378, 0.1003318801522255], [0.09061484038829803, 0.14196673035621643, -0.13064053654670715, 0.05153151974081993, 0.060425423085689545, 0.06401907652616501, 0.02057114616036415, -0.019525982439517975, 0.08795829862356186, -0.09175754338502884, 0.11259354650974274, 0.31704288721084595, 0.3075215816497803, 0.13396862149238586, -0.08166185766458511, 0.07402348518371582, 0.031465642154216766, 0.02146374247968197, 0.09403608739376068, -0.0067953309044241905, 0.11371119320392609, 0.12433920055627823, -0.09104353189468384, 0.1139092966914177], [0.14166408777236938, 0.13143068552017212, -0.005322097800672054, -0.025497684255242348, 0.15457648038864136, 0.11832785606384277, 0.09383823722600937, 0.0951089933514595, 0.2515445351600647, 0.013807205483317375, -0.0135166235268116, 0.22514177858829498, 0.15485155582427979, -0.02669663541018963, 0.12492208182811737, -0.013339227065443993, 0.19419094920158386, 0.020002948120236397, -0.11968093365430832, -0.045164987444877625, 0.003569802036508918, 0.03458283096551895, -0.08976820111274719, 0.08646830171346664], [-0.17717024683952332, 0.060467418283224106, -0.07937780767679214, -0.005891355685889721, 0.1335836797952652, -0.1019509956240654, 0.02097584307193756, -0.0029272057581692934, 0.3619869649410248, 0.6911792755126953, 0.09886984527111053, 0.13149526715278625, -0.07316380739212036, -0.0861857533454895, 0.2320076823234558, 0.15044066309928894, -0.1333361119031906, 0.17888924479484558, 0.01437070220708847, 0.16732093691825867, -0.09358897060155869, -0.12050233036279678, -0.04723326116800308, 0.14632569253444672], [0.1873840093612671, 0.07561255246400833, 0.0550420805811882, 0.00803066324442625, 0.2534090578556061, 0.0629175677895546, -0.10700759291648865, 0.1881171464920044, -0.44206637144088745, 0.040983326733112335, 0.14891673624515533, -0.399823397397995, -0.10547064989805222, 0.0163916926831007, -0.13735134899616241, 0.05659201368689537, -0.25040575861930847, -0.08693064749240875, -0.16643410921096802, -0.00351671501994133, -0.05577994883060455, 0.0013395800488069654, 0.21575576066970825, -0.009878268465399742], [0.12572252750396729, -0.024228809401392937, 0.14537757635116577, -0.3983575105667114, -0.07160491496324539, 0.11270488798618317, -0.08537890017032623, 0.19223366677761078, 0.12623660266399384, -0.11643654108047485, -0.05625714361667633, -0.1493808478116989, -0.1031048595905304, -0.20118071138858795, 0.005603761877864599, 0.1084025427699089, 0.0766485184431076, 0.33211031556129456, 0.5561110973358154, 0.03632257133722305, 0.06959065049886703, 0.07107340544462204, 0.023950383067131042, -0.055789217352867126], [0.19149506092071533, 0.0927368625998497, 0.017952632158994675, 0.12311922013759613, -0.2036001980304718, 0.10887245088815689, 0.02564382366836071, 0.16586340963840485, 0.20873235166072845, -0.18660853803157806, -0.15052653849124908, -0.06282839179039001, -0.07460366189479828, 0.12351155281066895, 0.06661751121282578, -0.011627105064690113, 0.19955971837043762, 0.18954911828041077, 0.7374366521835327, -0.17272886633872986, -0.036192964762449265, -0.1806320697069168, 0.04179518297314644, -0.05213887616991997], [-0.029147254303097725, -0.16075794398784637, 0.11029670387506485, 0.0503508560359478, -0.002312471391633153, -0.16369259357452393, -0.13229934871196747, 0.1751769781112671, 0.022469108924269676, -0.04068000614643097, 0.17024271190166473, 0.2258666306734085, 0.22437717020511627, 0.23212645947933197, 0.07892240583896637, -0.01943017914891243, 0.002809154335409403, -0.1488698571920395, 0.12768341600894928, 0.06079411134123802, -0.12722191214561462, -0.19631434977054596, -0.2504141628742218, 0.05024472624063492], [0.1436830461025238, -0.1098799854516983, -0.06160582974553108, 0.03851759806275368, -0.057227231562137604, 0.023166598752141, -0.20880530774593353, 0.12243135273456573, 0.15853245556354523, 0.01701482944190502, 0.07129063457250595, -0.10696971416473389, 0.4429360330104828, 0.08389122039079666, -0.056999485939741135, -0.10896135866641998, 0.020312299951910973, 0.024535536766052246, 0.12187189608812332, -0.18586918711662292, -0.07587850838899612, 0.14501911401748657, -0.20693427324295044, -0.021333130076527596], [-0.0409901887178421, -0.10235290229320526, 0.037692081183195114, -0.036038074642419815, 0.052551139146089554, -0.015055404976010323, 0.10121643543243408, 0.07780424505472183, 0.2144460529088974, -0.08912382274866104, 0.12943574786186218, 0.1924249231815338, 0.05038005858659744, -0.09361223131418228, -0.10981803387403488, 0.13117405772209167, 0.08458632230758667, -0.30284106731414795, -0.10286830365657806, -0.09480895102024078, -0.02304300293326378, 0.048120658844709396, -0.08735085278749466, 0.12384230643510818], [0.08850684762001038, -0.2160438448190689, 0.07790149003267288, 0.18439774215221405, 0.19767020642757416, 0.002185498597100377, -0.03647745028138161, 0.1764378398656845, 0.1574939489364624, -0.14369414746761322, -0.25537875294685364, -0.01640690676867962, -0.13712376356124878, 0.282085120677948, 0.0856962725520134, 0.0065450845286250114, -0.10345344245433807, 0.010759396478533745, 0.08244184404611588, -0.1401626169681549, -0.13999111950397491, 0.06793981045484543, -0.036444008350372314, 0.03517073020339012], [-0.04969507083296776, -0.03377315402030945, -0.11247934401035309, 0.027522193267941475, -0.04362175241112709, 0.0864868015050888, -0.030362427234649658, -0.01989752985537052, -0.01766027882695198, 0.014477386139333248, -0.0438263975083828, 0.018024425953626633, 0.01390608586370945, -0.0606888011097908, 0.15425629913806915, 0.5345445871353149, 3.5329539969097823e-06, -0.005517767742276192, -0.2296951562166214, -0.20193849503993988, -0.18860550224781036, -0.03260044381022453, -0.0573028028011322, 0.025754829868674278], [0.28914985060691833, -0.080727219581604, -0.03468263894319534, 0.17502166330814362, -0.005969579331576824, 0.10271890461444855, -0.2109549641609192, -0.07796517759561539, 0.12433162331581116, 0.04140826314687729, -0.0758364126086235, 0.0760333314538002, 0.02550145983695984, -0.1464155614376068, -0.048710014671087265, -0.14221471548080444, 0.25666889548301697, 0.14099113643169403, 0.18360038101673126, -0.03502105548977852, -0.15074607729911804, -0.027092427015304565, -0.24060070514678955, 0.08183162659406662], [0.13463535904884338, -0.024716248735785484, -0.008225937373936176, 0.10392076522111893, 0.18302412331104279, -0.03361905366182327, 0.14810265600681305, 0.035651497542858124, 0.2274245321750641, -0.2968776524066925, 0.02383865974843502, -0.23317211866378784, 0.013278349302709103, -0.052665237337350845, -0.015197128988802433, -0.10940525680780411, -0.14279191195964813, -0.028789151459932327, -0.1141715869307518, 0.05607610568404198, -0.13828279078006744, -0.0002543340378906578, 0.14005978405475616, -0.12683601677417755], [0.03741445764899254, 0.06903887540102005, 