{"architecture": [23, 256, 256, 128, 6], "activation": "relu", "weights": {"net.0.weight": [[-0.17498603463172913, -0.11211659014225006, 0.06798319518566132, 0.21425354480743408, 0.22100301086902618, 0.050051119178533554, -0.10429459065198898, 0.05021360144019127, -0.26723527908325195, -0.1650625318288803, -0.12118908762931824, 0.014031401835381985, -0.1311538815498352, 0.011740665882825851, -0.0827818438410759, 0.01423073559999466, 0.06348757445812225, 0.05320914834737778, 0.035552673041820526, 0.046741925179958344, 0.11019334197044373, -0.11864178627729416, 0.2122858315706253], [-0.08530201017856598, -0.04909541457891464, 0.016573915258049965, 0.031992245465517044, -0.12360863387584686, -0.018650757148861885, -0.0517270602285862, 0.2163567692041397, 0.7348870635032654, -0.6161787509918213, -0.018541134893894196, -0.09624461084604263, -0.03513762354850769, -0.019858011975884438, 0.013622721657156944, 0.01699087955057621, -0.07955986261367798, -0.05750586837530136, -0.0077290465123951435, 0.05168968811631203, -0.11945189535617828, 0.07454290241003036, -0.04359568655490875], [-0.0636417344212532, 0.06343898922204971, 0.18685872852802277, 0.13034027814865112, 0.17751175165176392, 0.14594581723213196, -0.020424341782927513, 0.12196988612413406, -0.23039589822292328, 0.18886668980121613, -0.16371600329875946, -0.13724029064178467, -0.1741763949394226, -0.26239168643951416, 0.13605652749538422, 0.121094711124897, -0.1205080896615982, -0.0027707931585609913, -0.09093824774026871, 0.15988005697727203, 0.12504595518112183, -0.21548260748386383, 0.02585226111114025], [0.16734832525253296, 0.09968188405036926, -0.11026187986135483, 0.20507559180259705, -0.17282864451408386, 0.04673059657216072, -0.05725245177745819, -0.1322019398212433, -0.08626459538936615, -0.21404384076595306, -0.13436079025268555, -0.03311462700366974, 0.06252682209014893, 0.021944934502243996, 0.1557532101869583, 0.1615843027830124, -0.1955467015504837, -0.30191126465797424, 0.05366932600736618, -6.095565913710743e-05, 0.09811723977327347, -0.25252553820610046, -0.16578762233257294], [0.2123679518699646, -0.023215049877762794, -0.0582619272172451, 0.11189024150371552, -0.2007739245891571, 0.11249090731143951, -0.24837134778499603, -0.028254611417651176, -0.002475003944709897, 0.05294198915362358, -0.03427136689424515, -0.10231082886457443, -0.0622125081717968, -0.2707931101322174, 0.07736646384000778, 0.0042501213029026985, 0.05011714994907379, -0.11345039308071136, 0.011124498210847378, 0.02620239183306694, -0.05433244630694389, -0.11450685560703278, 0.031237438321113586], [0.036831535398960114, -0.06783179938793182, 0.09898534417152405, -0.21130363643169403, 0.055066101253032684, 0.18333110213279724, -0.01925446093082428, 0.06636353582143784, -0.008664757013320923, -0.16282157599925995, 0.1336725354194641, -0.26412251591682434, -0.022634295746684074, -0.024119649082422256, -0.06454355269670486, 0.07648497074842453, 0.20299403369426727, 0.21996040642261505, -0.07489202171564102, -0.026466665789484978, 0.09468124061822891, 0.1417449563741684, -0.13531585037708282], [0.13074588775634766, -0.08576814085245132, -0.15741224586963654, 0.1254148632287979, 0.02164740115404129, 0.16709132492542267, -0.006305755116045475, -0.045094262808561325, 0.07008865475654602, 0.001550554996356368, -0.03737336024641991, 0.17970603704452515, 0.13139992952346802, 0.030137231573462486, -0.027015818282961845, 0.26147398352622986, -0.10492897033691406, -0.16229712963104248, -0.16751761734485626, 0.06894790381193161, -0.14675788581371307, 0.11818746477365494, -0.1647188514471054], [0.08848073333501816, 0.20737744867801666, -0.17618389427661896, -0.019573673605918884, 0.04128815978765488, 0.06508821994066238, -0.18846121430397034, 0.07711994647979736, 0.14671112596988678, 0.11748245358467102, 0.12857496738433838, 0.3801659047603607, 0.28021135926246643, 0.1853468269109726, -0.12360946834087372, 0.054836563766002655, 0.08397523313760757, -0.05383959412574768, -0.055138591676950455, -0.10997415333986282, -0.14013393223285675, 0.10150790214538574, -0.017416397109627724], [0.11254233866930008, -0.10583647340536118, -0.14750415086746216, -0.1220955103635788, -0.2419119030237198, -0.02397393248975277, -0.01982378400862217, -0.060746438801288605, -0.37580156326293945, -0.0408787801861763, -0.03514831140637398, -0.17355932295322418, -0.09998057782649994, -0.0910823717713356, 0.0357278473675251, 0.11552023142576218, -0.1002623662352562, 0.021476874127984047, -0.03970574960112572, 0.0328248031437397, 0.218160018324852, -0.006642557680606842, -0.011943073943257332], [-0.036684565246105194, 0.05559452623128891, 0.05873701721429825, -0.20154832303524017, 0.06567072123289108, 0.045347969979047775, -0.054949596524238586, 0.1261608898639679, 0.3312554359436035, -0.3199400305747986, 0.04176069423556328, -0.39237847924232483, -0.09786877781152725, -0.01802905835211277, 0.17441809177398682, 0.04994836449623108, 0.16540388762950897, -0.03047053888440132, 0.05773017555475235, -0.12274964153766632, 0.1191440001130104, -0.0362536758184433, -0.016783781349658966], [-0.14379829168319702, -0.15016892552375793, -0.06170714274048805, 0.17287619411945343, 0.14371508359909058, -0.19613325595855713, 0.10500603169202805, 0.15677917003631592, 0.3191518783569336, -0.25496014952659607, 0.0649166852235794, -0.3257390558719635, 0.1026253029704094, 0.1896858960390091, -0.07395711541175842, 0.19662120938301086, -0.11349557340145111, 0.047420840710401535, -0.14060059189796448, 0.2237352579832077, -0.008278626017272472, -0.049849752336740494, -0.16149814426898956], [-0.13024939596652985, -0.09633012115955353, -0.12963062524795532, 0.0349138043820858, -0.2009246051311493, -0.0691012591123581, 0.1296815574169159, -0.17271928489208221, -0.11929454654455185, -0.09683644771575928, -0.18787799775600433, 0.387305349111557, -0.16849647462368011, -0.09170549362897873, -0.12816864252090454, -0.026809070259332657, 0.12588953971862793, -0.17854836583137512, -0.08169972896575928, -0.1788104921579361, -0.013604089617729187, -0.335502028465271, -0.09992572665214539], [0.19269129633903503, -0.06551113724708557, -0.018633101135492325, 0.07274604588747025, -0.10987000912427902, -0.17375902831554413, -0.13283094763755798, -0.18589849770069122, -0.049431055784225464, -0.19279007613658905, -0.16767077147960663, 0.280590295791626, -0.024980736896395683, 0.15328910946846008, -0.13831232488155365, -0.09110153466463089, -0.05414588376879692, -0.09606999158859253, -0.18526285886764526, -0.1079297810792923, -0.15446089208126068, 0.14864125847816467, -0.025177001953125], [0.13792245090007782, 0.06634274870157242, 0.06711798161268234, -0.08281043916940689, -0.01765252836048603, -0.08354885131120682, 0.049667250365018845, -0.061175357550382614, 0.16631685197353363, -0.1493585705757141, 0.07836467027664185, -0.4221179485321045, 0.2108360081911087, 0.0922427624464035, 0.12597423791885376, 0.12405689060688019, -0.10430404543876648, 0.14171600341796875, 0.1532500982284546, 0.07449311763048172, 0.12175397574901581, 0.06894169747829437, -0.19419224560260773], [-0.02754468284547329, 0.02231692522764206, -0.1327522248029709, -0.1026054173707962, 0.008430042304098606, 0.05216311290860176, 0.131576269865036, 0.1702076643705368, 0.3256430923938751, -0.052493616938591, 0.14898794889450073, 0.2941434681415558, 0.04794253408908844, 0.04804977774620056, 0.1277109682559967, 0.16996566951274872, 0.0448685921728611, -0.4159141778945923, -0.14742326736450195, 0.08230814337730408, 0.08700335770845413, -0.10839833319187164, -0.22986558079719543], [0.22424963116645813, 0.07023191452026367, 0.16747435927391052, -0.05011741444468498, 0.12287897616624832, 0.01616264134645462, 0.09268666058778763, 0.09795580804347992, -0.08667007833719254, 0.036172185093164444, 0.12296426296234131, -0.6139667630195618, 0.331329882144928, 0.16662894189357758, 0.0008766737882979214, -0.06058439984917641, -0.029591288417577744, 0.014767767861485481, -0.04437362402677536, -0.29063090682029724, -0.0026324770879000425, -0.060852084308862686, 0.09986164420843124], [0.12785126268863678, -0.21369469165802002, 0.10939100384712219, 0.06313693523406982, 0.11003035306930542, -0.055401720106601715, 0.042805034667253494, -0.02031521126627922, 0.32039737701416016, -0.01949392817914486, -0.08202371746301651, -0.27049094438552856, -0.13533411920070648, 0.15368770062923431, 0.03353053703904152, 0.07458074390888214, -0.20894207060337067, -0.16646084189414978, -0.11441539973020554, -0.03796848654747009, 0.11723574995994568, -0.014681104570627213, -0.08353527635335922], [-0.010960064828395844, 0.02759019285440445, 0.027960382401943207, -0.11540389806032181, -0.20797497034072876, 0.031670428812503815, -0.08857060968875885, -0.12304043024778366, 0.6192068457603455, -0.30962055921554565, 0.11957605183124542, 0.02154189720749855, 0.1308123767375946, -0.01991897076368332, -0.05059035122394562, -0.0633559599518776, 0.07998955994844437, -0.01767696626484394, 0.006807888392359018, 0.24661390483379364, 0.0005381239461712539, -0.10189469158649445, -0.22824349999427795], [0.13589397072792053, -0.10255133360624313, -0.20609000325202942, 0.17565315961837769, -0.4335741102695465, 0.15599177777767181, -0.21196918189525604, 0.019524691626429558, 0.11605421453714371, 0.08066661655902863, 0.09549760818481445, 0.24349120259284973, 0.18509452044963837, -0.08721639215946198, -0.18270137906074524, -0.1665223389863968, -0.17131952941417694, -0.185039684176445, 0.0799546092748642, 0.1147686019539833, -0.028471261262893677, -0.2710217237472534, 0.024926187470555305], [0.0021856501698493958, -0.13655462861061096, -0.02272072806954384, -0.07404805719852448, -0.008387913927435875, -0.17792613804340363, -0.06914916634559631, -0.09763263911008835, -0.11404766887426376, 0.22616901993751526, 0.17420662939548492, 0.16865263879299164, -0.11999015510082245, -0.14814861118793488, -0.05418771132826805, -0.07429572939872742, 0.025872383266687393, 0.33823367953300476, -0.08300524950027466, 0.15614616870880127, 0.07603293657302856, 0.03912176936864853, -0.09535413235425949], [0.012315689586102962, 0.13889697194099426, 0.11458541452884674, -0.13482819497585297, 0.205132856965065, 0.19127333164215088, 0.07701676338911057, 0.14297206699848175, 0.029642663896083832, -0.07771437615156174, 0.1211068257689476, -0.01803675852715969, -0.14301417768001556, -0.01880366913974285, -0.060506369918584824, -0.13674771785736084, 0.04060595482587814, -0.11500079929828644, -0.1578478366136551, -0.0899110808968544, 0.14528237283229828, -0.17957714200019836, 0.2045978158712387], [0.11630009859800339, 0.13389325141906738, 0.07329221069812775, -0.04117610305547714, -0.027606826275587082, -0.054689258337020874, 0.07939540594816208, -0.07190931588411331, 0.291229248046875, 0.1598605066537857, 0.020352263003587723, -0.26961490511894226, 0.10171990841627121, 0.08974052220582962, 0.04978196695446968, 0.11182206869125366, 0.23727034032344818, 0.029910409823060036, 0.1075802892446518, 0.09695175290107727, 0.15176768600940704, -0.11446644365787506, -0.1353929340839386], [-0.09780344367027283, -0.1151050329208374, 0.048274699598550797, 0.14664724469184875, 0.03464731574058533, -0.22654469311237335, 0.017542961984872818, -0.1392337679862976, 0.11654248088598251, -0.10495882481336594, 0.0837058275938034, -0.2250431776046753, 0.13359148800373077, 0.08725208044052124, -0.045238640159368515, -0.10232637077569962, 0.25004416704177856, -0.1313340961933136, 0.02489808015525341, 0.14414051175117493, -0.14732716977596283, -0.08370755612850189, -0.2683335244655609], [0.09952297061681747, -0.038489118218421936, 0.13930876553058624, -0.026526641100645065, -0.16873684525489807, 0.16174247860908508, 0.11346781253814697, 0.08892495930194855, -0.04517856612801552, 0.3359690010547638, 0.13970792293548584, -0.005932966712862253, -0.1215844675898552, -0.22484582662582397, 0.07330422103404999, -0.02542269416153431, 0.24136774241924286, 0.0611606128513813, -0.08660585433244705, -0.27971339225769043, -0.22140651941299438, -0.002350239548832178, -0.1752452552318573], [0.005796609912067652, -0.03281896933913231, -0.013556849211454391, -0.12035606056451797, -0.022311456501483917, 0.034904707223176956, -0.14004889130592346, -0.011805851943790913, 0.08718939870595932, -4.580462336889468e-05, 0.1721935123205185, 0.011139278300106525, -0.11783185601234436, 0.22759824991226196, 0.18768252432346344, 0.6726016402244568, 0.06245650723576546, 0.19463832676410675, -0.12138823419809341, 0.06864482164382935, -0.10755175352096558, -0.06510789692401886, -0.10764870792627335], [0.12412718683481216, -0.10893643647432327, 0.037839651107788086, 0.15923470258712769, 0.13154739141464233, 0.10117688775062561, -0.041455626487731934, 0.1916971653699875, 0.3175771236419678, 0.19548341631889343, 0.016985898837447166, -0.38590556383132935, 0.16493815183639526, 0.17208488285541534, -0.06452450901269913, 0.1306290328502655, -0.04491791874170303, -0.02648952230811119, -0.08097868412733078, 0.20976172387599945, 0.01950990781188011, 0.16212065517902374, -0.24156972765922546], [0.174704909324646, -0.12004309892654419, 0.016223648563027382, -0.2001042515039444, 0.010575498454272747, -0.09878908842802048, -0.09388010948896408, -0.0344720222055912, 0.09943175315856934, -0.1923990547657013, -0.16091878712177277, -0.5150929689407349, 0.012885007075965405, -0.052662357687950134, 0.13880951702594757, -0.1401466727256775, 0.05744384601712227, 0.08790883421897888, 0.1679224967956543, -0.31750959157943726, 0.13029517233371735, 0.07653229683637619, 0.2206984907388687], [0.06171819940209389, -0.13893024623394012, 0.22048601508140564, 0.11261887848377228, -0.10999829322099686, 0.013694006018340588, 0.04516348987817764, -0.06663087010383606, 0.014625917188823223, 0.02344033308327198, -0.088534414768219, -0.03012036345899105, -0.15111272037029266, 0.24186275899410248, 0.1428702175617218, 0.16355781257152557, 0.08808024227619171, -0.1533139944076538, 0.3528141379356384, 0.14835868775844574, 0.0777117982506752, -0.05689840018749237, 0.011226446367800236], [0.037509772926568985, -0.002542610513046384, 0.010360955260694027, 0.0945972427725792, -0.06556371599435806, 0.13788866996765137, 0.05298524349927902, 0.01789018139243126, 0.17259027063846588, -0.13333871960639954, 0.10886258631944656, -0.0545511357486248, -0.17952124774456024, -0.030398977920413017, 0.07686835527420044, 0.1631668210029602, 0.17236675322055817, 0.13899804651737213, -0.08535534888505936, -0.09691149741411209, -0.16853462159633636, 0.09907252341508865, -0.13226041197776794], [0.10569535195827484, -0.07879377901554108, -0.023153433576226234, 0.13764120638370514, -0.025949055328965187, 0.020442558452486992, 0.03288673982024193, -0.014749353751540184, -0.03407629206776619, 0.025095734745264053, -0.007879560813307762, 0.1778324842453003, 0.07631829380989075, -0.1286250352859497, -0.04878557100892067, -0.04625377804040909, 0.006407301872968674, -0.3518182337284088, 0.34233781695365906, 0.08420577645301819, 0.05980104207992554, -0.03488358110189438, -0.14817802608013153], [-0.18262217938899994, -0.07058675587177277, 0.08679001033306122, 0.2292139083147049, 0.10500922799110413, -0.05833405628800392, -0.039252713322639465, 0.006838453467935324, 0.09944233298301697, 0.047659359872341156, 0.06184250861406326, 0.10021717101335526, 0.15638181567192078, 0.11471559852361679, -0.07633032649755478, -0.05433366447687149, 0.03157806769013405, -0.051728587597608566, -0.13158859312534332, 0.019648568704724312, -0.11510355770587921, -0.18646559119224548, 0.06603115797042847], [0.044856294989585876, -0.12913799285888672, -0.17552167177200317, 0.16434483230113983, -0.2695837914943695, 0.09523247927427292, 0.027647025883197784, 0.06621268391609192, -0.031060580164194107, 0.24080611765384674, -0.19602423906326294, -0.09108370542526245, 0.22158382833003998, 0.15860791504383087, 0.05005960538983345, 0.20820266008377075, 0.09683065116405487, 0.11825989931821823, -0.22408738732337952, -0.0012568237725645304, -0.17694354057312012, -0.14217838644981384, 0.051556751132011414], [-0.144026979804039, -0.07319660484790802, 0.00496880616992712, -0.057307980954647064, -0.21415778994560242, 0.15634673833847046, 0.12436631321907043, 0.11726631224155426, -0.0478869192302227, 0.1014886125922203, 0.1005992591381073, 0.006574320141226053, 0.33789533376693726, -0.17999844253063202, -0.17842184007167816, 0.20393916964530945, -0.059779681265354156, -0.18785449862480164, -0.208201065659523, -0.03556271269917488, 0.22378107905387878, 0.009799601510167122, -0.1695377230644226], [0.20330165326595306, -0.11322759091854095, -0.09565675258636475, 0.03359086811542511, 0.05564681813120842, 0.003020836506038904, 0.15686720609664917, 0.021116813644766808, -0.25647130608558655, 0.06836333870887756, -0.022085685282945633, 0.7526516318321228, 0.11431988328695297, 0.0580645352602005, 0.041558630764484406, -0.09848085045814514, -0.008595680817961693, 0.07795129716396332, 0.05795900151133537, -0.036388907581567764, -0.06840386986732483, 0.05449226498603821, -0.09086331725120544], [-0.06713876128196716, -0.13520276546478271, -0.1580091416835785, -0.2672635316848755, -0.059428177773952484, -0.025005551055073738, -0.1711786389350891, 0.24935705959796906, 0.002249055076390505, -0.11942324787378311, -0.12690338492393494, 0.17501860857009888, -0.0697970911860466, -0.06424489617347717, 0.025583630427718163, 0.1171400398015976, -0.15045641362667084, 0.21262656152248383, -0.19694477319717407, -0.12243150919675827, 0.07260706275701523, -0.040524087846279144, 0.08397296816110611], [-0.029353318735957146, 0.12185025215148926, -0.06754739582538605, 0.17847204208374023, -0.03805604577064514, -0.19586122035980225, -0.07550288736820221, 0.13728459179401398, 0.30509817600250244, 0.27239033579826355, 0.1357046514749527, 0.08677764236927032, 0.2281176745891571, -0.23238776624202728, -0.04261099174618721, 0.17393818497657776, -0.14223118126392365, -0.14909522235393524, 0.04138819873332977, -0.17683422565460205, -0.07914231717586517, 0.03617469593882561, 0.06644515693187714], [0.13832370936870575, 0.11224784702062607, -0.05974834784865379, 0.10332565009593964, 0.06545177847146988, -0.0909016951918602, -0.1563814878463745, 0.012614044360816479, -0.0856442078948021, -0.16802982985973358, -0.18623726069927216, 0.2787769138813019, -0.013457943685352802, 0.17329208552837372, 0.07573587447404861, 0.20507508516311646, 0.006378510035574436, -0.04630177840590477, 0.011830947361886501, 0.11685158312320709, 0.07152558118104935, -0.08613158017396927, 0.04214370995759964], [-0.21115200221538544, 0.06201579049229622, -0.1732797622680664, 0.22486966848373413, -0.09505826234817505, 0.023194648325443268, -0.04810643196105957, 0.1223439872264862, -0.287067711353302, 0.24861030280590057, -0.20736399292945862, -0.26037362217903137, 0.008706343360245228, -0.1251203864812851, -0.031368255615234375, -0.01981773041188717, 0.09621546417474747, 0.03566020354628563, 0.07849741727113724, -0.12485334277153015, 0.01737191528081894, 0.09743645787239075, -0.012392794713377953], [-0.2454141229391098, -0.03966889530420303, -0.02364242821931839, 0.13303479552268982, 0.04214989021420479, 0.07664194703102112, 0.07890438288450241, 0.17932993173599243, 0.5358150601387024, -0.0038197592366486788, -0.026183875277638435, -0.2665834426879883, 0.0900593027472496, 0.2594461739063263, 0.08867409080266953, -0.08833067119121552, -0.08515895158052444, 0.059117741882801056, -0.008663514629006386, 0.03072306141257286, 0.19992724061012268, 0.03922121226787567, -0.11616313457489014], [-0.04477343335747719, 0.13626964390277863, -0.089511439204216, -0.14148922264575958, 0.06903843581676483, -0.08051258325576782, -0.0372377447783947, 0.1735420972108841, -0.018385952338576317, 0.12081966549158096, 0.02629346214234829, 0.002364271553233266, -0.13815122842788696, 0.21793228387832642, 0.09734825044870377, 0.49872708320617676, 0.28343436121940613, -0.10902255028486252, -0.044945985078811646, -0.13355432450771332, -0.19720613956451416, -0.08945974707603455, -0.1031656563282013], [0.03768486902117729, 0.0988837480545044, 0.11342421919107437, -0.17318330705165863, -0.09462682902812958, -0.09850738942623138, -0.036788761615753174, 0.20089155435562134, -0.06579376757144928, 0.35755375027656555, 0.05457171052694321, 0.02512906864285469, -0.07336422801017761, -0.017315339297056198, -0.10568627715110779, 0.07705288380384445, -0.20139139890670776, 0.07236327230930328, 0.04568301886320114, 0.22714835405349731, 0.15935389697551727, -0.011435100808739662, 0.04925087094306946], [0.09129329025745392, 0.11737427860498428, 0.19058217108249664, -0.05919831991195679, -0.0669737383723259, 0.05641556531190872, -0.1360357701778412, -0.1568271368741989, 0.11080038547515869, 0.018526243045926094, 0.13780471682548523, 0.07953034341335297, 0.05325256288051605, -0.19416430592536926, -0.0626387894153595, 0.023888688534498215, 0.005098901689052582, 0.2545253038406372, 0.38935407996177673, -0.1665426343679428, -0.1588185429573059, -0.034995708614587784, -0.13661694526672363], [-0.15726763010025024, 0.08270031958818436, -0.10944075882434845, -0.046262241899967194, -0.12269414961338043, -0.15424557030200958, -0.013299589045345783, -0.18092180788516998, 0.4034859836101532, 0.35491859912872314, 0.1819704920053482, -0.15072159469127655, -0.14386318624019623, -0.037925295531749725, 0.19916163384914398, -0.17855075001716614, -0.040041714906692505, -0.00482918880879879, 0.10059228539466858, -0.05274293199181557, -0.10198713093996048, 0.10370836406946182, -0.13153505325317383], [0.22567766904830933, -0.07937521487474442, -0.20010767877101898, 0.17313919961452484, -0.15481840074062347, 0.18531444668769836, -0.10572056472301483, -0.12448304146528244, 0.35274749994277954, 0.33150506019592285, 0.047179389744997025, -0.008802905678749084, -0.22490955889225006, 0.27115264534950256, -0.028679121285676956, -0.13041341304779053, 0.09956556558609009, 0.2577974200248718, 0.10537504404783249, 0.02890748530626297, 0.13076196610927582, -0.041383322328329086, -0.14004263281822205], [0.06377371400594711, -0.03753616660833359, 0.061747658997774124, -0.19652505218982697, 0.011051556095480919, -0.12769176065921783, -0.02775392308831215, -0.16662533581256866, -0.07384217530488968, 0.013903304003179073, 0.14439132809638977, 0.49885064363479614, 0.06967838853597641, 0.25015220046043396, -0.12906016409397125, -0.11016309261322021, 0.17506730556488037, 0.19791902601718903, -0.11364898830652237, 0.04900055751204491, -0.1038348451256752, 0.08179958164691925, 0.11993036419153214], [0.08918590098619461, 0.026028046384453773, -0.01842864416539669, -0.01093579176813364, -0.11854632943868637, -0.001804984174668789, 0.005346755497157574, 0.046986475586891174, -0.8050456643104553, -0.0860866904258728, 0.04648584499955177, 0.04014492407441139, 0.019065644592046738, -0.019939668476581573, 0.04569704085588455, -0.051844511181116104, 0.04774876683950424, 0.029610618948936462, 0.26255711913108826, 0.06808522343635559, -0.05419089272618294, 0.021091172471642494, -0.16856469213962555], [-0.10109515488147736, 0.015094584785401821, -0.1614062786102295, 0.03155602142214775, -0.052570149302482605, -0.08297012746334076, 0.044638700783252716, 0.12098798900842667, 0.3747897148132324, 0.1800723671913147, 0.024148859083652496, -0.20007354021072388, -0.09170692414045334, 0.04052450507879257, 0.13783036172389984, 0.2588646411895752, -0.19910356402397156, -0.07580720633268356, 0.09362281113862991, -0.17891857028007507, 0.0802903026342392, -0.019107932224869728, -0.05588794872164726], [0.20414727926254272, -0.12868505716323853, 0.02944404073059559, 0.1360137164592743, -0.07716529071331024, -0.018366973847150803, -0.09734901040792465, 0.05257435888051987, -0.0922248438000679, -0.09454121440649033, 0.01884629763662815, 0.10534492880105972, 0.1850639283657074, 0.021658316254615784, -0.016619941219687462, 0.09798534959554672, 0.06317928433418274, -0.23342370986938477, -0.200153648853302, 0.06395810097455978, -0.11053086817264557, 0.04930546134710312, 0.14495691657066345], [0.04716144874691963, -0.07302670180797577, 0.20265419781208038, -0.0038904102984815836, -0.054026905447244644, 0.0005745053640566766, -0.022723937407135963, 0.12535515427589417, -0.11514147371053696, -0.18177692592144012, 0.11101575195789337, -0.39590317010879517, 0.2286418080329895, 0.24709706008434296, 0.12280039489269257, -0.06325943022966385, -0.12488438934087753, 0.16756606101989746, -0.1915169358253479, -0.03497647866606712, -0.19008052349090576, -0.08458196371793747, -0.028914472088217735], [-0.098211370408535, -0.18314209580421448, -0.08144528418779373, 0.16387729346752167, -0.0766272023320198, -0.20376960933208466, 0.03675026819109917, 0.1880919337272644, 0.06915448606014252, -0.12201876938343048, 0.018221033737063408, -0.1795836240053177, 0.12035716325044632, 0.04282951354980469, -0.24375700950622559, -0.12237206846475601, 0.2174507975578308, 0.19497117400169373, 0.12448267638683319, -0.012949056923389435, 0.05207011476159096, 0.07724284380674362, 0.0015513829421252012], [-0.18879994750022888, -0.08030395209789276, -0.14754049479961395, -0.20216743648052216, -0.08901099115610123, -0.11308566480875015, -0.0015371082117781043, 0.09277680516242981, -0.08813987672328949, 0.1949874460697174, -0.10311005264520645, 0.14266422390937805, -0.1346934735774994, 0.09540928155183792, -0.08467216789722443, -0.1679479032754898, 0.04773000627756119, 0.30616506934165955, -0.16570331156253815, 0.05355018749833107, 0.0463886521756649, -0.05703744664788246, 0.1657269299030304], [-0.2390342354774475, 0.24031615257263184, -0.3496357500553131, 0.16799761354923248, -0.2363506555557251, 0.18934622406959534, 0.10278895497322083, -0.21905294060707092, 0.43884170055389404, -0.22689636051654816, 0.043242305517196655, -0.11413774639368057, -0.14812752604484558, -0.2673660218715668, -0.05470661073923111, -0.007604583632200956, -0.07465405017137527, -0.2664201259613037, -0.09200604259967804, -0.08514005690813065, -0.07665520161390305, -0.051128603518009186, -0.010194330476224422], [-0.17871887981891632, -0.10002091526985168, 0.053393565118312836, 0.07929734140634537, 0.019727570936083794, -0.03302818909287453, -0.1965474635362625, -0.1155162900686264, 0.1732979714870453, -0.1868983805179596, -0.09097319096326828, 0.061818983405828476, -0.13785678148269653, 0.23716309666633606, -0.024773009121418, -0.14042411744594574, -0.10218695551156998, -0.10055430233478546, 0.15684442222118378, -0.07548239827156067, 0.15662914514541626, 0.019320247694849968, -0.08511519432067871], [0.011124640703201294, 0.09167931973934174, -0.09036960452795029, -0.13394348323345184, 0.17204369604587555, 0.004815188702195883, 0.17604582011699677, -0.13100405037403107, 0.047572873532772064, 0.031439200043678284, 0.16548900306224823, -0.0010611627949401736, 0.2933949828147888, -0.0343172512948513, 0.12033037841320038, -0.22300000488758087, 0.13105501234531403, -0.2347499132156372, 0.23180092871189117, -0.04275595024228096, 0.0307919941842556, -0.0573398731648922, -0.2355092167854309], [-0.022527454420924187, 0.08868344128131866, 0.14064361155033112, -0.11786027997732162, -0.022344399243593216, -0.04680312052369118, 0.06033088639378548, 0.003548617707565427, 0.5111133456230164, 0.044292036443948746, 0.02302967570722103, 0.46136215329170227, 0.08836466819047928, -0.04217911511659622, -0.03248721361160278, -0.11252535879611969, 0.11322926729917526, -0.3387265205383301, -0.02941207028925419, 0.13484898209571838, 0.08246663957834244, 0.08536558598279953, -0.07327896356582642], [-0.011526870541274548, 0.05552846938371658, 0.052370745688676834, -0.2250969260931015, 0.04269259050488472, 0.06306268274784088, -0.09777350723743439, 0.19933651387691498, 0.022604243829846382, -0.025771524757146835, -0.12274591624736786, 0.08170849084854126, -0.08564356714487076, 0.009962906129658222, 0.07921372354030609, 0.04321476072072983, 0.08176939934492111, 0.4163486063480377, -0.08143176138401031, 0.0006175563903525472, 0.11151643097400665, -0.05691474303603172, -0.1342170089483261], [-0.01208694837987423, 0.12771838903427124, 0.16857630014419556, -0.03605194389820099, -0.11062072217464447, 0.09010964632034302, 0.06253615021705627, 0.10125778615474701, 0.3975675106048584, 0.41789692640304565, -0.11479292064905167, -0.6058279871940613, 0.1306704580783844, 0.11633290350437164, -0.0553758479654789, -0.04873551055788994, 0.0007347543141804636, 0.1249326765537262, -0.0834294930100441, -0.0420837476849556, 0.08460863679647446, -0.02287272736430168, -0.037945978343486786], [-0.039333097636699677, 0.013064085505902767, 0.19435666501522064, -0.11536847054958344, 0.009317559190094471, 0.13526245951652527, 0.1370404064655304, -0.09947209805250168, -0.022455766797065735, -0.13480360805988312, -0.1428772509098053, -0.40787696838378906, 0.2787565588951111, 0.24172045290470123, 0.09055999666452408, -0.08637484908103943, 0.04387489706277847, 0.2418530434370041, -0.12964531779289246, -0.11070145666599274, 0.2293877899646759, -0.05948958545923233, -0.15185190737247467], [-0.025878626853227615, 0.17145484685897827, 0.11774478852748871, 0.0660238191485405, 0.1493142992258072, 0.10059844702482224, -0.1382400095462799, -0.14537274837493896, -0.08966333419084549, -0.020400144159793854, -0.04804861918091774, 0.1690472960472107, 0.04027707129716873, 0.05945877358317375, -0.011352145113050938, -0.09709969907999039, 0.07640711218118668, -0.33547037839889526, 0.08723066747188568, -0.04956822469830513, -0.08859404921531677, 0.09356234967708588, 0.18507526814937592], [-0.09036675840616226, -0.03717970848083496, -0.02510005794465542, 0.17293162643909454, -0.13507050275802612, 0.12364722788333893, -0.13634049892425537, 0.16101332008838654, -0.17511695623397827, 0.1667436808347702, 0.12099157273769379, -0.10458628833293915, 0.11256773769855499, 0.13187089562416077, -0.14174160361289978, -0.11263682693243027, 0.1392909735441208, -0.06534110009670258, 0.05876796320080757, -0.15509024262428284, -0.12245452404022217, 0.0293795894831419, -0.03175750747323036], [0.09264078736305237, -0.04812835529446602, 0.19903349876403809, -0.08951812237501144, -0.15693075954914093, -0.013915861025452614, 0.10725611448287964, -0.13553255796432495, -0.1651175171136856, 0.1343209147453308, 0.10483153909444809, 0.4321954846382141, 0.2547805905342102, 0.03347760811448097, 0.2114962935447693, 0.02170645445585251, 0.14521199464797974, 0.12182573974132538, -0.16158072650432587, 0.13198688626289368, 0.125566303730011, -0.07858351618051529, -0.06091708317399025], [0.07191327959299088, 0.015172548592090607, -0.09290696680545807, -0.05732402950525284, 0.04891495034098625, -0.17449980974197388, -0.03194927051663399, 0.001149677555076778, -0.2641473114490509, 0.49991798400878906, 0.18014204502105713, 0.22406800091266632, -0.01145147904753685, 0.20066235959529877, -0.2585686445236206, -0.0425741970539093, -0.14194226264953613, -0.08506516367197037, -0.021238287910819054, -0.0007904261001385748, -0.16653884947299957, -0.18071749806404114, -0.1503196805715561], [-0.15453088283538818, 0.0024384320713579655, 0.16181370615959167, 0.20568259060382843, 0.13623854517936707, 0.014450732618570328, 0.10375341027975082, -0.11304635554552078, 0.2812398672103882, 0.29471805691719055, -0.06532175838947296, 0.5947606563568115, -0.02449336275458336, -0.08205121010541916, 0.17434994876384735, 0.049144964665174484, -0.08235686272382736, 0.13999371230602264, -0.021454688161611557, 0.001892749103717506, 0.1939162313938141, -0.06614751368761063, 0.15688955783843994], [0.17451991140842438, 0.0013864944921806455, -0.14249186217784882, -0.1507619023323059, -0.10822946578264236, -0.00905598234385252, -0.10398974269628525, -0.15903641283512115, -0.021601727232336998, 0.4838658571243286, -0.11903700232505798, 0.15086668729782104, 0.03486078977584839, 0.28749731183052063, 0.02323223277926445, -0.02538304403424263, 0.006536036264151335, -0.2023255079984665, -0.06445427238941193, -0.26987341046333313, 0.16379283368587494, -0.06507544964551926, 0.14715521037578583], [0.07009364664554596, -0.20345698297023773, 0.08632395416498184, 0.16475516557693481, 0.04450518265366554, 0.041929058730602264, 0.07062085717916489, 0.09521202743053436, -0.35559090971946716, 0.036252211779356, -0.16144627332687378, -0.09904346615076065, -0.22439885139465332, -0.103631891310215, 0.10434772819280624, -0.13297556340694427, -0.04390055313706398, 0.1352519541978836, 0.12442561239004135, 0.08746512234210968, 0.04803970083594322, -0.01244972925633192, -0.045533932745456696], [-0.0742528885602951, -0.04643348604440689, -0.09418506175279617, -0.06636014580726624, 0.0019364493200555444, 0.12014451622962952, 0.08631198853254318, 0.1832452267408371, 0.363569974899292, 0.20961634814739227, 0.16973485052585602, 0.26908808946609497, 0.16873735189437866, 0.1488708108663559, 0.08284763246774673, -0.13874973356723785, -0.03754264861345291, 0.02560390532016754, 0.179310604929924, -0.31529247760772705, -0.06925742328166962, 0.040777646005153656, -0.14083890616893768], [0.17285166680812836, 0.04863826557993889, 0.21263553202152252, 0.2862381935119629, 0.1116207093000412, 0.03604348376393318, -0.0783093199133873, 0.013011514209210873, -0.2588489055633545, 0.1389399766921997, -0.014889176934957504, -0.20839624106884003, 0.233099564909935, 0.02469744347035885, 0.026655348017811775, -0.013759591616690159, 0.14524167776107788, 0.009038621559739113, -0.17894817888736725, 0.06044770032167435, -0.10591907054185867, 0.13809676468372345, -0.07483147829771042], [-0.12564727663993835, -0.07330744713544846, -0.10111112147569656, 0.11720351874828339, -0.03203672915697098, -0.08332822471857071, 0.0054654451087117195, 0.09930597990751266, 0.10117773711681366, 0.24931353330612183, 0.07552510499954224, -0.05012757331132889, 0.2675381004810333, -0.14140546321868896, -0.009487930685281754, -0.008037684485316277, 0.09934397786855698, -0.06021026894450188, 0.02984464541077614, 0.25626951456069946, 0.04009421914815903, 0.12359403073787689, -0.1359211951494217], [0.2716009318828583, 0.047875456511974335, -0.005127427168190479, 0.10890769213438034, -0.03811955079436302, 0.09497471898794174, -0.22060546278953552, 0.0666523352265358, 0.20287485420703888, 0.0008515894878655672, 0.04204760864377022, -0.07871440798044205, 0.025833284482359886, -0.34514740109443665, -0.11167004704475403, -0.021176766604185104, 0.12903736531734467, -0.21413519978523254, -0.017339715734124184, 0.008465091697871685, -0.1407831460237503, 0.08660963177680969, -0.11625295132398605], [0.14840129017829895, -0.12296566367149353, 0.15107610821723938, -0.06442679464817047, -0.029601944610476494, 0.05352788046002388, 0.022491326555609703, 0.11881381273269653, -0.07130708545446396, -0.011882319115102291, -0.010110657662153244, 0.06976586580276489, -0.2005317360162735, -0.7902733683586121, 0.05773824453353882, 0.07732635736465454, -0.20199741423130035, 0.3856080174446106, -0.19373412430286407, 0.028003377839922905, -0.07156869769096375, 0.021839788183569908, 0.18358123302459717], [0.009642917662858963, -0.13480044901371002, 0.2434278428554535, 0.28213658928871155, 0.13051171600818634, -0.1446865200996399, -0.2003527134656906, 0.0661567747592926, -0.19923967123031616, 0.06380568444728851, -0.23562820255756378, 0.18467725813388824, -0.10898629575967789, -0.1865037977695465, 0.20072177052497864, 0.08144039660692215, -0.19303658604621887, -0.12185091525316238, 0.18586967885494232, -0.08595457673072815, -0.041204437613487244, 0.08320143073797226, 0.17190268635749817], [0.16515125334262848, -0.04725371673703194, 0.05699646845459938, 0.08065853267908096, 0.01937706023454666, -0.08383496850728989, -0.044661298394203186, -0.07744517922401428, -1.0881956815719604, -0.18601496517658234, -0.04810740053653717, 0.1466008573770523, -0.0005103322910144925, -0.12289924174547195, -0.007003706879913807, 0.11853994429111481, 0.14663097262382507, -0.047972172498703, 0.027161626145243645, -0.33834901452064514, 0.16751864552497864, -0.015335014089941978, -0.1912301927804947], [0.06594086438417435, 0.03457939997315407, -0.06661899387836456, 0.040770143270492554, -0.037563588470220566, 0.04776366055011749, -0.14079110324382782, 0.0904630646109581, -0.08513034880161285, -0.1846587359905243, -0.058588042855262756, 0.012193040922284126, 0.2661104202270508, 0.05786975100636482, 0.1495475023984909, 0.14389808475971222, 0.05881474167108536, 0.2040557563304901, -0.058945976197719574, 0.18311907351016998, 0.04977864772081375, -0.052066538482904434, 0.05271241068840027], [0.06133320927619934, 0.10125306248664856, 0.04803607985377312, -0.09763269126415253, 0.12605459988117218, 0.15840792655944824, -0.0038578403182327747, 0.02545817196369171, -0.11640436947345734, -0.1333337128162384, -0.12458731234073639, 0.5112273693084717, 0.13900524377822876, 0.04320298507809639, 0.04529442638158798, 0.05915042385458946, -0.1544843167066574, 0.17518547177314758, 0.0926736369729042, 0.05629177391529083, 0.2007012516260147, 0.036296676844358444, -0.20342686772346497], [-0.18907193839550018, 0.04505537450313568, -0.16969864070415497, -0.02495030127465725, 0.09916120022535324, -0.06989257037639618, -0.1559288501739502, -0.208266019821167, 0.03026459738612175, -0.15761955082416534, -0.24092748761177063, -0.42492708563804626, 0.1032685786485672, 0.17349641025066376, 0.15110959112644196, -0.05933518707752228, -0.18503354489803314, 0.0641171857714653, -0.05532560124993324, 0.04618259146809578, 0.1272973269224167, -0.04136821627616882, 0.11220331490039825], [-0.05979958176612854, 0.1524086594581604, -0.05490162596106529, 0.002944436389952898, -0.17373816668987274, 0.16570083796977997, -0.004484788980334997, -0.12737874686717987, -0.29186102747917175, -0.4105822741985321, -0.05001339688897133, -0.038843028247356415, -0.04523544758558273, -0.041700564324855804, -0.08157869428396225, 0.14984367787837982, -0.18664009869098663, 0.20569679141044617, -0.09680050611495972, -0.22559097409248352, 0.051562681794166565, 0.15210114419460297, -0.1264553666114807], [0.15858621895313263, -0.11510700732469559, -0.14429861307144165, 0.12850312888622284, 0.12035427987575531, -0.14627398550510406, -0.02065410651266575, 0.08990746736526489, 0.02421773597598076, -0.14755910634994507, -0.059598539024591446, -0.1012830138206482, 0.2495158314704895, 0.06234624236822128, -0.018922490999102592, 0.16245464980602264, -0.01846328191459179, 0.129736989736557, 0.0965934544801712, 0.018992409110069275, 0.19878743588924408, -0.2449774295091629, 0.006020807661116123], [-0.1511959284543991, -0.0660092905163765, -0.11512727290391922, -0.13459999859333038, -0.1333760917186737, 0.0058988179080188274, -0.1947961300611496, 0.12246251106262207, 0.029382377862930298, -0.06401728093624115, -0.10177236795425415, -0.8731620907783508, 0.196624293923378, -0.04725241661071777, -0.11808767169713974, -0.1788836121559143, -0.0017376936739310622, -0.16647446155548096, -0.045006271451711655, -0.030821675434708595, 0.009957509115338326, -0.10687503218650818, -0.06559243053197861], [-0.03716906160116196, -0.04970386624336243, 0.13553455471992493, -0.11731670796871185, 0.17670290172100067, -0.01672699674963951, 0.0841926857829094, 0.052413348108530045, -0.3265291452407837, 0.41590645909309387, 0.006428705994039774, -0.1050858125090599, 0.1442032754421234, 0.1424953192472458, 0.12129878997802734, 0.05988438054919243, 0.18058528006076813, -0.22292643785476685, -0.16522809863090515, -0.12734068930149078, 0.09556032717227936, -0.054640788584947586, -0.14208093285560608], [-0.012038927525281906, -0.10237690061330795, 0.007686781231313944, -0.11331943422555923, -0.13592244684696198, -0.05590642988681793, 0.0754036083817482, 0.15268616378307343, 0.009757643565535545, -0.18935057520866394, -0.15639223158359528, 0.02024335414171219, -0.185743510723114, 0.002484201453626156, 0.01777663826942444, 0.08320996910333633, -0.11497107893228531, 0.318892240524292, -0.10399234294891357, 0.08663132786750793, 0.21314701437950134, -0.13100284337997437, -0.1622890681028366], [0.027294036000967026, -0.027923572808504105, 0.11962562054395676, -0.09452950209379196, -0.0057589891366660595, -0.05981964245438576, -0.0835011824965477, 0.01818757690489292, -0.21469727158546448, -0.030988246202468872, 0.07826195657253265, -0.5655655264854431, 0.4153447449207306, -0.03840501978993416, -0.07934364676475525, 0.06316360831260681, -0.008397187106311321, 0.06971907615661621, -0.03091096319258213, 0.025607869029045105, -0.06752318143844604, -0.026614641770720482, 0.042563196271657944], [-0.1385381668806076, -0.11842657625675201, -0.05501691251993179, 0.1185101568698883, 0.2440188080072403, 0.05617746338248253, 0.061349354684352875, 0.15545588731765747, -0.04275594279170036, 0.059094466269016266, 0.07312019169330597, 0.2250777930021286, -0.10600791126489639, -0.20051883161067963, 0.028584742918610573, 0.23689980804920197, -0.1636984646320343, -0.03164450451731682, -0.15460260212421417, -0.29197317361831665, 0.032364096492528915, -0.0687880665063858, -0.15286341309547424], [-0.09893042594194412, -0.055311474949121475, 0.10538346320390701, 0.05442838370800018, -0.075775645673275, 0.13076405227184296, 0.1708577424287796, -0.222874253988266, 0.15495768189430237, -0.09970960766077042, 0.08688133209943771, 0.0876375362277031, 0.12313080579042435, -0.10208158940076828, -0.11136986315250397, 0.11189486086368561, -0.05305018648505211, -0.06559324264526367, 0.11214397847652435, 0.1843099594116211, -0.17386028170585632, 0.18499772250652313, -0.09967170655727386], [-0.2512851059436798, 0.11548610776662827, -0.1651647388935089, 0.1150725781917572, -0.06870564073324203, 0.043085042387247086, 0.013156943023204803, 0.1496513932943344, -0.20733647048473358, -0.26231688261032104, 0.09842778742313385, -0.22566117346286774, -0.05525238811969757, -0.015227913856506348, 0.060321975499391556, 0.07383895665407181, 0.008240032009780407, 0.11254934221506119, -0.027456382289528847, -0.06379519402980804, -0.08410252630710602, -0.010225538164377213, 0.0698864534497261], [0.01395681407302618, 0.08412730693817139, -0.02053055353462696, -0.03868453949689865, -0.013157451525330544, 0.06675034761428833, -0.020556027069687843, -0.07670846581459045, -1.1036465167999268, -0.3996095359325409, 0.13824446499347687, 0.14765499532222748, -0.08769774436950684, 0.13296951353549957, -0.07038653641939163, -0.010080981999635696, -0.061943572014570236, -0.00113051722291857, -0.032180484384298325, -0.03864381089806557, -0.14114394783973694, -0.03770384192466736, 0.0700167790055275], [-0.044328317046165466, 0.12606635689735413, -0.02692064829170704, 0.06896355748176575, 0.14987558126449585, -0.06453749537467957, -0.05140072852373123, -0.2069689780473709, -0.1252736747264862, 0.049465328454971313, 0.0773816928267479, 0.15901994705200195, -0.20180915296077728, 0.12774382531642914, 0.2732483148574829, -0.033389780670404434, 0.014193995855748653, -0.0035336841829121113, 0.11830398440361023, 0.051016874611377716, -0.17230944335460663, -0.05876869335770607, 0.13860945403575897], [0.13725219666957855, 0.043770965188741684, 0.1773124784231186, 0.10010161995887756, -0.04952722415328026, 0.19191621243953705, -0.05058165639638901, 0.1782240867614746, -0.129857137799263, 0.36483871936798096, 0.013210037723183632, 0.4363197386264801, -0.32089918851852417, 0.06781698763370514, 0.03324933350086212, 0.019944868981838226, 0.1267373114824295, 0.07736962288618088, 0.01951393112540245, -0.4279094934463501, 0.0012522311881184578, 0.14860188961029053, 0.0321689248085022], [-0.17090676724910736, -0.0968078225851059, -0.12883423268795013, 0.1084710955619812, -0.012772709131240845, 0.19351837038993835, -0.16339217126369476, -0.17411023378372192, -0.05436117202043533, 0.13449597358703613, 0.14982539415359497, -0.015389672480523586, 0.044777095317840576, -0.0711737871170044, -0.09066413342952728, 0.184698686003685, -0.10348299145698547, -0.18942178785800934, 0.004113703966140747, 0.16832926869392395, -0.20210397243499756, -0.17871800065040588, -0.03374166414141655], [-0.11626537889242172, 0.1811869591474533, 0.014647398144006729, 0.10080806910991669, -0.10233686119318008, 0.14539338648319244, 0.07512452453374863, -0.008402411825954914, 0.18563392758369446, 0.12215307354927063, -0.09701886028051376, 0.1401519924402237, 0.18930450081825256, -0.12705108523368835, 0.0557364746928215, 0.11691294610500336, -0.18447059392929077, -0.10453671962022781, -0.13705658912658691, -0.07012180984020233, -0.2027527093887329, -0.1544893980026245, 0.09338493645191193], [0.2587827444076538, 0.09192205965518951, -0.0342247374355793, -0.19260439276695251, -0.12434778362512589, -0.08932173997163773, 0.1569562703371048, 0.02943004108965397, 0.09540180116891861, -0.03507658839225769, -0.12404035776853561, -0.17869548499584198, -0.17757871747016907, -0.12305306643247604, -0.09682060033082962, 0.02791588008403778, 0.17368222773075104, 0.0842699334025383, 0.2629365026950836, 0.0069045936688780785, 0.19930756092071533, 0.09158097207546234, -0.11270918697118759], [0.10312703996896744, -0.17052264511585236, -0.18326769769191742, 0.09832750260829926, 0.0239860936999321, 0.17902597784996033, -0.13662050664424896, -0.08350127935409546, 0.0999363362789154, -0.083404541015625, -0.19161902368068695, -0.05169077217578888, 0.07743410021066666, -0.002285165246576071, 0.0003466785419732332, 0.020759226754307747, -0.11051145941019058, -0.11045066267251968, 0.19498389959335327, 0.005916751455515623, -0.13036487996578217, 0.009916567243635654, -0.03805313631892204], [-0.030793452635407448, -0.07604540884494781, 0.13734117150306702, -0.17179684340953827, -0.08172313868999481, -0.009774390608072281, 0.005952268373221159, -0.15693576633930206, 0.2915734350681305, 0.2318817526102066, 0.1654941439628601, -0.1621324121952057, -0.03270406648516655, -0.029844382777810097, 0.021928589791059494, -0.187949538230896, 0.0677347257733345, -0.1552511304616928, 0.061481405049562454, 0.0565493106842041, 0.02793673612177372, -0.07521335035562515, -0.07253200560808182], [-0.11619096994400024, 0.13067731261253357, -0.06917894631624222, 0.11849714815616608, -0.1621597856283188, 0.07598322629928589, -0.14598219096660614, 0.15139800310134888, 0.2390001118183136, -0.08251982927322388, -0.030706532299518585, 0.22571638226509094, 0.22856663167476654, 0.1466248780488968, 0.009058104828000069, 0.06757870316505432, 0.020620061084628105, -0.17823107540607452, -0.23331914842128754, -0.05265381932258606, -0.17028361558914185, -0.15852749347686768, -0.14063966274261475], [-0.06858333945274353, -0.13613100349903107, -0.17273077368736267, 0.10824420303106308, 0.061124347150325775, -0.09854783862829208, -0.16019068658351898, 0.10958248376846313, 0.7614961266517639, 0.26001888513565063, 0.00933878030627966, -0.04593797028064728, 0.008556433953344822, 0.020038271322846413, 0.10866563767194748, -0.01663728430867195, 0.11800771951675415, 0.20750953257083893, 0.022879546508193016, 0.19552548229694366, 0.04790302738547325, 0.039037518203258514, -0.18279728293418884], [-0.0878005251288414, 0.17521549761295319, 0.06720931082963943, -0.18267104029655457, 0.13591845333576202, -0.1729455292224884, 0.0003280990931671113, 0.09706691652536392, -0.44485700130462646, 0.534234881401062, 0.14055807888507843, -0.15748253464698792, 0.03192770481109619, -0.06736679375171661, -0.06811929494142532, -0.03510154411196709, 0.15318454802036285, -0.07564671337604523, 0.12606576085090637, -0.021860811859369278, 0.10208453983068466, 0.05599937215447426, -0.1989230215549469], [-0.02924153581261635, -0.17574475705623627, 0.10744580626487732, 0.028553161770105362, -0.02276005409657955, 0.05132213234901428, -0.05272166430950165, -0.014178566634654999, -0.05401130020618439, -0.11458538472652435, 0.11899679154157639, 0.1164047122001648, 0.3170163929462433, 0.17077073454856873, -0.011483423411846161, -0.156430184841156, 0.0497899055480957, 0.13631778955459595, 0.015123660676181316, 0.0010658028768375516, -0.07332924753427505, -0.015405857004225254, 0.08448358625173569], [-0.16042540967464447, 0.16973093152046204, 0.209527850151062, 0.0428868904709816, 0.20451362431049347, 0.04639095813035965, -0.0014183538733050227, 0.20000965893268585, 0.5198611617088318, -0.12317727506160736, -0.15269654989242554, -0.14921335875988007, 0.20054908096790314, -0.14146345853805542, 0.013420713134109974, -0.06474776566028595, 0.2055787593126297, 0.07648986577987671, -0.021917931735515594, -0.028421610593795776, -0.06813356280326843, 0.1429338902235031, -0.22808575630187988], [-0.17155274748802185, 0.19524028897285461, -0.045748937875032425, -0.07600637525320053, 0.08180179446935654, -0.020972581580281258, 0.21751999855041504, 0.08934679627418518, 0.1886610984802246, 0.27326875925064087, 0.22510987520217896, 0.20703370869159698, 0.0772828459739685, 0.018732313066720963, 0.17695637047290802, 0.3607557713985443, -0.013248700648546219, 0.07777572423219681, 0.0060698240995407104, 0.15909714996814728, 0.004588758107274771, -0.11479774862527847, 0.08576346933841705], [0.11180051416158676, -0.1652466058731079, -0.0991692915558815, 0.17566072940826416, -0.05643549934029579, 0.10928787291049957, 0.15551607310771942, -0.054927434772253036, 0.028324440121650696, -0.2653104364871979, 0.1002114862203598, 0.10451553761959076, -0.08499139547348022, 0.05901414528489113, -0.023774871602654457, 0.021417077630758286, 0.0881841704249382, -0.2939845323562622, -0.15785014629364014, 0.1324138641357422, -0.11561428010463715, -0.18431425094604492, 0.1805109977722168], [0.12470114231109619, -0.13378126919269562, -0.06322509050369263, -0.055741485208272934, -0.2342446893453598, -0.08668407052755356, -0.005053210072219372, -0.05857788026332855, -0.2065977305173874, 0.31160467863082886, 0.14042150974273682, 0.14145971834659576, 0.1755857914686203, -0.1326998472213745, -0.12492705136537552, 0.06838836520910263, -0.13199731707572937, 0.032263174653053284, 0.04374001920223236, -0.16252528131008148, 0.07334046810865402, -0.010970544070005417, 0.12848885357379913], [0.10002317279577255, 0.02990332990884781, -0.11245912313461304, 0.021023113280534744, 0.2478284239768982, -0.15378126502037048, 0.0806540846824646, 0.0220168586820364, 0.2262546867132187, 0.04870656132698059, 0.07699104398488998, 0.3286639451980591, 0.2683742642402649, 0.046123385429382324, -0.08115245401859283, 0.2134312242269516, -0.08982157707214355, 0.15967169404029846, -0.12668679654598236, 0.1462779939174652, 0.057309340685606, 0.04241935908794403, -0.2180681824684143], [-0.22075921297073364, -0.08442100137472153, 0.06096940487623215, -0.005587378516793251, -0.07265176624059677, -0.13974352180957794, 0.0786844789981842, 0.22801882028579712, 0.0038153398782014847, -0.04843079298734665, -0.02237836644053459, -0.21815858781337738, -0.14319448173046112, -0.16447892785072327, 0.03937581181526184, 0.042979445308446884, 0.023386774584650993, 0.42811137437820435, -0.0832865908741951, -0.0463615283370018, -0.049126941710710526, 0.019747423008084297, 0.1933974027633667], [0.23183543980121613, -0.00746008800342679, 0.09853649884462357, -0.07146436721086502, 0.02083757519721985, -0.216655433177948, -0.0527435764670372, -0.10544297099113464, -0.048541780561208725, 0.10273604840040207, -0.13227000832557678, 0.2247438281774521, 0.32544276118278503, -0.04410725459456444, -0.020789314061403275, 0.07210133224725723, 0.019922303035855293, 0.37758421897888184, 0.15419839322566986, 0.09422406554222107, 0.1397814005613327, 0.07248639315366745, -0.21878564357757568], [-0.005808591842651367, -0.06439504772424698, 0.16918312013149261, -0.0462726391851902, 0.009193089790642262, -0.046050023287534714, 0.1009548082947731, 0.17670714855194092, 0.1671418398618698, -0.013381454162299633, 0.1844908893108368, 0.046133022755384445, -0.002167265862226486, 0.12218553572893143, -0.11555523425340652, 0.29272639751434326, 0.2540718913078308, -0.08093573898077011, 0.18423445522785187, 0.11523313820362091, 0.10705173015594482, 0.12243401259183884, 0.13123278319835663], [-0.002249679993838072, 0.14262542128562927, 0.18714335560798645, 0.035542894154787064, -0.062227070331573486, -0.14555467665195465, -0.04515031352639198, 0.02739199623465538, -0.01851543039083481, -0.05486656725406647, -0.009251752868294716, 0.1908428817987442, -0.026105621829628944, -0.07614027708768845, 0.09854985028505325, 0.04389476776123047, 0.11703646928071976, 0.0861414223909378, 0.10084626823663712, 0.030734539031982422, 0.0026097754016518593, 0.002967219101265073, 0.02385639399290085], [0.1917128711938858, 0.08210461586713791, 0.051706332713365555, -0.09281840175390244, -0.2973104417324066, -0.1121484637260437, -0.04622757062315941, -0.05010300502181053, 0.2447517067193985, -0.22611774504184723, 0.17212873697280884, 0.046079833060503006, -0.13229821622371674, 0.11864709854125977, 0.05670202150940895, 0.06235371530056, -0.18701612949371338, 0.251705527305603, 0.07013828307390213, 0.09803194552659988, -0.07581375539302826, -0.14160709083080292, -0.13443626463413239], [-0.11916210502386093, -0.04874323308467865, -0.1676744520664215, -0.2166600376367569, -0.24426718056201935, -0.1118878573179245, -0.13698074221611023, 0.16580864787101746, 0.035155754536390305, -0.1821448653936386, -0.01751788519322872, -0.10009266436100006, -0.17622867226600647, -0.19631533324718475, -0.017314864322543144, 0.1518068015575409, 0.12224174290895462, -0.3571583032608032, -0.0018663386581465602, -0.08127990365028381, -0.13786101341247559, -0.06497284024953842, 0.10192882269620895], [-0.0035687037743628025, 0.0478302463889122, 0.14059683680534363, -0.08658288419246674, -0.013165442273020744, -0.08834975957870483, 0.0054344129748642445, -0.1603769212961197, -0.024076074361801147, -0.05144384875893593, 0.07882558554410934, -0.5643297433853149, -0.31214746832847595, 0.051694221794605255, 0.00011274260759819299, -0.0685872808098793, 0.15869347751140594, 0.018670711666345596, -0.03265449404716492, 0.126499205827713, -0.05601738020777702, 0.008504543453454971, -0.1591854840517044], [-0.09139200299978256, 0.03648785874247551, 0.02823728881776333, 0.0023449016734957695, 0.13675056397914886, -0.0134391775354743, 0.0006696600466966629, 0.133375883102417, -0.6748472452163696, -0.2837580442428589, -0.010976448655128479, -0.10165630280971527, -0.12203890830278397, -0.1456327587366104, 0.036240361630916595, 0.08342023193836212, -0.255545437335968, 0.05435062199831009, 0.05227417126297951, 0.0995563417673111, 0.1012432649731636, -0.010499988682568073, 0.2209969013929367], [0.11757157742977142, 0.12775489687919617, -0.03522350639104843, 0.014869263395667076, 0.009083762764930725, -0.21078917384147644, 0.12604326009750366, -0.08011380583047867, 0.0018828590400516987, -0.011390780098736286, -0.1935199499130249, -0.17381305992603302, 0.33081817626953125, -0.15283605456352234, 0.03945858031511307, -0.1518649309873581, -0.038894034922122955, -0.10978899151086807, 0.09402458369731903, -0.08193881064653397, 0.10303612798452377, 0.12021670490503311, -0.1276693493127823], [0.03252994641661644, -0.06131570413708687, -0.16694755852222443, -0.07846678048372269, -0.08748476207256317, 0.22654661536216736, 0.19241014122962952, 0.07869739085435867, -0.20886021852493286, -0.1574988067150116, -0.022432586178183556, 0.12027620524168015, -0.2384815663099289, -0.05681850016117096, 0.2335212081670761, -0.055186543613672256, -0.16124840080738068, -0.18792711198329926, 0.15959373116493225, 0.04781476780772209, 0.13741780817508698, 0.22847145795822144, 0.05672645568847656], [-0.032070741057395935, 0.17170724272727966, 0.16279923915863037, -0.18066959083080292, -0.003152865683659911, 0.13394436240196228, -0.11686818301677704, 0.13847294449806213, 0.030406489968299866, 0.04749041050672531, 0.046471111476421356, 0.4623124599456787, 0.40345966815948486, 0.12687209248542786, 0.009251786395907402, -0.16517934203147888, -0.023658933117985725, 0.08919856697320938, 0.07133205235004425, 0.0359974168241024, 0.17155948281288147, -0.19420985877513885, -0.15615057945251465], [0.10650646686553955, 0.0607035756111145, 0.025078972801566124, -0.13591673970222473, -0.08753814548254013, 0.11305730789899826, -0.03916016221046448, 0.06986880302429199, -0.10646282136440277, 0.016911834478378296, -0.04105188325047493, -0.08115042746067047, 0.031997017562389374, -0.16205823421478271, 0.03523620218038559, -0.0910184383392334, 0.26646745204925537, 0.2812305986881256, -0.12165598571300507, -0.07427367568016052, 0.024857893586158752, -0.008201743476092815, -0.15652118623256683], [-0.09279856085777283, 0.1144503727555275, -0.18103516101837158, 0.07358718663454056, -0.018710670992732048, 0.16481272876262665, 0.13567933440208435, 0.05062437057495117, -0.0710119754076004, 0.034491945058107376, -0.18494798243045807, -0.41586416959762573, 0.13529689610004425, 0.1947033405303955, 0.1912321001291275, -0.11645559221506119, -0.16544528305530548, 0.030623629689216614, -0.155605748295784, -0.0730815976858139, 0.11546742171049118, -0.1275838315486908, -0.0993744507431984], [-0.08859682083129883, -0.15972501039505005, -0.1041167750954628, 0.011596262454986572, -0.07134765386581421, 0.029124896973371506, 0.09018507599830627, -0.0875978097319603, 0.16692131757736206, -0.1620052456855774, 0.1445484757423401, 0.19407300651073456, -0.039886534214019775, 0.14759822189807892, -0.07208593189716339, -0.06464335322380066, 0.059177108108997345, 0.22551897168159485, -0.0053091393783688545, -0.02188725396990776, 0.2560253441333771, -0.05591500177979469, 0.03382040932774544], [-0.1416310966014862, 0.020221935585141182, 0.22509101033210754, -0.16607610881328583, -0.16986459493637085, 0.11700419336557388, -0.15561124682426453, -0.1418265700340271, -0.044066380709409714, -0.004412173293530941, 0.09208967536687851, -0.04908744618296623, 0.07444721460342407, 0.2283107489347458, 0.009526580572128296, 0.11715719848871231, 0.2138472944498062, 0.07100247591733932, 0.0930640697479248, -0.17256911098957062, -0.04433096945285797, 0.14050117135047913, -0.2143310159444809], [-0.0061775753274559975, -0.07547760009765625, 0.13099059462547302, -0.1390419751405716, -0.2003299444913864, -0.15520232915878296, -0.0930650383234024, -0.17684434354305267, -0.35129308700561523, -0.0643356442451477, -0.059280913323163986, -0.14475606381893158, -0.09341295063495636, 0.26483187079429626, 0.13393886387348175, 0.07161644846200943, 0.025479881092905998, -0.2727546989917755, -0.23447906970977783, 0.0037246618885546923, -0.002738248324021697, 0.2262572944164276, 0.12835820019245148], [0.21253038942813873, 0.09511666744947433, 0.2039029896259308, 0.004472995642572641, -0.04206119105219841, -0.1328115463256836, 0.1506328582763672, 0.015026180073618889, 0.5252977013587952, -0.07710000872612, 0.15342387557029724, 0.3717382848262787, 0.21951673924922943, -0.1331474930047989, 0.036006417125463486, -0.05027587711811066, 0.13523009419441223, 0.18011446297168732, -0.027682729065418243, -0.005520033650100231, -0.13125137984752655, -0.06380333751440048, 0.010684548877179623], [-0.01830022782087326, -0.09443057328462601, 0.02592734433710575, -0.08996130526065826, -0.008935445919632912, -0.10999590158462524, -0.021898465231060982, -0.2095460742712021, -0.19073066115379333, -0.001499386504292488, 0.07385466992855072, -0.6776232123374939, 0.14696359634399414, 0.07500296831130981, 0.07590900361537933, -0.1743236929178238, 0.2290085107088089, -0.19691449403762817, 0.06932203471660614, -0.032735638320446014, -0.02296045608818531, 0.07078541070222855, 0.11260738223791122], [-0.026683127507567406, -0.1269698292016983, 0.14831244945526123, 0.049513235688209534, 0.20191305875778198, -0.21347184479236603, 0.07725776731967926, -0.11879630386829376, -0.19663970172405243, 0.07935836911201477, 0.17438219487667084, -0.03526315093040466, -0.1736852526664734, -0.10375332832336426, -0.03607950359582901, 0.35898810625076294, 0.11190370470285416, 0.2307593673467636, 0.045048508793115616, 0.00018770183669403195, 0.09183134883642197, -0.09240863472223282, -0.05257149785757065], [0.001139281434006989, 0.15192347764968872, -0.015818359330296516, 0.04093262553215027, -0.056164029985666275, -0.046931423246860504, 0.1113157868385315, 0.1499001383781433, 0.031998757272958755, -0.1117728129029274, -0.17787715792655945, 0.350649893283844, 0.06049934774637222, 0.19914501905441284, 0.046807847917079926, -0.09590329229831696, -0.017740119248628616, -0.18151526153087616, 0.17943325638771057, -0.18263603746891022, -0.09798333793878555, -0.07006938010454178, 0.14244620501995087], [0.17059265077114105, 0.06518440693616867, 0.14449207484722137, -0.03538507595658302, -0.2709590792655945, 0.15895134210586548, 0.04041561111807823, -0.13937371969223022, 0.2277814894914627, -0.08593077212572098, -0.05719248577952385, 0.11082776635885239, -0.18493828177452087, -0.7638052105903625, 0.04473702237010002, -0.012088987044990063, 0.032819509506225586, -0.1827855408191681, -0.09278664737939835, 0.0718175619840622, 0.16912934184074402, -0.15588095784187317, 0.08076059818267822], [-0.10001051425933838, -0.09780948609113693, 0.0196209866553545, 0.04812430962920189, 0.09119957685470581, -0.10960222780704498, 0.22397969663143158, -0.03694858029484749, -0.23300249874591827, -0.1196800246834755, 0.09925748407840729, -0.3203117549419403, -0.031128916889429092, -0.15117691457271576, 0.08427512645721436, -0.11719270050525665, 0.01771257072687149, 0.12211310118436813, 0.09506679326295853, -0.197478786110878, -0.22095099091529846, 0.1454656422138214, -0.21989233791828156], [0.033204495906829834, 0.07683950662612915, -0.22365184128284454, 0.04933098703622818, 0.10501714795827866, 0.14272351562976837, -0.11808998137712479, -0.011746817268431187, -0.05867379531264305, -0.06735450774431229, -0.02265225164592266, 0.19979272782802582, -0.26526933908462524, -0.8687127828598022, -0.07389435917139053, -0.07773309201002121, 0.04546940326690674, 0.056186504662036896, -0.017793897539377213, 0.0633634626865387, -0.11808913946151733, 0.04954329878091812, 0.08616145700216293], [0.06870661675930023, 0.12193302065134048, 0.0648057758808136, -0.2040894329547882, 0.1783878058195114, -0.019060451537370682, -0.03134091943502426, -0.2071765512228012, -0.35399991273880005, 0.0273379348218441, -0.057153068482875824, -0.07499124854803085, -0.08046314120292664, 0.17172479629516602, -0.04945835843682289, -0.03780456259846687, -0.023012861609458923, -0.20459426939487457, 0.05627364292740822, -0.03424942120909691, 0.05338368937373161, 0.1253802627325058, -0.14532756805419922], [-0.20224274694919586, 0.24494756758213043, -0.25890058279037476, 0.1267055869102478, 0.15005101263523102, 0.18584339320659637, 0.026257243007421494, -0.03668394684791565, 0.1705140769481659, -0.0297172162681818, -0.2092941850423813, 0.00754543486982584, -0.11861148476600647, 0.05101561173796654, 0.2302747666835785, 0.07710826396942139, -0.2387411892414093, 0.15812797844409943, -0.13643501698970795, 0.06628457456827164, -0.0613611564040184, 0.05165928974747658, -0.08631355315446854], [0.013528011739253998, -0.02195695973932743, 0.09184736758470535, 0.19553539156913757, 0.1326284557580948, -0.03691703826189041, 0.07658500224351883, 0.06725896894931793, -0.03974349424242973, -0.1957201510667801, -0.10086929053068161, 0.09106218814849854, -0.14406321942806244, -0.06443901360034943, 0.12461994588375092, 0.07281506061553955, 0.10463043302297592, 0.03421058878302574, 0.19174039363861084, -0.21105413138866425, 0.17174772918224335, -0.08421973139047623, 0.128959059715271], [0.1724415123462677, -0.14835728704929352, -0.14180222153663635, -0.24501661956310272, -0.1868024319410324, -0.07547381520271301, 0.08058339357376099, 0.09130936861038208, 0.00558457663282752, 0.018685316666960716, -0.18055082857608795, 0.2345629185438156, -0.10735566914081573, 0.15758737921714783, -0.011854746378958225, -0.10293634235858917, 0.13350607454776764, -0.27795886993408203, 0.08871415257453918, 0.10838022083044052, 0.018291056156158447, 0.10258973389863968, -0.12534087896347046], [0.05510243400931358, 0.08634103834629059, -0.07589961588382721, -0.18538133800029755, -0.029829252511262894, 0.0877164974808693, -0.032256536185741425, -0.16754639148712158, -0.09374765306711197, 0.1617089956998825, 0.17738090455532074, -0.5534673929214478, 0.2721967399120331, 0.020444972440600395, -0.09345869719982147, 0.1230289489030838, 0.07954107969999313, -0.01712384633719921, -0.0003353640786372125, 0.026052461937069893, 0.20389753580093384, 0.09049949049949646, -0.1838095635175705], [0.1735401153564453, 0.007580065634101629, -0.1303607076406479, -0.023959165439009666, -0.06755886971950531, 0.1613062173128128, -0.12650378048419952, -0.017381371930241585, -0.2852019667625427, 0.09293873608112335, -0.13926886022090912, 0.12399595230817795, 0.010707039386034012, 0.0049592070281505585, 0.075356125831604, -0.04180362820625305, -0.16448542475700378, 0.3585117757320404, -0.18264879286289215, 0.13487541675567627, 0.04756256192922592, -0.1012837290763855, -0.11058656126260757], [0.10261808335781097, 0.009633532725274563, -0.08532286435365677, -0.007731220684945583, -0.14033576846122742, -0.20943644642829895, 0.03184666857123375, -0.15819987654685974, 0.1807081550359726, 0.16395245492458344, 0.14781804382801056, -0.031092436984181404, 0.2236631214618683, 0.13499529659748077, -0.004513338208198547, -0.07285883277654648, 0.026071952655911446, -0.07982955873012543, -0.15183907747268677, -0.0019545387476682663, -0.07372786849737167, -0.07626707851886749, -0.1591358333826065], [-0.1374518722295761, -0.006865383591502905, 0.0026275841519236565, 0.06326226890087128, 0.09094216674566269, 0.07973781228065491, 0.14785973727703094, 0.03864304721355438, 0.11749981343746185, -0.03841770440340042, 0.20652860403060913, 0.2545738220214844, 0.4824654757976532, -0.15531328320503235, 0.015713835135102272, -0.0997956246137619, 0.2769700586795807, 0.2576146423816681, -0.191299170255661, 0.049104854464530945, -0.1394728720188141, 0.03076467663049698, -0.2494076043367386], [-0.21417182683944702, 0.02118249051272869, 0.17905302345752716, 0.12118996679782867, 0.03381303697824478, -0.14529387652873993, 0.13199196755886078, -0.10781019926071167, 0.10403876006603241, 0.09945692121982574, -0.13082188367843628, -0.046069562435150146, -0.046577420085668564, 0.07190602272748947, -0.054786816239356995, -0.030390385538339615, -0.056049272418022156, 0.012152534909546375, 0.24439865350723267, -0.1734922081232071, -0.18938107788562775, 0.3206269443035126, -0.18629512190818787], [0.03319654241204262, -0.0038588715251535177, -0.17799901962280273, -0.21014176309108734, -0.04178008809685707, -0.05933670699596405, -0.10431089997291565, -0.17123444378376007, -0.33397191762924194, 0.1755911409854889, 0.02551736682653427, 0.3734894394874573, -0.267806738615036, 0.15318907797336578, -0.06966707855463028, -0.08297665417194366, -0.03927619010210037, 0.1298225373029709, 0.04403996095061302, -0.16122901439666748, -0.05192415043711662, 0.18459126353263855, 0.09394389390945435], [0.09460852295160294, 0.12240400910377502, -0.13623261451721191, -0.029289361089468002, 0.03270767256617546, -0.16721633076667786, -0.003546187188476324, -0.006546088494360447, 0.057216670364141464, -0.08505138009786606, 0.03421035781502724, 0.3957712650299072, 0.1943538933992386, -0.024295184761285782, 0.05359252542257309, 0.0835215225815773, -0.10719539225101471, -0.026752671226859093, -0.021420419216156006, -0.013830742798745632, -0.1619730442762375, 0.03218657150864601, 0.12853838503360748], [-0.1390080600976944, 0.12486668676137924, 0.02622820809483528, -0.08312712609767914, 0.06529677659273148, 0.16783592104911804, -0.058854106813669205, 0.0749199390411377, 0.23929578065872192, -0.10935699939727783, -0.09271954745054245, -0.29374343156814575, -0.1842525154352188, -0.2090791016817093, -0.16011664271354675, 0.033482711762189865, -0.19023525714874268, 0.04122355207800865, 0.01527163665741682, 0.13158857822418213, 0.13659481704235077, 0.027852686122059822, -0.015804147347807884], [-0.11633499711751938, 0.07150954008102417, 0.10068301856517792, -0.09570644050836563, 0.06793607026338577, -0.05097218230366707, -0.16225793957710266, -0.00414297403767705, 0.05771366134285927, 0.058284904807806015, -0.013861185871064663, -0.5519310832023621, -0.16458949446678162, 0.09606724232435226, -0.15724550187587738, -0.07874099165201187, 0.1342262625694275, 0.09920455515384674, 0.025602342560887337, 0.10860013216733932, 0.018828531727194786, -0.015665868297219276, 0.012178667820990086], [0.013345642015337944, -0.10055805742740631, -0.1933542788028717, -0.1270754486322403, 0.147583469748497, -0.13858960568904877, 0.00656619668006897, -0.07677260786294937, 0.03381592407822609, 0.26399776339530945, -0.04072771593928337, -0.45047545433044434, -0.17343981564044952, -0.28211313486099243, -0.019763676449656487, 0.00843418762087822, 0.015642322599887848, 0.22672788798809052, -0.011534045450389385, 0.166021466255188, -0.0025463560596108437, 0.21856756508350372, -0.09118488430976868], [0.18635199964046478, 0.06980220973491669, -0.14446786046028137, 0.030881203711032867, 0.07584315538406372, -0.09102434664964676, 0.0842059925198555, 0.0082161920145154, 0.10995934903621674, -0.13739021122455597, 0.1590542495250702, 0.05543576553463936, -0.19813722372055054, 0.07340288907289505, 0.1472126841545105, 0.2226669192314148, -0.19443397223949432, -0.22004550695419312, 0.10753551870584488, -0.014949426986277103, 0.13336266577243805, -0.02258829027414322, 0.08088599145412445], [-0.14838525652885437, 0.07017974555492401, -0.03809206187725067, -0.046669136732816696, -0.09889797121286392, 0.04388454183936119, -0.02751702070236206, -0.06096785143017769, 0.5628904104232788, -0.2930689752101898, -0.14589954912662506, -0.19823722541332245, -0.18170101940631866, 0.15463675558567047, -0.1369820535182953, 0.15158820152282715, 0.16310825943946838, 0.039327047765254974, 0.13614360988140106, -0.3061644732952118, 0.1311866194009781, 0.0218496210873127, 0.060460757464170456], [-0.08775795996189117, -0.058011699467897415, -0.06545459479093552, -0.06635131686925888, -0.045153506100177765, 0.12575961649417877, 0.14124707877635956, -0.12752141058444977, -0.05174186825752258, 0.11274833977222443, 0.1293068379163742, 0.10440929979085922, 0.0988323837518692, -0.13147461414337158, -0.0702187567949295, -0.14780877530574799, 0.22620287537574768, 0.16312241554260254, 0.37010249495506287, -0.21020184457302094, 0.1069917380809784, 0.20283502340316772, -0.004950302187353373], [-0.014891446568071842, -0.014309409074485302, -0.17315319180488586, -0.1058417484164238, 0.2505551874637604, 0.06599770486354828, 0.13759180903434753, 0.16670359671115875, 0.18024325370788574, 0.4411696791648865, 0.040203940123319626, 0.06297539174556732, 0.11238449066877365, 0.08910532295703888, 0.15068985521793365, 0.08038029819726944, -0.20098039507865906, -0.05557023361325264, 0.039597537368535995, -0.15212953090667725, 0.1909475177526474, 0.10914605855941772, -0.10556966811418533], [0.0654938668012619, 0.04672931134700775, 0.13647358119487762, -0.1647227257490158, -0.013675744645297527, -0.014910350553691387, -0.05841052159667015, -0.12823420763015747, -0.5515137314796448, -0.170429065823555, 0.15252189338207245, -0.48402202129364014, 0.13538992404937744, 0.13644659519195557, 0.10374266654253006, 0.08249882608652115, -0.08527525514364243, 0.16027343273162842, -0.07641948759555817, 0.015555599704384804, 0.05783301964402199, -0.026427704840898514, -0.14662034809589386], [-0.08627095818519592, -0.08989264816045761, -0.08467305451631546, 0.10830138623714447, -0.15144328773021698, -0.15522463619709015, -0.16684165596961975, 0.21807052195072174, 0.022439245134592056, 0.15908585488796234, 0.0024280345533043146, -0.19405221939086914, -0.10377781838178635, -0.3525052070617676, -0.06093335896730423, 0.13029658794403076, -0.1519618183374405, 0.27761682868003845, -0.04904332384467125, 0.041701797395944595, -0.0020029903389513493, -0.2489989995956421, -0.14986537396907806], [-0.09448911249637604, -0.026072368025779724, 0.11514425277709961, 0.11639036983251572, 0.02387630194425583, 0.06161010265350342, -0.06201883405447006, 0.17293035984039307, -0.39981088042259216, -0.23402829468250275, 0.16634052991867065, 0.0483095683157444, 0.1800098866224289, -0.15245062112808228, 0.09228181838989258, 0.14904190599918365, -0.06893771886825562, -0.016694452613592148, 0.03138803690671921, 0.03999834880232811, 0.13571231067180634, 0.11838825792074203, 0.18501047790050507], [-0.10410705953836441, -0.10270678251981735, 0.07493443042039871, 0.173095703125, -0.01589755341410637, 0.05415375158190727, 0.13065439462661743, -0.06903572380542755, 0.1748422235250473, -0.08097157627344131, -0.104497030377388, -0.11501868814229965, -0.007706126198172569, 0.0168925654143095, -0.12961681187152863, 0.13180899620056152, 0.03739587217569351, 0.2384844422340393, 0.09723874926567078, -0.03449922055006027, 0.09132957458496094, -0.1178964152932167, -0.008413895964622498], [0.04721720889210701, -0.028179751709103584, -0.22093500196933746, -0.12318792939186096, -0.017025135457515717, 0.09534380584955215, 0.0591953806579113, 0.22027172148227692, 0.006821977440267801, 0.28670334815979004, 0.09059708565473557, -0.09320342540740967, -0.05217960104346275, -0.2885317802429199, 0.062432702630758286, 0.0023592188954353333, 0.08383085578680038, -0.12728528678417206, -0.15285034477710724, -0.0724555030465126, 0.005070956889539957, 0.04194089397788048, -0.0880788266658783], [0.12455099821090698, -0.002675292082130909, 0.010682476684451103, 0.055908869951963425, -0.026008950546383858, -0.09965326637029648, 0.009430359117686749, 0.11333989351987839, -0.9479752779006958, 0.16577112674713135, -0.022343507036566734, -0.09644077718257904, 0.03831597790122032, -0.22694548964500427, -0.11063453555107117, -0.10654355585575104, 0.13278183341026306, -0.08350954949855804, -0.017999840900301933, 0.09973173588514328, 0.0041992757469415665, 0.0226871557533741, 0.04206511750817299], [-0.03845423087477684, 0.013823396526277065, -0.18241089582443237, 0.15699446201324463, 0.0017375637544319034, -0.11661205440759659, 0.1396091729402542, -0.06766033917665482, -0.38923728466033936, 0.0022550206631422043, -0.08862641453742981, 0.12612532079219818, 0.021090829744935036, -0.2652797996997833, 0.15318900346755981, 0.04100390151143074, -0.07082847505807877, 0.0879281759262085, -0.04209813103079796, 0.18260785937309265, -0.07343629002571106, 0.11243312060832977, -0.06873209029436111], [-0.10826665908098221, -0.002731833141297102, -0.08064672350883484, -0.22522267699241638, -0.07893728464841843, -0.07110439240932465, -0.029769929125905037, -0.1740717589855194, -0.4349011778831482, 0.09335995465517044, 0.06215096265077591, 0.048103172332048416, -0.15955400466918945, -0.07971034944057465, 0.00481442641466856, -0.023935629054903984, 0.014191405847668648, 0.09589437395334244, -0.07323287427425385, -0.07886794209480286, 0.047693882137537, 0.22195015847682953, -0.06211920082569122], [0.1059161126613617, 0.036719098687171936, 0.14797000586986542, 0.05576760694384575, 0.16630393266677856, 0.052731044590473175, 0.12044298648834229, -0.12103773653507233, -0.020234543830156326, 0.10317379981279373, -0.08315755426883698, 0.11176282167434692, 0.1397358626127243, 0.056853409856557846, 0.09761635214090347, 0.1500823199748993, -0.14354270696640015, -0.10803587734699249, 0.051209159195423126, -0.17265136539936066, -0.019004149362444878, 0.0996871367096901, 0.16419818997383118], [-0.0049048434011638165, -0.0935266762971878, -0.134656623005867, -0.12175565958023071, 0.2208801507949829, -0.11643458157777786, -0.0193568617105484, 0.0791553482413292, -0.08785432577133179, 0.10115662217140198, 0.065780870616436, 0.5762942433357239, -0.19595734775066376, -0.0184178464114666, -0.0879056453704834, -0.08526936918497086, 0.25586122274398804, -0.27058959007263184, -0.03681125119328499, -0.09830297529697418, -0.11725939065217972, -0.03876664862036705, -0.06139039248228073], [0.23405344784259796, 0.13299724459648132, 0.015669791027903557, 0.01920788735151291, -0.15548332035541534, 0.16841059923171997, -0.04415259510278702, 0.2211538702249527, 0.3958616554737091, 0.42886099219322205, 0.028918173164129257, 0.11576889455318451, 0.00908806174993515, -0.19330962002277374, 0.03979736194014549, -0.06092270463705063, 0.0426684208214283, -0.09047506004571915, 0.0607609748840332, 0.016156667843461037, 0.017148010432720184, 0.09276510775089264, -0.06453412771224976], [0.1613919883966446, 0.061983898282051086, 0.18080201745033264, 0.15540002286434174, 0.21924136579036713, 0.20873790979385376, 0.06643002480268478, 0.18923434615135193, 0.005107028875499964, 0.0264100581407547, 0.10408194363117218, -0.3263181447982788, -0.2705593407154083, 0.0809784084558487, -0.0917721837759018, -0.0586785264313221, 0.008616991341114044, -0.10450664162635803, 0.0486685186624527, 0.08335685729980469, -0.04247267544269562, -0.013493169099092484, 0.016740623861551285], [0.17430979013442993, -0.11362297832965851, -0.03244762495160103, 0.10924112051725388, -0.06753383576869965, -0.02002643793821335, 0.16776354610919952, -0.07714352011680603, -0.3092314600944519, 0.09659526497125626, 0.05818227678537369, 0.6296102404594421, 0.015844695270061493, 0.14341257512569427, -0.2402201145887375, -0.08481501787900925, 0.1939271092414856, 0.019225500524044037, -0.08586261421442032, 0.17427031695842743, 0.011981085874140263, -0.0467342734336853, -0.1816651076078415], [-0.18429934978485107, -0.09806929528713226, -0.01499018445611, -0.1490088701248169, 0.0802951455116272, -0.11858914792537689, -0.095406174659729, 0.08706069737672806, -0.11795363575220108, -0.0293485838919878, 0.09347779303789139, 0.8108295798301697, 0.39945006370544434, -0.10658985376358032, -0.008911341428756714, -0.13005143404006958, 0.05255237594246864, -0.11477610468864441, 0.05020737275481224, 0.05350099131464958, 0.11422492563724518, 0.07128876447677612, 0.08656273037195206], [-0.1555022895336151, 0.2100135236978531, -0.171639084815979, 0.03746579959988594, -0.13498131930828094, 0.03449117764830589, 0.03077559731900692, 0.2320655733346939, -0.011930597946047783, 0.036834344267845154, 0.17601637542247772, 0.1549394279718399, -0.021149123087525368, -0.13614259660243988, -0.03182227909564972, 0.3027518093585968, -0.12151952087879181, 0.10512225329875946, 0.03140246495604515, 0.06591477245092392, -0.14060530066490173, 0.13188104331493378, 0.01001762319356203], [-0.1421080082654953, -0.12026474624872208, -0.16314156353473663, 0.11589856445789337, -0.03638803958892822, -0.014619491994380951, -0.08652030676603317, 0.15709011256694794, -0.3169972002506256, 0.3171607553958893, 0.05658024549484253, -0.0565023198723793, -0.010571899823844433, 0.19762350618839264, -0.11215785890817642, -0.053710706532001495, 0.15596573054790497, 0.11505754292011261, 0.04951765388250351, -0.11115946620702744, -0.1037905365228653, -0.17242354154586792, -0.08469190448522568], [0.1239532083272934, -0.12248457968235016, -0.049726929515600204, -0.08730928599834442, 0.002352924318984151, -0.17495881021022797, -0.17108683288097382, 0.0039041300769895315, 0.4089851975440979, -0.012269076891243458, -0.08641842752695084, 0.20676623284816742, -0.055543202906847, -0.08348219096660614, -0.08255637437105179, -0.049065303057432175, -0.09205296635627747, -0.00682920403778553, -0.007467322982847691, -0.11886882781982422, -0.19218003749847412, -0.25273120403289795, -0.05029531195759773], [-0.24489545822143555, -0.1458509862422943, -0.15012824535369873, 0.11358197778463364, 0.07558814436197281, 0.0579267181456089, 0.031399715691804886, 0.0068589551374316216, 0.16121727228164673, -0.10474903136491776, 0.16657231748104095, 0.3961542844772339, 0.1322985291481018, 0.15449245274066925, -0.017347659915685654, -0.04280465841293335, -0.14572221040725708, 0.2674988806247711, -0.10400431603193283, 0.012448826804757118, 0.04123101755976677, -0.0791320949792862, 0.17828452587127686], [-0.15108661353588104, 0.10546799004077911, 0.01867404393851757, 0.027250785380601883, 0.09684252738952637, -0.04396875947713852, 0.11375058442354202, -0.1764797866344452, -0.07522476464509964, -0.045291654765605927, -0.0907556489109993, 0.5398253202438354, -0.13225728273391724, 0.1591305285692215, -0.1690818965435028, 0.025280527770519257, -0.040855612605810165, -0.010208159685134888, 0.026682265102863312, -0.13892881572246552, 0.1251656413078308, -0.0567316859960556, 0.21905948221683502], [0.09434663504362106, 0.10279443114995956, -0.1182926744222641, -0.047390617430210114, 0.22142842411994934, -0.08483986556529999, 0.0017892966279760003, -0.16240563988685608, -0.6743512153625488, -0.16304323077201843, 0.18105380237102509, -0.06939641386270523, -0.07179944962263107, -0.11120758950710297, -0.06314155459403992, -0.06359365582466125, -0.19603955745697021, -0.02426193654537201, -0.0203262846916914, 0.0722649022936821, 0.152434840798378, -0.05435653403401375, 0.06663265079259872], [0.2066054791212082, -0.11764398217201233, -0.013763971626758575, -0.09528995305299759, -0.24325330555438995, -0.06487039476633072, -0.09659057855606079, 0.08958830684423447, -0.24978187680244446, -0.04550866782665253, -0.1597319096326828, 0.38647085428237915, 0.12352579832077026, 0.11073219776153564, -0.16166986525058746, 0.026571186259388924, -0.11847430467605591, -0.11383388936519623, 0.08496367186307907, 0.01340419426560402, -0.036885518580675125, -0.09172581136226654, -0.029946114867925644], [0.1269717812538147, 0.10599090158939362, -0.057206083089113235, -0.1922147423028946, -0.16955655813217163, 0.10926617681980133, 0.016838639974594116, 0.1570993959903717, -0.13732554018497467, -0.09120504558086395, 0.0549890510737896, 0.09595539420843124, 0.143399178981781, -0.06006795912981033, -0.08946743607521057, -0.09888666123151779, 0.10536664724349976, -0.016868801787495613, -0.12438465654850006, -0.10547692328691483, -0.10226669907569885, 0.11215461790561676, -0.04153567552566528], [0.1339968889951706, -0.14596965909004211, -0.10406775027513504, -0.14414043724536896, 0.043165091425180435, -0.15762057900428772, -0.07914377003908157, -0.1844649761915207, -0.10237078368663788, 0.02898736484348774, -0.1071789339184761, 0.21677885949611664, 0.11190633475780487, 0.059725333005189896, 0.055402547121047974, -0.19690972566604614, -0.10110864788293839, -0.18994387984275818, -0.023334737867116928, -0.03223050758242607, -0.14678655564785004, -0.2878086268901825, -0.05916748568415642], [-0.10232573747634888, -0.17229457199573517, -0.103944793343544, -0.1583668291568756, 0.08791829645633698, -0.08580195158720016, -0.08748922497034073, 0.1013173758983612, -0.48135730624198914, 0.17881663143634796, -0.04757871478796005, -0.15928131341934204, -0.013365067541599274, -0.09399501979351044, 0.008344916626811028, -0.08951940387487411, 0.2457582801580429, 0.14467908442020416, 0.20077131688594818, -0.05127682164311409, 0.1646052598953247, -0.005316215567290783, -0.12105537205934525], [-0.19249090552330017, -0.10318223387002945, 0.162925586104393, -0.1901187002658844, 0.016434065997600555, -0.1434345692396164, -0.09336036443710327, 0.08530957251787186, 0.6056455969810486, 0.34620213508605957, 0.038759682327508926, 0.3216988444328308, -0.13305653631687164, -0.08223345875740051, 0.017477037385106087, 0.09589523822069168, -0.029018506407737732, -0.00484980084002018, 0.054160669445991516, 0.027480969205498695, -0.051829516887664795, -0.036495305597782135, 0.19496147334575653], [0.11145219206809998, 0.09752306342124939, -0.10901495814323425, -0.12368679791688919, 0.146168053150177, -0.11088186502456665, 0.089681476354599, 0.1944272220134735, -0.8127687573432922, -0.31755968928337097, -0.04172494634985924, -0.19504384696483612, 0.0068548028357326984, 0.13868001103401184, 0.19553838670253754, -0.04513348639011383, 0.019366221502423286, 0.21799279749393463, 0.05476881563663483, 0.04692970961332321, 0.03517281636595726, 0.05771206319332123, 0.12057795375585556], [-0.03940117359161377, -0.062104057520627975, 0.14546076953411102, -0.005904035642743111, 0.39718613028526306, -0.055289529263973236, -0.05502916872501373, 0.07857365906238556, 0.12385550141334534, -0.1928151696920395, -0.03352431207895279, -0.22230792045593262, -0.15185868740081787, -0.055907879024744034, -0.011676126159727573, 0.09011141955852509, -0.17573879659175873, -0.09575266391038895, -0.07185433059930801, 0.09876295924186707, -0.13035446405410767, 0.3715396225452423, 0.19932948052883148], [0.1014677882194519, -0.06783710420131683, -0.16563259065151215, 0.11854229122400284, 0.013607081025838852, -0.1574167162179947, 0.0909297838807106, -0.060839470475912094, -0.2977170944213867, 0.11255892366170883, -0.08471863716840744, 0.03826790302991867, 0.2972524166107178, 0.046231500804424286, -0.04365698993206024, -0.12124892324209213, 0.11678285896778107, -0.00626499904319644, 0.16279292106628418, -0.11952012777328491, 0.05594350025057793, 0.015247243456542492, 0.1539374738931656], [0.17553919553756714, -0.09432895481586456, -0.004438467789441347, -0.13869671523571014, -0.05399627983570099, 0.09535675495862961, -0.05555914714932442, 0.1397632658481598, -0.07082495838403702, -0.18890836834907532, -0.04275520518422127, -0.6977381706237793, 0.18279989063739777, 0.055115800350904465, -0.13742892444133759, -0.01706104166805744, -0.065830759704113, -0.0459706112742424, -0.05640415474772453, 0.0028702730778604746, 0.06479420512914658, -0.04511066526174545, -0.03572419285774231], [-0.142271488904953, -0.055282022804021835, 0.056496452540159225, -0.12858347594738007, 0.019763898104429245, 0.07079281657934189, 0.05261363089084625, 0.1640620231628418, 0.02015242539346218, 0.18133139610290527, 0.038175154477357864, 0.2873978018760681, -0.0274855587631464, -0.05583225190639496, -0.04672342911362648, -0.13098841905593872, 0.14871394634246826, 0.1137169897556305, 0.3567623496055603, 0.103000707924366, -0.025230100378394127, 0.03291339427232742, -0.02066817320883274], [0.21943271160125732, 0.012627366930246353, -0.1585053950548172, 0.003417243482545018, 0.14917296171188354, 0.06173114478588104, -0.2185526192188263, -0.007822559215128422, -0.3533760905265808, 0.11408717930316925, -0.05169280990958214, 0.2312203198671341, 0.10681600868701935, 0.28350991010665894, 0.13297055661678314, 0.10178456455469131, -0.0631970688700676, 0.11269222944974899, 0.02988920733332634, -0.19195356965065002, 0.10401038080453873, -0.29045793414115906, 0.12504129111766815], [-0.05928272381424904, 0.09301977604627609, -0.08484533429145813, -0.19321298599243164, -0.1205044835805893, 0.03333069756627083, -0.06218590959906578, 0.16679002344608307, -0.14153628051280975, 0.1120026707649231, 0.22255268692970276, -0.2233346402645111, -0.28421327471733093, -0.1404600590467453, -0.1050027459859848, 0.010515526868402958, 0.15691488981246948, -0.19233375787734985, 0.1233828142285347, 0.006415015552192926, -0.0976656898856163, -0.022532887756824493, -0.07539992779493332], [-0.023612819612026215, -0.03612805902957916, -0.052111465483903885, 0.152811199426651, 0.18153004348278046, 0.06958109140396118, 0.20502004027366638, -0.009049690328538418, -0.046095214784145355, -0.20598958432674408, -0.016264548525214195, 0.21895277500152588, -0.10475471615791321, 0.08935805410146713, -0.09256082028150558, -0.10437151044607162, 0.02508959174156189, 0.1519467830657959, 0.1090349480509758, 0.14722590148448944, 0.1687067598104477, 0.0237388014793396, -0.030466383323073387], [-0.23861922323703766, 0.10661882162094116, -0.005064263008534908, -0.0721529945731163, 0.1252027302980423, 0.044587377458810806, -0.06752265989780426, -0.20045338571071625, 0.12588092684745789, -0.05350947752594948, -0.1356014758348465, 0.12344527989625931, -0.18451718986034393, -0.6704505085945129, 0.22351087629795074, -0.02362425997853279, -0.2814227342605591, 0.0007154110935516655, -0.10668067634105682, 0.05833439528942108, 0.0015493204118683934, 0.01087525486946106, 0.22933295369148254], [-0.07414638251066208, 0.06277911365032196, 0.18056121468544006, -0.03139277547597885, -0.13673076033592224, 0.12159548699855804, -0.0836186558008194, 0.08093183487653732, -0.8818524479866028, 0.554965615272522, 0.07292012125253677, -0.236322283744812, -0.11513399332761765, 0.07426977157592773, 0.060366012156009674, -0.028568368405103683, -0.1033773124217987, 0.023355958983302116, -0.015775298699736595, 0.18804357945919037, 0.10528350621461868, -0.019721519201993942, 0.07939228415489197], [0.04294223338365555, 0.10620080679655075, -0.008128714747726917, 0.053743455559015274, -0.11485250294208527, 0.039082158356904984, 0.14284755289554596, -0.04075439274311066, 0.004221071023494005, -0.2097172737121582, 0.14547725021839142, 0.008764604106545448, 0.14614199101924896, -0.1127488911151886, -0.15576574206352234, 0.12999078631401062, -0.05704493075609207, -0.1660623550415039, 0.2543593943119049, -0.04885066673159599, -0.06352511793375015, -0.0630013570189476, 0.17418882250785828], [-0.09097469598054886, 0.105691097676754, -0.03814128413796425, 0.029850861057639122, -0.11734096705913544, 0.045364391058683395, 0.18417474627494812, 0.005603343714028597, -0.26590824127197266, 0.40736231207847595, 0.02171412482857704, -0.28516101837158203, -0.2062169462442398, 0.17482201755046844, 0.1378711313009262, -0.10244359076023102, -0.007021298166364431, -0.1015184074640274, -0.10935959964990616, -0.13582222163677216, 0.10911418497562408, -0.14660824835300446, -0.1576031893491745], [0.23395104706287384, -0.12741440534591675, -0.025859171524643898, 0.14583013951778412, 0.03217725828289986, 0.08234839886426926, -0.20065709948539734, -0.1937718391418457, -0.31156593561172485, -0.008732455782592297, 0.09702972322702408, -0.09162164479494095, 3.450962685747072e-05, -0.040255505591630936, 0.012177448719739914, 0.08226551115512848, -0.03175048157572746, 0.20433637499809265, 0.4148358404636383, -0.018908219411969185, 0.056690964847803116, -0.23958997428417206, -0.10596679896116257], [-0.07013100385665894, -0.03329259902238846, 0.14441747963428497, 0.08646015077829361, -0.18689069151878357, 0.2277454286813736, 0.16067321598529816, 0.16666071116924286, -0.3719419538974762, -0.16213326156139374, 0.0708068236708641, -0.08795174956321716, -0.15411832928657532, -0.053052302449941635, -0.00094696378801018, 0.010547780431807041, 0.2152029126882553, -0.20635364949703217, 0.1520732343196869, 0.11597864329814911, 0.11179119348526001, -0.2514941990375519, -0.17293421924114227], [0.2110394537448883, 0.03196951001882553, 0.24799959361553192, 0.12270916253328323, 0.08161425590515137, 0.0427418127655983, 0.13076642155647278, 0.141602024435997, -0.13596320152282715, 0.08679798990488052, -0.09517119824886322, 0.1396702229976654, 0.2832273840904236, -0.016052816063165665, 0.05979522690176964, 0.10786689072847366, 0.23760536313056946, -0.024368781596422195, 0.12035474181175232, -0.00488639622926712, -0.020991981029510498, 0.003006195882335305, -0.26987260580062866], [0.008220789022743702, 0.019019179046154022, 0.021666033193469048, 0.09116607159376144, -0.2197047621011734, -0.05211647227406502, 0.11955790221691132, -0.16028480231761932, 0.15607334673404694, 0.01247314177453518, -0.1631956249475479, -0.11276103556156158, -0.12213683128356934, -0.23274467885494232, -0.05783259868621826, -0.1707427203655243, 0.1889638453722, 0.16233055293560028, 0.5778076648712158, -0.07902024686336517, -0.11815300583839417, -0.03529193624854088, 0.10460083186626434], [0.24296905100345612, -0.09158238768577576, 0.11212606728076935, -0.019491814076900482, 0.13591311872005463, 0.05795491486787796, -0.004989216104149818, -0.03571632131934166, 0.22389481961727142, -0.006292183883488178, 0.04931949824094772, 0.050611358135938644, 0.10278628766536713, -0.17595362663269043, 0.10224783420562744, 0.055732402950525284, -0.036486998200416565, 0.10303100943565369, -0.05036056414246559, 0.12147387862205505, -0.0046981037594377995, 0.009842806495726109, -0.06623482704162598], [-0.026491587981581688, 0.03867797181010246, -0.10527276247739792, 0.07254515588283539, 0.15986278653144836, 0.07254614681005478, -0.15697814524173737, -0.05857255682349205, 0.06940313428640366, -0.05359154939651489, 0.11887019872665405, -0.04048757627606392, 0.2336125373840332, -0.009558210149407387, 0.032333873212337494, -0.09226939082145691, 0.08667448163032532, 0.1548822969198227, 0.07966431230306625, -0.06190425157546997, 0.007635496091097593, 0.022626696154475212, -0.03549811244010925], [0.06839211285114288, -0.18582244217395782, -0.032629311084747314, -0.2683876156806946, -0.0792778804898262, -0.14602725207805634, -0.06095491349697113, 0.1277269423007965, -0.09293815493583679, -0.12583957612514496, 0.1528884470462799, 0.10622381418943405, -0.009623349644243717, 0.05195192992687225, -0.03774714097380638, 0.15799257159233093, -0.09583605825901031, 0.03070015087723732, 0.26917150616645813, -0.15283721685409546, -0.08272981643676758, -0.035202283412218094, -0.20677876472473145], [0.05482431501150131, 0.10846129059791565, -0.10325047373771667, 0.14104239642620087, -0.05829321965575218, 0.18263059854507446, 0.13035912811756134, 0.051492031663656235, -0.09968831390142441, -0.23555396497249603, 0.037965141236782074, 0.3146257996559143, 0.22455014288425446, -0.1007414385676384, -0.17142416536808014, 0.11252433061599731, 0.025259198620915413, -0.016912825405597687, -0.11862006783485413, 0.15857481956481934, 0.13962474465370178, 0.04435710608959198, -0.14081871509552002], [-0.1751851737499237, 0.07007021456956863, -0.0932793840765953, 0.0649164542555809, 0.015162936411798, -0.06954337656497955, 0.1548774391412735, 0.04337276518344879, -0.05399367958307266, -0.04949504882097244, 0.0006377705140039325, -0.05616147443652153, 0.26156502962112427, 0.00950512383133173, 0.07627613842487335, -0.16416914761066437, 0.04220714420080185, -0.05042625591158867, 0.14873440563678741, 0.006927906535565853, 0.2201780378818512, 0.0971490815281868, -0.1100231483578682], [-0.026669330894947052, -0.007642582058906555, 0.11827631294727325, -0.1038384735584259, -0.03173699602484703, -0.0866338461637497, -0.031364113092422485, -0.06339483708143234, -0.4123845398426056, -0.08845201879739761, -0.04858846962451935, -0.40603846311569214, -0.2023322433233261, 0.11416171491146088, 0.21558620035648346, -0.11665689200162888, -0.05726062133908272, -0.1750088781118393, 0.07338808476924896, -0.1698751002550125, 0.03360140696167946, -0.10526376217603683, 0.19293473660945892], [-0.015306035988032818, -0.11832772940397263, 0.032865241169929504, -0.2738909423351288, -0.08100973814725876, -0.0655139610171318, -0.06741729378700256, 0.1487455815076828, 0.021243879571557045, -0.06270983815193176, 0.10048893839120865, -0.06882888078689575, 0.03658200055360794, -0.0004874583682976663, 0.019866889342665672, -0.004109384957700968, -0.06001769378781319, -0.4114682972431183, -0.1172664612531662, 0.01335376501083374, -0.16407832503318787, -0.0009875900577753782, 0.07658262550830841], [-0.18720895051956177, -0.239013209939003, -0.02689567767083645, 0.2555425763130188, 0.07837996631860733, 0.005852268543094397, 0.25119465589523315, -0.136673241853714, 0.034120477735996246, -0.1566447615623474, 0.02890154905617237, 0.07423477619886398, 0.008715588599443436, -0.05657199025154114, 0.12037229537963867, -0.05397810414433479, -0.019229186698794365, -0.01939207874238491, -0.03580871969461441, -0.08261649310588837, 0.033045701682567596, 0.07202520966529846, -0.2123703509569168], [-0.11276763677597046, -0.1785363107919693, 0.061076194047927856, 0.14927120506763458, -0.10713211447000504, -0.1227041631937027, -0.18015438318252563, -0.2146558165550232, -0.11003977060317993, -0.009289971552789211, -0.14698022603988647, -0.0864485651254654, 0.12361150234937668, -0.18340501189231873, -0.14776484668254852, 0.19495832920074463, -0.13735802471637726, -0.18673621118068695, 0.06361346691846848, -0.1934470534324646, -0.08685550093650818, -0.13111908733844757, 0.16244034469127655], [-0.012895932421088219, 0.15405866503715515, 0.0849306583404541, 0.07317151874303818, -0.21087831258773804, 0.09994793683290482, -0.043415918946266174, -0.04651184752583504, -0.18586184084415436, 0.30292588472366333, -0.11778467893600464, -0.09225454181432724, 0.024848975241184235, -0.13280661404132843, 0.05055458843708038, 0.15046033263206482, -0.1949699968099594, -0.00886564888060093, -0.15909390151500702, 0.04111001640558243, 0.11265338212251663, -0.013667748309671879, -0.01808544062077999], [0.03863658010959625, -0.04415034502744675, 0.20570512115955353, -0.17895640432834625, -0.21401983499526978, -0.16759876906871796, 0.028042688965797424, -0.11904967576265335, 0.16340820491313934, 0.09479706734418869, 0.07730036973953247, 0.4013265371322632, -0.2794021964073181, 0.21390144526958466, 0.04385174810886383, -0.014056945219635963, 0.000997004914097488, -0.07928755134344101, 0.05842230096459389, 0.09060541540384293, 0.0053255679085850716, 0.037118811160326004, -0.07473084330558777], [0.19997555017471313, 0.05665712058544159, -0.2106766402721405, -0.07569842040538788, 0.12329167127609253, -0.029428936541080475, 0.1250552237033844, 0.08946749567985535, 0.7485638856887817, -0.3629290759563446, -0.04316426441073418, 0.07350589334964752, 0.04189067706465721, 0.07586824148893356, 0.011380299925804138, -0.03125861659646034, 0.14563892781734467, -0.15644638240337372, -0.0439622700214386, 0.14376816153526306, -0.06350293010473251, 0.13103075325489044, -0.058927297592163086], [-0.059740100055933, 0.02310848981142044, -0.0896490067243576, 0.0771787166595459, -0.19613391160964966, 0.01006281841546297, -0.05040479078888893, 0.13921895623207092, 0.05168977752327919, 0.007849925197660923, -0.1350269615650177, 0.2913663387298584, -0.2671918272972107, 0.1383347362279892, 0.14965234696865082, 0.04105421155691147, -0.1307285577058792, 0.04501977935433388, 0.09045609831809998, 0.023599185049533844, 0.04306191951036453, -0.0627012699842453, 0.10463874042034149], [-0.14475983381271362, 0.0877368375658989, 0.12702220678329468, -0.17358183860778809, 0.16451700031757355, -0.020863061770796776, -0.10148202627897263, -0.21551625430583954, 1.1693209409713745, -0.24452003836631775, 0.14541424810886383, 0.14506305754184723, -0.0844523161649704, -0.07767852395772934, -0.07482665777206421, -0.0752636045217514, -0.10053198784589767, -0.08337750285863876, 0.08069722354412079, 0.01467128936201334, 0.06506543606519699, 0.010929126292467117, -0.08804592490196228], [-0.18853777647018433, -0.14798623323440552, -0.0883716493844986, 0.21464528143405914, 0.36147990822792053, 0.17094309628009796, 0.27875417470932007, 0.1488056778907776, 0.014889792539179325, -0.19870951771736145, 0.0015867764595896006, -0.18434733152389526, -0.05191917344927788, -0.18109244108200073, -0.20610767602920532, 0.16778282821178436, -0.2027464210987091, -0.013813314959406853, -0.18714158236980438, 0.007430422585457563, 0.042329806834459305, 0.09840734302997589, 0.2143174707889557], [0.018444174900650978, 0.05693947151303291, -0.04959426075220108, -0.08081984519958496, 0.06866569072008133, 0.19567063450813293, -0.03424615040421486, -0.08263302594423294, -0.2811753451824188, 0.24286963045597076, 0.13962294161319733, -0.247439444065094, -0.21504487097263336, -0.0520423948764801, 0.1392018049955368, -0.15701736509799957, -0.17707505822181702, 0.08772893995046616, -0.09166691452264786, -0.1251748651266098, -0.0865776389837265, -0.11830802261829376, 0.03746901452541351], [-0.10119044035673141, -0.09240729361772537, -0.19310347735881805, 0.05907947197556496, 0.08093409240245819, -0.16799664497375488, -0.02590688318014145, -0.1264483630657196, -0.08539490401744843, -0.07385841757059097, -0.19692270457744598, 0.1209811419248581, 0.08901336789131165, -0.18585330247879028, -0.021589495241642, 0.07083425670862198, -0.05321834981441498, -0.05684397369623184, 0.031560301780700684, 0.0004106352280359715, -0.02544444613158703, -0.1854488104581833, -0.0032779977191239595], [-0.05992120876908302, 0.04074985161423683, 0.08712859451770782, -0.20501618087291718, 0.09930765628814697, 0.04762406274676323, 0.033966585993766785, 0.13943055272102356, 0.11243206262588501, -0.13478466868400574, 0.19811883568763733, -0.08313145488500595, -0.25255951285362244, -0.30829980969429016, -0.05627016723155975, 0.0717044398188591, -0.07619636505842209, 0.3524361848831177, -0.054681744426488876, 0.12096922844648361, -0.13378600776195526, -0.0014551847707480192, -0.18094906210899353], [0.17188727855682373, -0.04873332008719444, -0.06144792586565018, -0.1108793392777443, -0.09047476947307587, 0.1276697814464569, -0.16344742476940155, 0.15704922378063202, 