{"architecture": [23, 256, 256, 128, 6], "activation": "relu", "weights": {"net.0.weight": [[-0.1796751767396927, -0.11031514406204224, 0.0717862918972969, 0.21824094653129578, 0.1930846869945526, 0.053111519664525986, -0.09754226356744766, 0.041060980409383774, -0.2696431577205658, -0.15760639309883118, -0.12711995840072632, 0.01338654663413763, -0.1387498825788498, 0.004352277144789696, -0.10359351336956024, 0.01731533743441105, 0.05886450037360191, 0.03964905068278313, 0.03257640078663826, 0.06116018071770668, 0.1115313470363617, -0.13056209683418274, 0.21731001138687134], [-0.08779624104499817, -0.054645758122205734, 0.01372978650033474, 0.027870772406458855, -0.11637469381093979, -0.013444855809211731, -0.045207638293504715, 0.2138260155916214, 0.7792963981628418, -0.6365363597869873, -0.023611707612872124, -0.10190997272729874, -0.03561124578118324, -0.028830235823988914, 0.010364066809415817, 0.01583905704319477, -0.08191952854394913, -0.06564273685216904, -0.006864177994430065, 0.044632576406002045, -0.12030921131372452, 0.08541300892829895, -0.038311269134283066], [-0.07356825470924377, 0.055550578981637955, 0.21599741280078888, 0.13877259194850922, 0.16579854488372803, 0.14464940130710602, -0.007189941592514515, 0.12410759180784225, -0.22991926968097687, 0.18847066164016724, -0.16031892597675323, -0.137557715177536, -0.1765010505914688, -0.3033681809902191, 0.15005041658878326, 0.1140580102801323, -0.12815918028354645, -0.028539547696709633, -0.09008609503507614, 0.14811067283153534, 0.13256286084651947, -0.20410853624343872, 0.024804944172501564], [0.17411985993385315, 0.10269014537334442, -0.11413218826055527, 0.21180671453475952, -0.16226758062839508, 0.04755725711584091, -0.03859809413552284, -0.13177524507045746, -0.08426940441131592, -0.20407560467720032, -0.11872265487909317, 0.001834572060033679, 0.08461953699588776, 0.03594795987010002, 0.15326714515686035, 0.16818176209926605, -0.18722088634967804, -0.2949106991291046, 0.013649910688400269, -0.01224853191524744, 0.10125480592250824, -0.25655192136764526, -0.16408219933509827], [0.21442413330078125, -0.0309318657964468, -0.05539431422948837, 0.11357646435499191, -0.19139616191387177, 0.10847435146570206, -0.25548088550567627, -0.025582026690244675, 0.009668163023889065, 0.048997581005096436, -0.021120361983776093, -0.10165758430957794, -0.06311044842004776, -0.2708359658718109, 0.08762331306934357, -0.001981190172955394, 0.04328705742955208, -0.11834853142499924, 0.03213442489504814, 0.03637087717652321, -0.047112323343753815, -0.12876160442829132, 0.029424497857689857], [0.0356873981654644, -0.06874772161245346, 0.097449891269207, -0.2131466120481491, 0.05544554069638252, 0.18558155000209808, -0.02423219010233879, 0.06355132907629013, -0.01037618052214384, -0.15918853878974915, 0.13261163234710693, -0.2519115209579468, -0.022194745019078255, -0.023099415004253387, -0.06328565627336502, 0.07858187705278397, 0.19897909462451935, 0.21570836007595062, -0.07224290072917938, -0.031068241223692894, 0.09255155920982361, 0.14321856200695038, -0.13613957166671753], [0.12836067378520966, -0.08917442709207535, -0.16074657440185547, 0.12197677046060562, 0.018349001184105873, 0.17055220901966095, -0.009604154154658318, -0.04855125769972801, 0.06674478948116302, 0.004714467562735081, -0.040658771991729736, 0.17626814544200897, 0.13483895361423492, 0.026802899315953255, -0.03031526692211628, 0.2641703188419342, -0.10826325416564941, -0.16229712963104248, -0.16403622925281525, 0.06894790381193161, -0.15012776851654053, 0.11471705883741379, -0.16149850189685822], [0.10099217295646667, 0.19978025555610657, -0.17514333128929138, -0.014172116294503212, 0.05424748733639717, 0.059581708163022995, -0.1998245269060135, 0.07372584939002991, 0.14525406062602997, 0.11092273890972137, 0.1217907965183258, 0.3707566261291504, 0.2924455404281616, 0.20101125538349152, -0.12276428937911987, 0.05336282029747963, 0.07868991792201996, -0.043030377477407455, -0.05010892078280449, -0.1300586760044098, -0.1413346827030182, 0.1097865104675293, -0.020397182554006577], [0.10564766824245453, -0.10809004306793213, -0.14890187978744507, -0.1268772929906845, -0.25139132142066956, -0.022888891398906708, -0.018331855535507202, -0.06187905743718147, -0.3590991795063019, -0.03462200239300728, -0.031064128503203392, -0.1580362617969513, -0.10457316040992737, -0.1011137142777443, 0.04353508725762367, 0.12441932410001755, -0.09506812691688538, 0.020715516060590744, -0.03765387460589409, 0.027845444157719612, 0.21524184942245483, -0.01739056594669819, -0.010135648772120476], [-0.04937875643372536, 0.05410543084144592, 0.044809695333242416, -0.21841146051883698, 0.050690267235040665, 0.05381388962268829, -0.0482267327606678, 0.12392587214708328, 0.33335667848587036, -0.31269657611846924, 0.03766229748725891, -0.39090800285339355, -0.10107036679983139, -0.02147548831999302, 0.18704034388065338, 0.05574698746204376, 0.1665770709514618, -0.018599821254611015, 0.0745556503534317, -0.1262834370136261, 0.10969465970993042, -0.02792975679039955, -0.010045316070318222], [-0.13952414691448212, -0.14793767035007477, -0.05887414515018463, 0.16947072744369507, 0.11063819378614426, -0.1994985193014145, 0.09380955994129181, 0.1614587903022766, 0.3029008209705353, -0.25951647758483887, 0.06628168374300003, -0.332905650138855, 0.09557277709245682, 0.19584684073925018, -0.07859311997890472, 0.19215810298919678, -0.10309163480997086, 0.02301139011979103, -0.1346711963415146, 0.22396738827228546, -0.0001513820607215166, -0.057843051850795746, -0.16711246967315674], [-0.13899356126785278, -0.10482857376337051, -0.1159924790263176, 0.04293704777956009, -0.1908552050590515, -0.06717859953641891, 0.11361633241176605, -0.17485448718070984, -0.1367998868227005, -0.07705097645521164, -0.18277931213378906, 0.3759385943412781, -0.17716047167778015, -0.11998569220304489, -0.09921421855688095, -0.02103409729897976, 0.1204109638929367, -0.21018841862678528, -0.06541503965854645, -0.16370895504951477, -0.016357582062482834, -0.3324587047100067, -0.09690701216459274], [0.19683285057544708, -0.06634911894798279, -0.008192157372832298, 0.07891845703125, -0.08745827525854111, -0.17535515129566193, -0.12772606313228607, -0.1860414296388626, -0.04702632501721382, -0.18002909421920776, -0.16106021404266357, 0.26530492305755615, -0.02771146595478058, 0.1628982275724411, -0.133533775806427, -0.09253151714801788, -0.06405632197856903, -0.08944699168205261, -0.19695143401622772, -0.12262754887342453, -0.1536901295185089, 0.1544661968946457, -0.025130784139037132], [0.13755537569522858, 0.0689973458647728, 0.059156809002161026, -0.08862652629613876, -0.019971951842308044, -0.08324217796325684, 0.05643319711089134, -0.06150922179222107, 0.15395040810108185, -0.14931991696357727, 0.08018665015697479, -0.3857141137123108, 0.20872347056865692, 0.09843616932630539, 0.13312001526355743, 0.12351454794406891, -0.10660254955291748, 0.1361849009990692, 0.15432842075824738, 0.07098857313394547, 0.12275277078151703, 0.06895453482866287, -0.19866161048412323], [-0.027309952303767204, 0.018537260591983795, -0.12521393597126007, -0.10687447339296341, 0.002224343130365014, 0.05525127798318863, 0.11976893991231918, 0.16651609539985657, 0.3192692697048187, -0.04898663982748985, 0.1426754593849182, 0.2721474766731262, 0.05465985834598541, 0.045901332050561905, 0.1199113056063652, 0.17291398346424103, 0.04888584464788437, -0.42170947790145874, -0.14819027483463287, 0.08241353183984756, 0.08389386534690857, -0.10993636399507523, -0.22847750782966614], [0.234303817152977, 0.06970562785863876, 0.16353344917297363, -0.06012631952762604, 0.132258340716362, 0.023102078586816788, 0.09023705124855042, 0.09670610725879669, -0.09123847633600235, 0.05499926209449768, 0.12824349105358124, -0.5189719200134277, 0.31936290860176086, 0.1724826693534851, -0.007224819157272577, -0.05380678176879883, -0.0361066535115242, 0.008572952821850777, -0.04311100393533707, -0.30602702498435974, -0.004217028152197599, -0.07420457899570465, 0.10316852480173111], [0.12213340401649475, -0.21520066261291504, 0.10821910947561264, 0.059380222111940384, 0.1085864007472992, -0.04969768971204758, 0.05144515633583069, -0.024070562794804573, 0.31841084361076355, -0.011405816301703453, -0.08604240417480469, -0.26095446944236755, -0.1362401694059372, 0.15591157972812653, 0.045572180300951004, 0.07782471925020218, -0.22008180618286133, -0.1653902679681778, -0.11446940153837204, -0.0455353744328022, 0.11247140914201736, -0.01373183261603117, -0.08006371557712555], [-0.006403830833733082, 0.027393242344260216, 0.026393184438347816, -0.11695180833339691, -0.2073962688446045, 0.031564585864543915, -0.08838792145252228, -0.123085618019104, 0.6259048581123352, -0.3107296824455261, 0.12135802209377289, 0.020764196291565895, 0.13243411481380463, -0.017682302743196487, -0.052626386284828186, -0.0648358166217804, 0.08212895691394806, -0.019562512636184692, 0.009737549349665642, 0.24254482984542847, 0.0006364840664900839, -0.08655939251184464, -0.23162390291690826], [0.1551496833562851, -0.09912939369678497, -0.21265429258346558, 0.17826047539710999, -0.43320345878601074, 0.1528121829032898, -0.22102704644203186, 0.0169182438403368, 0.10238476097583771, 0.05781395733356476, 0.09476085752248764, 0.25566405057907104, 0.213572695851326, -0.07114080339670181, -0.17253464460372925, -0.16339761018753052, -0.16827459633350372, -0.17931488156318665, 0.07594481110572815, 0.11505433917045593, -0.027045801281929016, -0.24282826483249664, 0.025158695876598358], [-0.012828550301492214, -0.14508694410324097, -0.028612375259399414, -0.06853203475475311, -0.014647429808974266, -0.16852343082427979, -0.07063175737857819, -0.1079338863492012, -0.11611013859510422, 0.23403263092041016, 0.15799368917942047, 0.15552525222301483, -0.1147700846195221, -0.18138301372528076, -0.055528298020362854, -0.06505987048149109, 0.007689175195991993, 0.33188575506210327, -0.0829036682844162, 0.16193796694278717, 0.0639810636639595, 0.039225153625011444, -0.08093877881765366], [0.011320038698613644, 0.14407454431056976, 0.11201528459787369, -0.12608636915683746, 0.19845463335514069, 0.19247405230998993, 0.07235109806060791, 0.14364118874073029, 0.03585148602724075, -0.08143555372953415, 0.11311967670917511, -0.016120480373501778, -0.14802660048007965, -0.01891362853348255, -0.04566359892487526, -0.13931287825107574, 0.025278005748987198, -0.10943871736526489, -0.15501685440540314, -0.07794371247291565, 0.14393016695976257, -0.18131203949451447, 0.2108292132616043], [0.1145649254322052, 0.13345341384410858, 0.06918352097272873, -0.044019971042871475, -0.028184007853269577, -0.05242377519607544, 0.08226095885038376, -0.07417487353086472, 0.28982236981391907, 0.1598658561706543, 0.01976855657994747, -0.2632310092449188, 0.10116728395223618, 0.09239533543586731, 0.052620913833379745, 0.11335926502943039, 0.23227344453334808, 0.03203575685620308, 0.10877962410449982, 0.09335976094007492, 0.14973554015159607, -0.11747733503580093, -0.13649271428585052], [-0.0947234258055687, -0.1145072877407074, 0.048808589577674866, 0.14585119485855103, 0.0382838100194931, -0.22769887745380402, 0.019618114456534386, -0.13866277039051056, 0.11463594436645508, -0.10647318512201309, 0.08542197197675705, -0.21082541346549988, 0.13137295842170715, 0.08975069224834442, -0.037638675421476364, -0.10419182479381561, 0.2503916919231415, -0.1287330985069275, 0.028208406642079353, 0.14279554784297943, -0.14603668451309204, -0.08184046298265457, -0.27194440364837646], [0.09884966909885406, -0.03770669177174568, 0.14430564641952515, -0.014618191868066788, -0.18188226222991943, 0.16120827198028564, 0.09958477318286896, 0.08888320624828339, -0.057669512927532196, 0.3328985571861267, 0.14173400402069092, -0.024168912321329117, -0.12552399933338165, -0.22374388575553894, 0.07411789149045944, -0.026672691106796265, 0.23713770508766174, 0.049948159605264664, -0.08191002160310745, -0.28953060507774353, -0.2229844331741333, -0.009191961027681828, -0.1772983819246292], [0.013898256234824657, -0.017455175518989563, -0.008760698139667511, -0.10791804641485214, -0.02123323269188404, 0.023881392553448677, -0.1563507467508316, -0.004334071651101112, 0.06969423592090607, -0.009841491468250751, 0.1788579225540161, 0.00319460011087358, -0.12577950954437256, 0.24409069120883942, 0.19044944643974304, 0.6771500110626221, 0.07535047084093094, 0.1769939810037613, -0.12262649834156036, 0.06591874361038208, -0.09675153344869614, -0.06953056156635284, -0.11952552944421768], [0.12693892419338226, -0.10545476526021957, 0.037836670875549316, 0.15786078572273254, 0.12553603947162628, 0.09933117032051086, -0.03185684233903885, 0.1930612176656723, 0.31621333956718445, 0.1965629905462265, 0.018946997821331024, -0.3437533378601074, 0.16076812148094177, 0.17906010150909424, -0.05866538733243942, 0.12919990718364716, -0.041424814611673355, -0.024259429425001144, -0.08159816265106201, 0.210301011800766, 0.02150517888367176, 0.16559505462646484, -0.2463415563106537], [0.1757163405418396, -0.12069328129291534, 0.0012329056626185775, -0.21868573129177094, 0.009918817318975925, -0.08662790060043335, -0.08832944929599762, -0.037518832832574844, 0.09983129799365997, -0.1970263123512268, -0.16030630469322205, -0.4848575294017792, 0.010317230597138405, -0.06910423189401627, 0.13744381070137024, -0.12607738375663757, 0.051168717443943024, 0.09024719893932343, 0.21085815131664276, -0.3279598355293274, 0.11915378272533417, 0.08207167685031891, 0.22818279266357422], [0.059363603591918945, -0.1364956647157669, 0.21768836677074432, 0.09932310879230499, -0.10009671747684479, 0.010475383140146732, 0.05394838750362396, -0.0646178275346756, -0.003923451993614435, 0.00742344930768013, -0.08716148883104324, 0.005968806333839893, -0.15626925230026245, 0.24100445210933685, 0.14319752156734467, 0.15812166035175323, 0.09631281346082687, -0.14981460571289062, 0.3769243657588959, 0.15150776505470276, 0.08561185002326965, -0.04316064342856407, 0.0076926094479858875], [0.029426902532577515, -0.004477525595575571, 0.006705617532134056, 0.08781927078962326, -0.05833813548088074, 0.14698530733585358, 0.05848126858472824, 0.013268040493130684, 0.166921004652977, -0.12877094745635986, 0.09807978570461273, -0.05386323481798172, -0.1843651831150055, -0.04701212793588638, 0.08522875607013702, 0.16522294282913208, 0.16619957983493805, 0.12208426743745804, -0.09008848667144775, -0.11002084612846375, -0.17547312378883362, 0.10228802263736725, -0.12775520980358124], [0.10739689320325851, -0.072677381336689, -0.01943720318377018, 0.12560510635375977, -0.025769129395484924, 0.019478389993309975, 0.029034994542598724, -0.01231386698782444, -0.029808200895786285, 0.017621241509914398, -0.005254050716757774, 0.23485824465751648, 0.08582963049411774, -0.12728358805179596, -0.05125994235277176, -0.044472724199295044, 0.026401592418551445, -0.3503934442996979, 0.3712770938873291, 0.0719112977385521, 0.06291694939136505, -0.018149783834815025, -0.1497884839773178], [-0.1777818650007248, -0.06766343861818314, 0.08666516095399857, 0.231571763753891, 0.10227716714143753, -0.057815391570329666, -0.042596619576215744, 0.004824201576411724, 0.08245997875928879, 0.046856239438056946, 0.06088167801499367, 0.09974263608455658, 0.15837770700454712, 0.12140630930662155, -0.07877178490161896, -0.052770767360925674, 0.03186580911278725, -0.05463829264044762, -0.13158711791038513, 0.014959131367504597, -0.11543916165828705, -0.1862383931875229, 0.06493907421827316], [0.0697200819849968, -0.11434628814458847, -0.18626059591770172, 0.16230656206607819, -0.28493449091911316, 0.0795174241065979, -0.0006172357243485749, 0.07232632488012314, -0.053488798439502716, 0.22628739476203918, -0.17729787528514862, -0.09983096271753311, 0.21567612886428833, 0.1847478747367859, 0.021331943571567535, 0.18482063710689545, 0.10857230424880981, 0.07736852020025253, -0.23175117373466492, -0.00669489149004221, -0.1741909384727478, -0.17900189757347107, 0.04241122677922249], [-0.1463739275932312, -0.06834718585014343, 0.007071034517139196, -0.05754631385207176, -0.22170932590961456, 0.15800972282886505, 0.111797034740448, 0.12001494318246841, -0.08019839972257614, 0.09323669970035553, 0.10009688138961792, -0.006158384494483471, 0.32606327533721924, -0.18735504150390625, -0.17581452429294586, 0.2089408040046692, -0.06756854802370071, -0.19407443702220917, -0.20547232031822205, -0.03914587199687958, 0.22177469730377197, 0.006484922021627426, -0.16945087909698486], [0.20266860723495483, -0.11814168095588684, -0.08924709260463715, 0.030686261132359505, 0.06506630033254623, 0.005254206247627735, 0.1608991175889969, 0.016932133585214615, -0.25714144110679626, 0.0679054707288742, -0.02014562115073204, 0.7105700373649597, 0.11376836895942688, 0.06011240929365158, 0.04108200967311859, -0.09582828730344772, -0.013459954410791397, 0.08046797662973404, 0.062511146068573, -0.0379379540681839, -0.07246015965938568, 0.04436792433261871, -0.09162210673093796], [-0.06798239052295685, -0.1381012201309204, -0.15051332116127014, -0.2733900249004364, -0.05628465861082077, -0.0210352074354887, -0.17700129747390747, 0.24733003973960876, 0.015952128916978836, -0.10890074074268341, -0.12376046925783157, 0.12020222097635269, -0.0855005756020546, -0.09424883127212524, 0.038209665566682816, 0.11417514085769653, -0.1561116725206375, 0.2361629754304886, -0.19087892770767212, -0.11858949065208435, 0.07016051560640335, -0.024861078709363937, 0.08817288279533386], [-0.02916400320827961, 0.11971147358417511, -0.059850484132766724, 0.18008621037006378, -0.024933697655797005, -0.20022815465927124, -0.06433428078889847, 0.14134171605110168, 0.31392765045166016, 0.2644060254096985, 0.13680994510650635, 0.09720247238874435, 0.22757285833358765, -0.22808979451656342, -0.04111681133508682, 0.16675014793872833, -0.14642302691936493, -0.13683108985424042, 0.05389608070254326, -0.18176321685314178, -0.07562263309955597, 0.04931594058871269, 0.06030691787600517], [0.13687515258789062, 0.10973458737134933, -0.06065823510289192, 0.103226438164711, 0.06019648537039757, -0.08749351650476456, -0.15135370194911957, 0.009399128146469593, -0.08751383423805237, -0.16331034898757935, -0.1870575249195099, 0.2791106104850769, -0.011064501479268074, 0.17449164390563965, 0.07866977900266647, 0.2064271718263626, -0.00540036940947175, -0.042827922850847244, 0.013843955472111702, 0.104129359126091, 0.06981243938207626, -0.07870375365018845, 0.04397020861506462], [-0.21081700921058655, 0.06245461478829384, -0.17640794813632965, 0.22360794246196747, -0.10794327408075333, 0.025040095672011375, -0.06093595176935196, 0.12225814163684845, -0.30123788118362427, 0.2462630420923233, -0.2096722424030304, -0.25524887442588806, 0.011022521182894707, -0.12557785212993622, -0.035586465150117874, -0.018327614292502403, 0.09430992603302002, 0.03815412148833275, 0.08274297416210175, -0.13009397685527802, 0.017362771555781364, 0.09324745833873749, -0.013732160441577435], [-0.2498333901166916, -0.03913258761167526, -0.018590064719319344, 0.13345560431480408, 0.0348498560488224, 0.07473018765449524, 0.08469904959201813, 0.18089355528354645, 0.5274439454078674, -0.004111866001039743, -0.021281344816088676, -0.2856459617614746, 0.08063744008541107, 0.26842787861824036, 0.09311147034168243, -0.08607576787471771, -0.07653578370809555, 0.034020401537418365, -0.0026446152478456497, 0.018553316593170166, 0.20025768876075745, 0.03241865336894989, -0.1169610545039177], [-0.05394356697797775, 0.1285441815853119, -0.0973367765545845, -0.1443956196308136, 0.06438162177801132, -0.07521563023328781, -0.03987377882003784, 0.16845645010471344, -0.025545677170157433, 0.1205178052186966, 0.020349299535155296, -0.008160564117133617, -0.13490132987499237, 0.21790502965450287, 0.09630711376667023, 0.5148257613182068, 0.28502607345581055, -0.10913719981908798, -0.051790978759527206, -0.12681739032268524, -0.20790481567382812, -0.09670823067426682, -0.09766069799661636], [0.035702794790267944, 0.09571347385644913, 0.1167621985077858, -0.16824285686016083, -0.09340036660432816, -0.10006377100944519, -0.040327463299036026, 0.20213671028614044, -0.06472157686948776, 0.3582336902618408, 0.0540199801325798, 0.02501065842807293, -0.0763930007815361, -0.01819233037531376, -0.09795809537172318, 0.07448548078536987, -0.2076759934425354, 0.07432596385478973, 0.04374098405241966, 0.23798784613609314, 0.16039161384105682, -0.012753847986459732, 0.0519210509955883], [0.1072745993733406, 0.10857037454843521, 0.19049584865570068, -0.05846398323774338, -0.02686156891286373, 0.0471297912299633, -0.10482600331306458, -0.15401318669319153, 0.10325701534748077, -0.006325270980596542, 0.12418191879987717, 0.07179887592792511, 0.04842963069677353, -0.19930024445056915, -0.045866504311561584, 0.0034117032773792744, -2.67359682766255e-05, 0.2704390585422516, 0.43464767932891846, -0.12337160110473633, -0.14761057496070862, -0.04954715445637703, -0.1433006376028061], [-0.1657586544752121, 0.07873724400997162, -0.11491237580776215, -0.05257830396294594, -0.1298046112060547, -0.1470533311367035, -0.002384623046964407, -0.18608710169792175, 0.40635398030281067, 0.3579123616218567, 0.1752500683069229, -0.15751811861991882, -0.13649019598960876, -0.03992702439427376, 0.1986444592475891, -0.1740134209394455, -0.04972407966852188, -0.013793482445180416, 0.1049831211566925, -0.08766462653875351, -0.1074448898434639, 0.09751546382904053, -0.12658201158046722], [0.23185570538043976, -0.06964731216430664, -0.19772924482822418, 0.17252027988433838, -0.15107974410057068, 0.1877710074186325, -0.09403792768716812, -0.12130960077047348, 0.34712767601013184, 0.34206831455230713, 0.051376983523368835, 0.000736626738216728, -0.23286250233650208, 0.2820151448249817, -0.03933240473270416, -0.1291021704673767, 0.0936782956123352, 0.2579575479030609, 0.09280066937208176, 0.00787269789725542, 0.13286679983139038, -0.052055615931749344, -0.14010579884052277], [0.06349587440490723, -0.03971086069941521, 0.06817886978387833, -0.1980191022157669, 0.005194078199565411, -0.1270531415939331, -0.017065202817320824, -0.16699989140033722, -0.07068470120429993, 0.007659084163606167, 0.14149737358093262, 0.46388283371925354, 0.06713613122701645, 0.25555750727653503, -0.12081260979175568, -0.1078435406088829, 0.17425277829170227, 0.21369889378547668, -0.12336920946836472, 0.04120815545320511, -0.10400038212537766, 0.061108533293008804, 0.11777427792549133], [0.09255983680486679, 0.01975415088236332, -0.015956580638885498, -0.0024123017210513353, -0.10200733691453934, -0.004071775358170271, 0.013895362615585327, 0.04471097141504288, -0.8037306070327759, -0.07764817774295807, 0.056889452040195465, 0.06460704654455185, 0.006921095307916403, -0.02508113533258438, 0.05863427370786667, -0.05268283560872078, 0.0448242649435997, 0.05732841417193413, 0.29545268416404724, 0.06832244247198105, -0.05474230274558067, 0.016141006723046303, -0.16836333274841309], [-0.10770374536514282, 0.014256163500249386, -0.16554978489875793, 0.02930380590260029, -0.0584602952003479, -0.07798515260219574, 0.04702488332986832, 0.11667849123477936, 0.37019655108451843, 0.1902131885290146, 0.020802751183509827, -0.19349142909049988, -0.09041943401098251, 0.03096170537173748, 0.13531449437141418, 0.26129287481307983, -0.2110982984304428, -0.06717505306005478, 0.09261355549097061, -0.19913190603256226, 0.07707950472831726, -0.03459731116890907, -0.0547974668443203], [0.21429404616355896, -0.12726880609989166, 0.03212603181600571, 0.13410568237304688, -0.07582487910985947, -0.022977475076913834, -0.09560707956552505, 0.05797528475522995, -0.09011025726795197, -0.0979572981595993, 0.03151588514447212, 0.10746555775403976, 0.1855780929327011, 0.04384220018982887, -0.0106075219810009, 0.09646911919116974, 0.07202307879924774, -0.24987389147281647, -0.1963530331850052, 0.03179377689957619, -0.10596771538257599, 0.03767537698149681, 0.13874854147434235], [0.04991501569747925, -0.07323208451271057, 0.20402397215366364, -0.005402989219874144, -0.04907195270061493, -0.0005926842568442225, -0.018519289791584015, 0.12613001465797424, -0.11190727353096008, -0.18202251195907593, 0.11267856508493423, -0.3796442151069641, 0.22760504484176636, 0.2506195902824402, 0.11731510609388351, -0.06571421772241592, -0.12530510127544403, 0.16184836626052856, -0.189901664853096, -0.04014875739812851, -0.18712610006332397, -0.08263934403657913, -0.03304749354720116], [-0.09857063740491867, -0.18491443991661072, -0.0746321901679039, 0.16162948310375214, -0.06276174634695053, -0.20441685616970062, 0.03586719185113907, 0.1891789585351944, 0.06056981906294823, -0.12911325693130493, 0.017857719212770462, -0.18567930161952972, 0.1121530532836914, 0.048047956079244614, -0.251790314912796, -0.1205279752612114, 0.22552481293678284, 0.1875857710838318, 0.12773077189922333, -0.008729460649192333, 0.05382530763745308, 0.07987397164106369, 0.001396726700477302], [-0.1901194453239441, -0.07758982479572296, -0.13794387876987457, -0.198654443025589, -0.0935310423374176, -0.11625180393457413, 0.014739761129021645, 0.0977066159248352, -0.08330187946557999, 0.2010338455438614, -0.09531519562005997, 0.09154511243104935, -0.13509181141853333, 0.09314920008182526, -0.1071457639336586, -0.16493554413318634, 0.05482048541307449, 0.3217811584472656, -0.167699933052063, 0.06459218263626099, 0.04369098320603371, -0.04124462604522705, 0.16636547446250916], [-0.24173589050769806, 0.24357692897319794, -0.3923870027065277, 0.1699109524488449, -0.20237493515014648, 0.1906857043504715, 0.07853847742080688, -0.22143220901489258, 0.4578293561935425, -0.2196621596813202, 0.0385231152176857, -0.11121455579996109, -0.1483098715543747, -0.2970607578754425, -0.039588723331689835, -0.009830113500356674, -0.08643409609794617, -0.28961706161499023, -0.09549583494663239, -0.1038815900683403, -0.07573827356100082, -0.07082664966583252, -0.008494690991938114], [-0.17666514217853546, -0.09986415505409241, 0.054067060351371765, 0.07656890898942947, 0.007284864783287048, -0.030819471925497055, -0.1967073529958725, -0.11623480916023254, 0.1631557047367096, -0.18688370287418365, -0.08838188648223877, 0.05440490320324898, -0.1398048996925354, 0.23886235058307648, -0.021999428048729897, -0.13969051837921143, -0.10783205926418304, -0.1058567464351654, 0.1555141806602478, -0.07757917046546936, 0.15708601474761963, 0.01883215643465519, -0.08611158281564713], [0.013047400861978531, 0.09298676252365112, -0.07832557708024979, -0.11464298516511917, 0.1904447227716446, -0.002544122515246272, 0.16498613357543945, -0.1279560625553131, 0.035210981965065, 0.027599047869443893, 0.162859246134758, 0.008531688712537289, 0.3207237422466278, -0.026414308696985245, 0.11176036298274994, -0.22447817027568817, 0.14965440332889557, -0.2556125223636627, 0.22183217108249664, -0.05501755699515343, 0.033031631261110306, -0.0489979088306427, -0.24096420407295227], [-0.031213799491524696, 0.08372515439987183, 0.13819538056850433, -0.11487221717834473, -0.04289330169558525, -0.04434525966644287, 0.0526232086122036, -0.002530213911086321, 0.4919649660587311, 0.04762350022792816, 0.0034308491740375757, 0.43962693214416504, 0.09352828562259674, -0.0442696139216423, -0.03834370896220207, -0.10290461778640747, 0.11672788113355637, -0.36913758516311646, -0.024012871086597443, 0.14459426701068878, 0.07353661209344864, 0.1078517958521843, -0.06435783952474594], [0.0015114482957869768, 0.05286945775151253, 0.050088293850421906, -0.22977006435394287, 0.039177536964416504, 0.060416966676712036, -0.09282668679952621, 0.20090679824352264, 0.01827116310596466, -0.020073385909199715, -0.11050685495138168, 0.052512794733047485, -0.0866255909204483, -0.007814936339855194, 0.06017187237739563, 0.04458426311612129, 0.09153680503368378, 0.43225038051605225, -0.08672740310430527, 0.005837266333401203, 0.10721107572317123, -0.06522639095783234, -0.1320551484823227], [-0.011863662861287594, 0.1283709704875946, 0.16668738424777985, -0.042073678225278854, -0.10402455925941467, 0.09034863114356995, 0.06870340555906296, 0.10190872102975845, 0.4033123552799225, 0.42072564363479614, -0.11181444674730301, -0.5607380270957947, 0.12754863500595093, 0.12479565292596817, -0.06068553030490875, -0.04630544036626816, 0.005627629812806845, 0.12035226076841354, -0.08387302607297897, -0.04665887728333473, 0.08691474795341492, -0.011164453811943531, -0.0421670600771904], [-0.029489653185009956, 0.01792970485985279, 0.19180576503276825, -0.12303783744573593, 0.009826666675508022, 0.12927837669849396, 0.13429158926010132, -0.09619305282831192, -0.036854200065135956, -0.13905896246433258, -0.1343691498041153, -0.3548581004142761, 0.2849189341068268, 0.25794297456741333, 0.06944165378808975, -0.08360658586025238, 0.07316509634256363, 0.22717490792274475, -0.12579908967018127, -0.10380756855010986, 0.23600982129573822, -0.05256522819399834, -0.16135463118553162], [-0.026690814644098282, 0.17139433324337006, 0.11970385909080505, 0.06806843727827072, 0.1322379857301712, 0.09994832426309586, -0.12682676315307617, -0.14105188846588135, -0.07238595932722092, -0.02237136848270893, -0.04609231650829315, 0.17094245553016663, 0.04201875627040863, 0.05994940176606178, -0.007668633479624987, -0.09866923093795776, 0.06623374670743942, -0.3468899130821228, 0.12007211148738861, -0.051027413457632065, -0.08745022863149643, 0.0929805263876915, 0.1830253005027771], [-0.08750791102647781, -0.03760382533073425, -0.023790709674358368, 0.17702533304691315, -0.12223006039857864, 0.12314926087856293, -0.1452208310365677, 0.15977226197719574, -0.1741873323917389, 0.15348243713378906, 0.11769984662532806, -0.07871155440807343, 0.11095314472913742, 0.13716842234134674, -0.12357411533594131, -0.10996819287538528, 0.13845816254615784, -0.06795146316289902, 0.06756830215454102, -0.1745603233575821, -0.12486114352941513, 0.025996409356594086, -0.034061845391988754], [0.08914721757173538, -0.05361583083868027, 0.20012915134429932, -0.09490571916103363, -0.15993840992450714, -0.012463618069887161, 0.11966169625520706, -0.14702527225017548, -0.17592883110046387, 0.12621836364269257, 0.09682878106832504, 0.4139423072338104, 0.2533736824989319, 0.034240949898958206, 0.19241580367088318, 0.02469589002430439, 0.14331378042697906, 0.13024801015853882, -0.1633930653333664, 0.13968828320503235, 0.11684802174568176, -0.09192601591348648, -0.06014291197061539], [0.08063533902168274, 0.01877114363014698, -0.08150476217269897, -0.04487095773220062, 0.030407195910811424, -0.17906108498573303, -0.031551145017147064, 0.0017552257049828768, -0.27296528220176697, 0.537905752658844, 0.18080340325832367, 0.21469663083553314, -0.00712809432297945, 0.21264071762561798, -0.25442564487457275, -0.042250171303749084, -0.1471673995256424, -0.07870443165302277, -0.03298952430486679, 0.01783123053610325, -0.15964464843273163, -0.17379024624824524, -0.1521831452846527], [-0.1747121512889862, 0.0016124157700687647, 0.16027167439460754, 0.21738959848880768, 0.12217003852128983, 0.016150634735822678, 0.12334515154361725, -0.11565762758255005, 0.30215004086494446, 0.29460805654525757, -0.06889984756708145, 0.55146324634552, -0.032713036984205246, -0.09238287806510925, 0.17984700202941895, 0.052593667060136795, -0.09278429299592972, 0.12887215614318848, -0.027377979829907417, 0.00453450670465827, 0.19231177866458893, -0.06332935392856598, 0.16115492582321167], [0.18090027570724487, 0.0006368000758811831, -0.1432405561208725, -0.1513551026582718, -0.10605968534946442, -0.005877474322915077, -0.10115931928157806, -0.16351373493671417, -0.025030119344592094, 0.4896313548088074, -0.12026192247867584, 0.14750425517559052, 0.037663158029317856, 0.2932471036911011, 0.018378479406237602, -0.024932080879807472, -0.011551407165825367, -0.20348885655403137, -0.06900034844875336, -0.2609427273273468, 0.1593547761440277, -0.059824440628290176, 0.14873245358467102], [0.06244960054755211, -0.2122274786233902, 0.08010958880186081, 0.15509910881519318, 0.05498255789279938, 0.053943533450365067, 0.05436241254210472, 0.08131416887044907, -0.3558174669742584, 0.04520333930850029, -0.1673249900341034, -0.10450542718172073, -0.2299438863992691, -0.11383669078350067, 0.09216014295816422, -0.12026745826005936, -0.05093345791101456, 0.11805512011051178, 0.12390586733818054, 0.07378877699375153, 0.038999736309051514, -0.01332629844546318, -0.032906629145145416], [-0.06265119463205338, -0.04209189862012863, -0.08934182673692703, -0.05943727493286133, 0.012881346978247166, 0.11224233359098434, 0.07656003534793854, 0.18539124727249146, 0.34782952070236206, 0.20343366265296936, 0.17199163138866425, 0.27015921473503113, 0.1740744560956955, 0.1537809520959854, 0.047393105924129486, -0.14072971045970917, -0.01986975595355034, 0.018445536494255066, 0.20418094098567963, -0.32995039224624634, -0.06484173983335495, 0.03881856054067612, -0.1493118703365326], [0.17501437664031982, 0.04882984608411789, 0.21335427463054657, 0.2858012914657593, 0.1125842034816742, 0.03412246331572533, -0.07036438584327698, 0.01445702277123928, -0.2536734938621521, 0.13262580335140228, -0.013145518489181995, -0.18413907289505005, 0.23139184713363647, 0.03144683688879013, 0.030308473855257034, -0.01363034825772047, 0.14803273975849152, 0.003657338209450245, -0.17989979684352875, 0.05204112455248833, -0.10288432240486145, 0.13420075178146362, -0.07902402430772781], [-0.12456424534320831, -0.07320858538150787, -0.10019483417272568, 0.11487922817468643, -0.015378973446786404, -0.08605707436800003, 0.01732856035232544, 0.0992041751742363, 0.09903626143932343, 0.24745744466781616, 0.07298780977725983, -0.03324782848358154, 0.27013537287712097, -0.1367359161376953, -0.015242989175021648, -0.006915713660418987, 0.11469326913356781, -0.05882030352950096, 0.0410643145442009, 0.24331362545490265, 0.04080422222614288, 0.1283227801322937, -0.14113959670066833], [0.27390486001968384, 0.04655886068940163, -0.015371264889836311, 0.10737051069736481, -0.033661264926195145, 0.09274856001138687, -0.2211606204509735, 0.06345384567975998, 0.19288469851016998, 0.001367483870126307, 0.04100960120558739, -0.06810878217220306, 0.03243329003453255, -0.3496878743171692, -0.10929621011018753, -0.025998584926128387, 0.12528349459171295, -0.20913442969322205, -0.012479332275688648, 0.01568455435335636, -0.13880674540996552, 0.09434844553470612, -0.11529318988323212], [0.15641671419143677, -0.1145850121974945, 0.1455383449792862, -0.06555582582950592, -0.027406951412558556, 0.050835151225328445, 0.021004568785429, 0.11986587196588516, -0.05001576244831085, -0.00694537628442049, -0.0026154823135584593, 0.08061416447162628, -0.19899317622184753, -0.8236589431762695, 0.039578165858983994, 0.08160549402236938, -0.18532530963420868, 0.3990398347377777, -0.20160962641239166, 0.02144363336265087, -0.07179832458496094, 0.027561794966459274, 0.1875460296869278], [0.008776134811341763, -0.1398726999759674, 0.26053881645202637, 0.28288504481315613, 0.11917347460985184, -0.14186687767505646, -0.201583594083786, 0.06022888794541359, -0.1979408860206604, 0.07850877195596695, -0.22757881879806519, 0.15673881769180298, -0.10193021595478058, -0.19486603140830994, 0.16504013538360596, 0.08394256979227066, -0.20053380727767944, -0.16412122547626495, 0.1979205161333084, -0.07295126467943192, -0.04119769483804703, 0.1103338822722435, 0.17532221972942352], [0.17502577602863312, -0.04731046035885811, 0.05294758453965187, 0.08011116087436676, 0.0011006247950717807, -0.08589670807123184, -0.05190519243478775, -0.08124424517154694, -1.109105110168457, -0.20996280014514923, -0.04108816385269165, 0.14275118708610535, -0.003340509021654725, -0.13738077878952026, 0.0054048290476202965, 0.11758685111999512, 0.1362723857164383, -0.023901818320155144, 0.031034762039780617, -0.33470553159713745, 0.1589203178882599, -0.022754916921257973, -0.18950717151165009], [0.06936298310756683, 0.03260168433189392, -0.06608649343252182, 0.04575455188751221, -0.03838644176721573, 0.03676772862672806, -0.1390964537858963, 0.09333115816116333, -0.07438043504953384, -0.1878841072320938, -0.05051743611693382, 0.02102617919445038, 0.2775937616825104, 0.06429939717054367, 0.14608801901340485, 0.13990278542041779, 0.07227034866809845, 0.23642337322235107, -0.05985129997134209, 0.18056157231330872, 0.05394755303859711, -0.040369946509599686, 0.04651481658220291], [0.05866875872015953, 0.09462576359510422, 0.034787897020578384, -0.10121361911296844, 0.11896347254514694, 0.16137881577014923, -0.00522497808560729, 0.015725411474704742, -0.12600335478782654, -0.13706739246845245, -0.12553691864013672, 0.5283157825469971, 0.1349174976348877, 0.030910326167941093, 0.041984524577856064, 0.06751404702663422, -0.15948818624019623, 0.16230183839797974, 0.10033755004405975, 0.05343306437134743, 0.1961432248353958, 0.03126765042543411, -0.2010326385498047], [-0.18320077657699585, 0.045490920543670654, -0.16720923781394958, -0.01993444189429283, 0.09946948289871216, -0.06987091898918152, -0.15444201231002808, -0.20680157840251923, 0.02169177308678627, -0.16584867238998413, -0.2530352473258972, -0.451045960187912, 0.08721597492694855, 0.18675343692302704, 0.16535630822181702, -0.05820721015334129, -0.17372387647628784, 0.04847302660346031, -0.04403751716017723, 0.05422087758779526, 0.12683351337909698, -0.04062853381037712, 0.11373943835496902], [-0.06344306468963623, 0.15166716277599335, -0.05290134623646736, 0.0048087588511407375, -0.1686844527721405, 0.16521456837654114, -0.001946425181813538, -0.12584012746810913, -0.2737368941307068, -0.4102473855018616, -0.048684120178222656, -0.02980186603963375, -0.042130857706069946, -0.03898873180150986, -0.06692880392074585, 0.14902567863464355, -0.18587037920951843, 0.21335120499134064, -0.09592672437429428, -0.2350502759218216, 0.0529232919216156, 0.15549692511558533, -0.12947113811969757], [0.16236306726932526, -0.11187855899333954, -0.1452013999223709, 0.12778766453266144, 0.1231779009103775, -0.14441369473934174, -0.013427261263132095, 0.08945976197719574, 0.027450015768408775, -0.144818976521492, -0.05744069069623947, -0.07985421270132065, 0.25562772154808044, 0.06769674271345139, -0.02090112678706646, 0.16426566243171692, -0.027528880164027214, 0.1287730634212494, 0.0974588394165039, 0.023039698600769043, 0.19692648947238922, -0.25716432929039, 0.008974941447377205], [-0.15050171315670013, -0.06021122634410858, -0.12619799375534058, -0.15410633385181427, -0.13266165554523468, 0.009119473397731781, -0.1967029869556427, 0.1237768605351448, 0.032237689942121506, -0.07220175117254257, -0.11077265441417694, -0.8326919674873352, 0.18858131766319275, -0.04629276692867279, -0.11753026396036148, -0.16980507969856262, 0.029164951294660568, -0.16345155239105225, -0.03887258097529411, -0.022096091881394386, 0.007582294289022684, -0.10240402072668076, -0.06875185668468475], [-0.036011092364788055, -0.04650173708796501, 0.13793037831783295, -0.11523939669132233, 0.1775079071521759, -0.019500184804201126, 0.09072963148355484, 0.050023749470710754, -0.337050199508667, 0.4041137993335724, 0.0026254653930664062, -0.08946584165096283, 0.14229077100753784, 0.15094029903411865, 0.10767205059528351, 0.057605013251304626, 0.177743598818779, -0.22931203246116638, -0.1691748946905136, -0.10158669948577881, 0.09694533050060272, -0.06358438730239868, -0.14693762362003326], [-0.014146918430924416, -0.10507237911224365, 0.012417182326316833, -0.11437104642391205, -0.13793016970157623, -0.05258741229772568, 0.0672464594244957, 0.15186108648777008, 0.019156692549586296, -0.18727776408195496, -0.15503272414207458, -0.007356713060289621, -0.19070257246494293, -0.006810789927840233, 0.019361503422260284, 0.08219294250011444, -0.12463130801916122, 0.3151772618293762, -0.10235528647899628, 0.08236631751060486, 0.20953361690044403, -0.12365469336509705, -0.1565651297569275], [0.02632753923535347, -0.02389361336827278, 0.1155305951833725, -0.0889432281255722, -0.01411224901676178, -0.0643707886338234, -0.08443628251552582, 0.018555566668510437, -0.1821814924478531, -0.03542141988873482, 0.07852231711149216, -0.541075587272644, 0.4372096657752991, -0.048558689653873444, -0.0860486850142479, 0.06067841500043869, -0.004273588303476572, 0.09982874244451523, -0.017771735787391663, 0.008136351592838764, -0.06419966369867325, -0.016053639352321625, 0.039634570479393005], [-0.14977362751960754, -0.10951181501150131, -0.0680401399731636, 0.12179499864578247, 0.22900153696537018, 0.06409518420696259, 0.05779814347624779, 0.14799582958221436, -0.025844020769000053, 0.05167659744620323, 0.0669681653380394, 0.23524968326091766, -0.11205745488405228, -0.20794108510017395, 0.017324144020676613, 0.2301482856273651, -0.17194810509681702, -0.019387617707252502, -0.1606297791004181, -0.28479570150375366, 0.028969446197152138, -0.07158730179071426, -0.1477936953306198], [-0.09171196073293686, -0.05712435394525528, 0.10049349069595337, 0.04198749363422394, -0.08701834082603455, 0.1311700940132141, 0.16905148327350616, -0.22728921473026276, 0.15587785840034485, -0.1033005639910698, 0.08648158609867096, 0.08942940086126328, 0.11342312395572662, -0.10370459407567978, -0.10517225414514542, 0.10756803303956985, -0.044305469840765, -0.06116415932774544, 0.11721434444189072, 0.19005326926708221, -0.17339248955249786, 0.18232771754264832, -0.09902767091989517], [-0.2535390257835388, 0.11522357910871506, -0.1696462631225586, 0.11560303717851639, -0.08261249959468842, 0.04067094251513481, 0.00035236115218140185, 0.15436534583568573, -0.21160268783569336, -0.2677120268344879, 0.09790894389152527, -0.23154456913471222, -0.06207529827952385, -0.0168608408421278, 0.05584455654025078, 0.07665052264928818, 0.02465641498565674, 0.10522906482219696, -0.02681068517267704, -0.0563494972884655, -0.08262399584054947, -0.028990264981985092, 0.0680212453007698], [0.016370464116334915, 0.08474453538656235, -0.01768741011619568, -0.032272499054670334, -0.021226268261671066, 0.06304632127285004, -0.020972566679120064, -0.07354716956615448, -1.1022148132324219, -0.406242698431015, 0.13957713544368744, 0.14813493192195892, -0.08831202983856201, 0.13021793961524963, -0.06270023435354233, -0.01399772334843874, -0.06792429834604263, 0.002025455702096224, -0.03644227981567383, -0.0361822247505188, -0.13784699141979218, -0.05175991728901863, 0.06730857491493225], [-0.046016331762075424, 0.12331152707338333, -0.03446636721491814, 0.0649273693561554, 0.12529222667217255, -0.06352858990430832, -0.04726136103272438, -0.2095954567193985, -0.11519332230091095, 0.04055994749069214, 0.07999695837497711, 0.13951770961284637, -0.20201852917671204, 0.13177023828029633, 0.28362560272216797, -0.02485697530210018, 0.037638213485479355, -0.02787618711590767, 0.13141827285289764, 0.08554999530315399, -0.17625723779201508, -0.08060356974601746, 0.1424195021390915], [0.13403752446174622, 0.04885198175907135, 0.17924614250659943, 0.10409022867679596, -0.05807830020785332, 0.19569559395313263, -0.050399284809827805, 0.17624355852603912, -0.1317630261182785, 0.3647679388523102, 0.010604333132505417, 0.41385695338249207, -0.32878348231315613, 0.06398750096559525, 0.03107457235455513, 0.018643174320459366, 0.11105848103761673, 0.08112867176532745, 0.01255793683230877, -0.44766977429389954, -0.004410757217556238, 0.1306750476360321, 0.036351557821035385], [-0.17090676724910736, -0.0968078225851059, -0.12883423268795013, 0.1084710955619812, -0.012772709131240845, 0.19351837038993835, -0.16339217126369476, -0.17411023378372192, -0.05436117202043533, 0.13449597358703613, 0.14982539415359497, -0.015389672480523586, 0.044777095317840576, -0.0711737871170044, -0.09066413342952728, 0.184698686003685, -0.10348299145698547, -0.18942178785800934, 0.004113703966140747, 0.16832926869392395, -0.20210397243499756, -0.17871800065040588, -0.03374166414141655], [-0.11626537889242172, 0.1811869591474533, 0.014647398144006729, 0.10080806910991669, -0.10233686119318008, 0.14539338648319244, 0.07512452453374863, -0.008402411825954914, 0.18563392758369446, 0.12215307354927063, -0.09701886028051376, 0.1401519924402237, 0.18930450081825256, -0.12705108523368835, 0.0557364746928215, 0.11691294610500336, -0.18447059392929077, -0.10453671962022781, -0.13705658912658691, -0.07012180984020233, -0.2027527093887329, -0.1544893980026245, 0.09338493645191193], [0.2569824457168579, 0.09312424808740616, -0.04668222740292549, -0.1980999857187271, -0.13037143647670746, -0.08241400122642517, 0.15052840113639832, 0.027997858822345734, 0.11601066589355469, -0.03752648085355759, -0.12295852601528168, -0.181099534034729, -0.17454540729522705, -0.14125102758407593, -0.10321249812841415, 0.02655438706278801, 0.16300582885742188, 0.08899381011724472, 0.28383558988571167, 0.005509448703378439, 0.19234821200370789, 0.05942165106534958, -0.10361190140247345], [0.10312703996896744, -0.17052264511585236, -0.18326769769191742, 0.09832750260829926, 0.0239860936999321, 0.17902597784996033, -0.13662050664424896, -0.08350127935409546, 0.0999363362789154, -0.083404541015625, -0.19161902368068695, -0.05169077217578888, 0.07743410021066666, -0.002285165246576071, 0.0003466785419732332, 0.020759226754307747, -0.11051145941019058, -0.11045066267251968, 0.19498389959335327, 0.005916751455515623, -0.13036487996578217, 0.009916567243635654, -0.03805313631892204], [-0.03225909173488617, -0.07454947382211685, 0.13614554703235626, -0.1729707419872284, -0.08721334487199783, -0.007752589415758848, 0.00737270200625062, -0.15833652019500732, 0.2882870137691498, 0.2291134148836136, 0.1632142812013626, -0.16582700610160828, -0.034047335386276245, -0.027566181495785713, 0.02053181640803814, -0.1884947419166565, 0.06110583245754242, -0.16055984795093536, 0.05892152339220047, 0.059274643659591675, 0.0269026979804039, -0.07221345603466034, -0.07402141392230988], [-0.11290555447340012, 0.1304994374513626, -0.06215951591730118, 0.12182770669460297, -0.17602477967739105, 0.07339306175708771, -0.14875036478042603, 0.15306860208511353, 0.230098158121109, -0.08072418719530106, -0.026175644248723984, 0.21254020929336548, 0.22543518245220184, 0.15228486061096191, -0.003389276098459959, 0.0636226162314415, 0.021315932273864746, -0.17615200579166412, -0.2360331416130066, -0.07267487049102783, -0.16667935252189636, -0.15411677956581116, -0.14505115151405334], [-0.08170401304960251, -0.13478915393352509, -0.18287906050682068, 0.0937652438879013, 0.07712893933057785, -0.08772285282611847, -0.12794794142246246, 0.1000407412648201, 0.7920684218406677, 0.330243319272995, -0.002775585511699319, -0.03635236248373985, 0.009512149728834629, 0.012834950350224972, 0.11768922209739685, -0.00574290519580245, 0.11845149844884872, 0.2239697128534317, 0.016083436086773872, 0.18087202310562134, 0.04104628041386604, 0.03894108161330223, -0.17495615780353546], [-0.08796675503253937, 0.1682930439710617, 0.07415260374546051, -0.17969569563865662, 0.12628228962421417, -0.1733786016702652, -0.014274118468165398, 0.09320037811994553, -0.4679401218891144, 0.5445360541343689, 0.140903040766716, -0.12988844513893127, 0.040028542280197144, -0.0587906539440155, -0.0665736123919487, -0.03435715287923813, 0.14615879952907562, -0.06956617534160614, 0.13274800777435303, -0.06190379709005356, 0.09796612709760666, 0.04994657635688782, -0.1974676251411438], [-0.026209674775600433, -0.17131613194942474, 0.10494067519903183, 0.029494278132915497, -0.0200272835791111, 0.04866138845682144, -0.04841703549027443, -0.013757146894931793, -0.055597953498363495, -0.12462995946407318, 0.11650533229112625, 0.10586318373680115, 0.321714848279953, 0.17810559272766113, -0.01455561351031065, -0.15573757886886597, 0.057270877063274384, 0.12706570327281952, 0.01552952453494072, 0.0007485122187063098, -0.07356983423233032, -0.012060349807143211, 0.0794750303030014], [-0.1537429243326187, 0.17007867991924286, 0.2109602987766266, 0.04551461711525917, 0.19564390182495117, 0.04370318725705147, -0.012827727012336254, 0.20233304798603058, 0.5246607065200806, -0.12619003653526306, -0.147210031747818, -0.1445818543434143, 0.1989804208278656, -0.13890504837036133, 0.004524523857980967, -0.06785470247268677, 0.21119581162929535, 0.06515534222126007, -0.017686009407043457, -0.03157774358987808, -0.06483327597379684, 0.14198201894760132, -0.23299601674079895], [-0.18244753777980804, 0.18995974957942963, -0.032167188823223114, -0.057853370904922485, 0.09128329157829285, -0.026355504989624023, 0.21844685077667236, 0.09004250168800354, 0.18618258833885193, 0.2790297865867615, 0.22312170267105103, 0.23747535049915314, 0.06634172052145004, 0.022619592025876045, 0.1963864117860794, 0.37285470962524414, -0.006074662320315838, 0.11455591768026352, 0.025285961106419563, 0.15989042818546295, 0.004510074388235807, -0.09646692872047424, 0.08205372095108032], [0.1132013350725174, -0.16433048248291016, -0.09530607610940933, 0.17396454513072968, -0.05069568008184433, 0.1105165109038353, 0.1533161997795105, -0.05445979908108711, 0.03083041124045849, -0.25895586609840393, 0.10159207135438919, 0.10504119843244553, -0.08569464087486267, 0.056082919239997864, -0.023570097982883453, 0.022065119817852974, 0.08477532863616943, -0.2983796298503876, -0.1580197662115097, 0.12831024825572968, -0.1170138493180275, -0.21357040107250214, 0.18032009899616241], [0.1308395266532898, -0.12609145045280457, -0.06826554983854294, -0.05233984813094139, -0.24077127873897552, -0.0941455289721489, 0.002484390512108803, -0.0579807311296463, -0.2044462263584137, 0.30716586112976074, 0.13778124749660492, 0.15694308280944824, 0.17906562983989716, -0.12167767435312271, -0.11354436725378036, 0.06581000238656998, -0.12495513260364532, 0.053852345794439316, 0.051355257630348206, -0.16562649607658386, 0.07718644291162491, 0.008566051721572876, 0.12367016822099686], [0.11070067435503006, 0.02219047211110592, -0.10632166266441345, 0.011577021330595016, 0.22661952674388885, -0.15655627846717834, 0.07002751529216766, 0.020136043429374695, 0.2177022397518158, 0.0496637299656868, 0.08203884959220886, 0.3344806134700775, 0.27829164266586304, 0.05106978863477707, -0.0931326150894165, 0.2129180133342743, -0.08610223233699799, 0.1800878345966339, -0.12521173059940338, 0.13972322642803192, 0.0560559406876564, 0.07017501443624496, -0.22159284353256226], [-0.22536760568618774, -0.08374883234500885, 0.062410932034254074, -0.0032687594648450613, -0.06850582361221313, -0.13944411277770996, 0.083014115691185, 0.2280258983373642, 0.013478949666023254, -0.0426756925880909, -0.02240917645394802, -0.26604756712913513, -0.14603950083255768, -0.15864261984825134, 0.04882071539759636, 0.04022853448987007, 0.017405785620212555, 0.42404788732528687, -0.08645330369472504, -0.036906566470861435, -0.050506480038166046, 0.014006651006639004, 0.19497449696063995], [0.23544083535671234, -0.0062073953449726105, 0.09597772359848022, -0.06853213906288147, 0.03029121831059456, -0.22056640684604645, -0.05205890163779259, -0.10371994972229004, -0.04835858941078186, 0.10429311543703079, -0.12440816313028336, 0.1984284222126007, 0.3296329379081726, -0.028655709698796272, -0.017424046993255615, 0.06856934726238251, 0.008014987222850323, 0.3759959638118744, 0.15021249651908875, 0.06913825869560242, 0.1415894329547882, 0.06536548584699631, -0.22413258254528046], [-0.016944656148552895, -0.06051496043801308, 0.1583423912525177, -0.06760745495557785, -0.004618404433131218, -0.038685403764247894, 0.10862397402524948, 0.1699390560388565, 0.1409015953540802, -0.004620757885277271, 0.17948348820209503, 0.04657376557588577, -0.01099564041942358, 0.10205020755529404, -0.0963873639702797, 0.3025800585746765, 0.2507823407649994, -0.06812884658575058, 0.20631514489650726, 0.07832536101341248, 0.10449685901403427, 0.1270386129617691, 0.1330842226743698], [-0.000299618550343439, 0.14213082194328308, 0.18583425879478455, 0.035437170416116714, -0.0695158913731575, -0.14381788671016693, -0.053441137075424194, 0.02522624284029007, -0.022832155227661133, -0.05339472368359566, -0.009217378683388233, 0.18987247347831726, -0.025549745187163353, -0.07836849987506866, 0.09872433543205261, 0.042768169194459915, 0.10731776058673859, 0.08136426657438278, 0.09864026308059692, 0.026124414056539536, 0.0009518077713437378, 0.013019316829741001, 0.023602647706866264], [0.19613532721996307, 0.0861029401421547, 0.041616808623075485, -0.09175506234169006, -0.2822760045528412, -0.10932758450508118, -0.03572559356689453, -0.05158816650509834, 0.2482765018939972, -0.22454549372196198, 0.1702171266078949, 0.03984243422746658, -0.12879037857055664, 0.12188676744699478, 0.06523160636425018, 0.06292417645454407, -0.19517865777015686, 0.2546873986721039, 0.06187725439667702, 0.10171937942504883, -0.07957211136817932, -0.1429821401834488, -0.13227632641792297], [-0.1172880157828331, -0.04699645936489105, -0.17880763113498688, -0.23085415363311768, -0.21028047800064087, -0.11295470595359802, -0.1410554051399231, 0.17235702276229858, 0.03465748205780983, -0.18840090930461884, -0.019619431346654892, -0.1037222295999527, -0.18120114505290985, -0.19815802574157715, -0.024662364274263382, 0.15049830079078674, 0.12766461074352264, -0.3675599992275238, -0.0019123503006994724, -0.06597544252872467, -0.14097152650356293, -0.08779925107955933, 0.09948208928108215], [-0.011137627065181732, 0.04380899667739868, 0.14108847081661224, -0.08952606469392776, -0.01858624257147312, -0.08510438352823257, 0.009254386648535728, -0.16054213047027588, -0.029989197850227356, -0.05020143836736679, 0.07557597756385803, -0.5439637899398804, -0.3183332085609436, 0.04565158486366272, -0.00390274147503078, -0.06708808988332748, 0.1533936709165573, 0.029821475967764854, -0.030699685215950012, 0.12506608664989471, -0.05792795121669769, -0.002157326089218259, -0.15398243069648743], [-0.09308937191963196, 0.035798780620098114, 0.027215920388698578, 0.003191614057868719, 0.13771255314350128, -0.012260079383850098, -0.0005880410899408162, 0.13090594112873077, -0.674854040145874, -0.2837682068347931, -0.016745125874876976, -0.08384795486927032, -0.11987350881099701, -0.15694838762283325, 0.036673590540885925, 0.08414527773857117, -0.2596569061279297, 0.06366242468357086, 0.0480162687599659, 0.1031753197312355, 0.09870355576276779, -0.005477108992636204, 0.2256135493516922], [0.11824002861976624, 0.1260567158460617, -0.03803844377398491, 0.016309848055243492, 0.019371548667550087, -0.21362942457199097, 0.1281101256608963, -0.07875087857246399, -0.0013001880142837763, -0.0015383391873911023, -0.18777473270893097, -0.10559779405593872, 0.3404930830001831, -0.1534792184829712, 0.058669816702604294, -0.15861105918884277, -0.04249442741274834, -0.10322140157222748, 0.09729760885238647, -0.09252675622701645, 0.10574019700288773, 0.12422527372837067, -0.13226550817489624], [0.014713475480675697, -0.05468913912773132, -0.1705840528011322, -0.09089377522468567, -0.09032376110553741, 0.23091475665569305, 0.18218667805194855, 0.07593801617622375, -0.17792177200317383, -0.16122575104236603, -0.010324417613446712, 0.11899790167808533, -0.2494160383939743, -0.0657770037651062, 0.2341235727071762, -0.04968317225575447, -0.1527547836303711, -0.19523534178733826, 0.1680697351694107, 0.0402616411447525, 0.13986948132514954, 0.22447359561920166, 0.05490735173225403], [-0.023014528676867485, 0.17077669501304626, 0.16402797400951385, -0.1800917237997055, 0.007296535652130842, 0.13133589923381805, -0.11645067483186722, 0.13453765213489532, 0.01568443700671196, 0.04053565114736557, 0.04366285726428032, 0.4167068898677826, 0.4090949594974518, 0.14687414467334747, -0.0014055289793759584, -0.16402669250965118, -0.013205509632825851, 0.06641963869333267, 0.0763387680053711, 0.020562047138810158, 0.1719171553850174, -0.1799180954694748, -0.16231808066368103], [0.1243450790643692, 0.04972367733716965, 0.020213527604937553, -0.12880882620811462, -0.06900513917207718, 0.10871199518442154, -0.04180652275681496, 0.06722003221511841, -0.088077113032341, 0.013630772940814495, -0.039556555449962616, -0.08385076373815536, 0.03809543326497078, -0.18222706019878387, 0.014873613603413105, -0.08974967896938324, 0.2635709047317505, 0.30481067299842834, -0.12835155427455902, -0.06778409332036972, 0.01926462911069393, 0.0004875454178545624, -0.15208740532398224], [-0.0944841057062149, 0.1122901663184166, -0.1842241883277893, 0.07199269533157349, -0.027252011001110077, 0.1673223227262497, 0.12925779819488525, 0.048119403421878815, -0.07914426177740097, 0.035238999873399734, -0.18256589770317078, -0.4013313949108124, 0.1361647993326187, 0.19642119109630585, 0.17830201983451843, -0.1159755066037178, -0.16937443614006042, 0.035889219492673874, -0.15337996184825897, -0.0672418624162674, 0.11362120509147644, -0.12011000514030457, -0.09927383065223694], [-0.09594473987817764, -0.16220949590206146, -0.09915219992399216, 0.003914764616638422, -0.08095141500234604, 0.03231474384665489, 0.09702005237340927, -0.08505532890558243, 0.17234273254871368, -0.1596401184797287, 0.1430136263370514, 0.15395969152450562, -0.04152709245681763, 0.1474369615316391, -0.08218668401241302, -0.0583108551800251, 0.06838805973529816, 0.20853404700756073, -0.004154864698648453, -0.013935835100710392, 0.2577348053455353, -0.0643540471792221, 0.03699782118201256], [-0.15321363508701324, 0.004161566961556673, 0.20512402057647705, -0.1680656373500824, -0.16870692372322083, 0.12174899876117706, -0.1505793184041977, -0.16200946271419525, -0.04938498139381409, -0.004632233642041683, 0.07794579863548279, -0.021567609161138535, 0.0847776010632515, 0.21765483915805817, 0.008700696751475334, 0.12530560791492462, 0.20459596812725067, 0.06434701383113861, 0.07560539990663528, -0.17256911098957062, -0.05980321764945984, 0.1317075490951538, -0.20232632756233215], [-0.007404990028589964, -0.07589036226272583, 0.1376951038837433, -0.14173123240470886, -0.19725339114665985, -0.1530802845954895, -0.08894673734903336, -0.176070898771286, -0.35384809970855713, -0.06016215309500694, -0.05880586430430412, -0.1413453221321106, -0.0982896015048027, 0.2624535858631134, 0.1307138204574585, 0.07327016443014145, 0.02384161204099655, -0.2864319682121277, -0.23482485115528107, -0.003943031188100576, -0.003991114441305399, 0.21557530760765076, 0.12803266942501068], [0.22773553431034088, 0.08678014576435089, 0.217871755361557, 0.011065680533647537, -0.023487282916903496, -0.1405605673789978, 0.14570097625255585, 0.015716848894953728, 0.524756908416748, -0.06938918679952621, 0.15555594861507416, 0.32686924934387207, 0.22008147835731506, -0.13311767578125, 0.013618124648928642, -0.05766450613737106, 0.14873912930488586, 0.1783742606639862, -0.027614383026957512, -0.014306741766631603, -0.12842023372650146, -0.04958713799715042, 0.003063478972762823], [-0.01910421997308731, -0.09776419401168823, 0.025359759107232094, -0.10086190700531006, -0.009699809364974499, -0.10773713886737823, -0.019762063398957253, -0.20958147943019867, -0.18537397682666779, -0.01630817912518978, 0.07385455816984177, -0.6346644163131714, 0.14120525121688843, 0.07630796730518341, 0.07821565121412277, -0.17093025147914886, 0.23557530343532562, -0.2039845585823059, 0.06542540341615677, -0.02382628433406353, -0.023740477859973907, 0.07239129394292831, 0.10806989669799805], [-0.013766513206064701, -0.10878590494394302, 0.15500646829605103, 0.06179753690958023, 0.17846383154392242, -0.2239716798067093, 0.052260495722293854, -0.11191767454147339, -0.20479726791381836, 0.0725664496421814, 0.18206165730953217, -0.06171189621090889, -0.17987655103206635, -0.08305337280035019, -0.02374754473567009, 0.37272006273269653, 0.13034667074680328, 0.207026407122612, 0.044306136667728424, 0.02536606602370739, 0.10988106578588486, -0.10021023452281952, -0.06729132682085037], [-0.006804919335991144, 0.14188286662101746, -0.02846306562423706, 0.037414371967315674, -0.031084122136235237, -0.0378279983997345, 0.11747768521308899, 0.1380089819431305, 0.023817455396056175, -0.11459092795848846, -0.1857263743877411, 0.33748099207878113, 0.05566645786166191, 0.19096525013446808, 0.0641353577375412, -0.0731242448091507, -0.007501249201595783, -0.19160330295562744, 0.1590719074010849, -0.17628468573093414, -0.10295623540878296, -0.06303688138723373, 0.15240168571472168], [0.16632309556007385, 0.06407861411571503, 0.14000903069972992, -0.032122187316417694, -0.24979056417942047, 0.1586821973323822, 0.04873061180114746, -0.13784529268741608, 0.22035028040409088, -0.08072847127914429, -0.06647761166095734, 0.12903828918933868, -0.1812911331653595, -0.8058505654335022, 0.05219052731990814, -0.013947485014796257, 0.013630653731524944, -0.20896108448505402, -0.08666034042835236, 0.07866615056991577, 0.17250224947929382, -0.15179750323295593, 0.08570754528045654], [-0.09916811436414719, -0.09445274621248245, 0.01614360325038433, 0.04748009890317917, 0.09368003159761429, -0.1113499253988266, 0.21889527142047882, -0.037374768406152725, -0.22344928979873657, -0.12495671212673187, 0.09979484975337982, -0.3108334243297577, -0.03438480198383331, -0.14997689425945282, 0.08957657963037491, -0.11921119689941406, 0.018233647570014, 0.11246185004711151, 0.10007991641759872, -0.19237160682678223, -0.2186562418937683, 0.12267301231622696, -0.22502249479293823], [0.04016662761569023, 0.08142055571079254, -0.22632142901420593, 0.05496921390295029, 0.10232653468847275, 0.13677076995372772, -0.11300051212310791, -0.006432168185710907, -0.057200804352760315, -0.06788808107376099, -0.019827663898468018, 0.1549118012189865, -0.26660439372062683, -0.9184020757675171, -0.09417707473039627, -0.07840409129858017, 0.056871213018894196, 0.06105701997876167, -0.02079952135682106, 0.06403884291648865, -0.11128661036491394, 0.052927933633327484, 0.08681412786245346], [0.06839022785425186, 0.12011054158210754, 0.05795923247933388, -0.2112337201833725, 0.1536567211151123, -0.011576901189982891, -0.03058149851858616, -0.21276164054870605, -0.35078105330467224, 0.0308856014162302, -0.06036846339702606, -0.0647072121500969, -0.07984212040901184, 0.1658674031496048, -0.03609639033675194, -0.03150225430727005, -0.03157126158475876, -0.2002386599779129, 0.057152338325977325, -0.0359845794737339, 0.04928550124168396, 0.12396012246608734, -0.1416543573141098], [-0.22100980579853058, 0.2509324848651886, -0.316968709230423, 0.13177448511123657, 0.13833577930927277, 0.18435294926166534, 0.03854251280426979, -0.04409569129347801, 0.18828122317790985, -0.033029403537511826, -0.20983444154262543, 0.007294652052223682, -0.1152077242732048, 0.055430758744478226, 0.20615726709365845, 0.07623167335987091, -0.24641045928001404, 0.14653871953487396, -0.13695918023586273, 0.07512901723384857, -0.0689995065331459, 0.04366308078169823, -0.08208926022052765], [0.011687593534588814, -0.021902065724134445, 0.08953002095222473, 0.19392260909080505, 0.12282739579677582, -0.03414066508412361, 0.0774441808462143, 0.0658564642071724, -0.04044049233198166, -0.19423797726631165, -0.10048017650842667, 0.08827245235443115, -0.14474748075008392, -0.06415887176990509, 0.12622709572315216, 0.0743619054555893, 0.09782056510448456, 0.03695922717452049, 0.1939399391412735, -0.212591290473938, 0.16973373293876648, -0.08142887055873871, 0.12946178019046783], [0.16965116560459137, -0.14996083080768585, -0.16131092607975006, -0.25094521045684814, -0.19656187295913696, -0.061969563364982605, 0.0631449744105339, 0.0756760686635971, -0.007911892607808113, 0.03275051712989807, -0.1925186663866043, 0.20820702612400055, -0.09836073964834213, 0.15327002108097076, 0.0005904682911932468, -0.09491008520126343, 0.11270833015441895, -0.2791450023651123, 0.10092338174581528, 0.10139331966638565, 0.0052749039605259895, 0.09088975936174393, -0.11317215114831924], [0.05603738874197006, 0.08116445690393448, -0.07899071276187897, -0.1872272789478302, -0.054344527423381805, 0.08872735500335693, -0.04113629087805748, -0.16897746920585632, -0.11463487893342972, 0.15444354712963104, 0.17628881335258484, -0.5312279462814331, 0.2736985981464386, 0.018856525421142578, -0.09013238549232483, 0.12931644916534424, 0.08671968430280685, -0.02226617932319641, 0.0133865000680089, 0.03163641691207886, 0.2093161940574646, 0.08843042701482773, -0.18481384217739105], [0.17979580163955688, 0.009586728177964687, -0.12349238246679306, -0.02189948409795761, -0.08114603906869888, 0.15896260738372803, -0.1257278025150299, -0.015386139042675495, -0.29017290472984314, 0.09088761359453201, -0.12879975140094757, 0.10423621535301208, 0.006354040466248989, 0.015194259583950043, 0.05427456274628639, -0.044451117515563965, -0.1648632138967514, 0.36044323444366455, -0.18306180834770203, 0.12420473247766495, 0.05019097030162811, -0.10461436212062836, -0.11543447524309158], [0.10486945509910583, 0.006424269173294306, -0.08154232054948807, -0.017568213865160942, -0.13481010496616364, -0.20747089385986328, 0.04875744506716728, -0.1613054871559143, 0.19293168187141418, 0.16417257487773895, 0.14799074828624725, -0.02818683162331581, 0.2307933270931244, 0.14555475115776062, -0.01977553963661194, -0.06801880896091461, 0.03612339496612549, -0.06668079644441605, -0.14678211510181427, 0.022389041259884834, -0.07504163682460785, -0.08469778299331665, -0.15952332317829132], [-0.12691931426525116, -0.004056651145219803, 0.00529057951644063, 0.06497426331043243, 0.1008719876408577, 0.07093082368373871, 0.14127129316329956, 0.04365183413028717, 0.11596456915140152, -0.05541282519698143, 0.20808392763137817, 0.2543991208076477, 0.5142946839332581, -0.1538088619709015, 0.0011379799107089639, -0.10380367934703827, 0.29060736298561096, 0.28223955631256104, -0.18899358808994293, 0.06542190164327621, -0.13297820091247559, 0.028108512982726097, -0.25730040669441223], [-0.2246258407831192, 0.013798397034406662, 0.1740017682313919, 0.11031431704759598, 0.024709109216928482, -0.14435867965221405, 0.12540115416049957, -0.108009934425354, 0.12236249446868896, 0.10045072436332703, -0.12344241142272949, -0.06681890785694122, -0.05010833218693733, 0.06485918164253235, -0.04157591983675957, -0.027728784829378128, -0.051238395273685455, 0.007567747496068478, 0.26941269636154175, -0.18816275894641876, -0.1866605430841446, 0.3342410624027252, -0.1877671331167221], [0.03471192345023155, -0.0009422191069461405, -0.18095463514328003, -0.20970574021339417, -0.05378200113773346, -0.05662809684872627, -0.10774601250886917, -0.17359434068202972, -0.32934895157814026, 0.1737767904996872, 0.02466047927737236, 0.35171881318092346, -0.2694975733757019, 0.15129773318767548, -0.0662272647023201, -0.08195547759532928, -0.04780353233218193, 0.12673482298851013, 0.048097558319568634, -0.16623623669147491, -0.05500226467847824, 0.17343339323997498, 0.09457675367593765], [0.10477350652217865, 0.11837274581193924, -0.12350958585739136, -0.025600897148251534, 0.02343900129199028, -0.17234456539154053, -0.021888503804802895, -0.0025724295992404222, 0.042299263179302216, -0.07970962673425674, 0.03980771824717522, 0.3640599846839905, 0.21059733629226685, -0.02672015130519867, 0.052699729800224304, 0.0754440575838089, -0.09602001309394836, -0.03796057403087616, -0.02767918072640896, -0.0011114533990621567, -0.1614578813314438, 0.015290843322873116, 0.12269473075866699], [-0.14927278459072113, 0.12362165004014969, 0.03288792818784714, -0.08408107608556747, 0.0629611536860466, 0.16923317313194275, -0.05334164947271347, 0.08049548417329788, 0.2498375028371811, -0.10100845247507095, -0.06220494955778122, -0.2689048647880554, -0.20195437967777252, -0.2205670028924942, -0.14307759702205658, 0.033402495086193085, -0.19571316242218018, 0.04638315737247467, 0.028739938512444496, 0.12864987552165985, 0.13772162795066833, 0.06705733388662338, -0.017188403755426407], [-0.11801562458276749, 0.0721047967672348, 0.10326340049505234, -0.09232715517282486, 0.06976122409105301, -0.050738077610731125, -0.1648104041814804, -0.0023480455856770277, 0.051818594336509705, 0.057490356266498566, -0.013150698505342007, -0.5349094271659851, -0.1710553914308548, 0.09313620626926422, -0.15295939147472382, -0.0775136947631836, 0.13364218175411224, 0.09791667759418488, 0.03129738196730614, 0.10513819009065628, 0.01909772679209709, -0.015082912519574165, 0.01474219560623169], [0.007377509493380785, -0.10665874183177948, -0.19236284494400024, -0.14236502349376678, 0.13869093358516693, -0.1317063570022583, 0.012917574495077133, -0.0751643106341362, 0.010993603616952896, 0.2580944299697876, -0.03793109953403473, -0.4459773600101471, -0.17486676573753357, -0.3020179569721222, -0.02158191427588463, 0.01216943096369505, 0.015651967376470566, 0.24740982055664062, -0.01130293495953083, 0.15562696754932404, 0.00014909215678926557, 0.20534303784370422, -0.08794361352920532], [0.18483693897724152, 0.07074686139822006, -0.14761294424533844, 0.029563339427113533, 0.06092885136604309, -0.08861599862575531, 0.07319975644350052, 0.009115859866142273, 0.11470435559749603, -0.1353631168603897, 0.15514637529850006, 0.06114355847239494, -0.20198535919189453, 0.07197771221399307, 0.14535436034202576, 0.21686333417892456, -0.20268338918685913, -0.21979139745235443, 0.10459572076797485, -0.015512787736952305, 0.134272500872612, -0.03166734054684639, 0.08392173051834106], [-0.1601559817790985, 0.06586318463087082, -0.0454297810792923, -0.06147722154855728, -0.08186794817447662, 0.05411098897457123, -0.011444677598774433, -0.06500086933374405, 0.5742028951644897, -0.2852713167667389, -0.14532192051410675, -0.20657357573509216, -0.1841527372598648, 0.14617078006267548, -0.12960883975028992, 0.15591225028038025, 0.15953600406646729, 0.04441183805465698, 0.1436593383550644, -0.29912900924682617, 0.12477503716945648, 0.021549444645643234, 0.06195959076285362], [-0.06650852411985397, -0.05686115473508835, -0.07122888416051865, -0.06313066929578781, -0.025725342333316803, 0.12243715673685074, 0.13471722602844238, -0.12299328297376633, -0.053531281650066376, 0.09507269412279129, 0.12295190244913101, 0.09611088782548904, 0.09598087519407272, -0.1424175351858139, -0.09018828719854355, -0.15434110164642334, 0.2194458693265915, 0.1809343695640564, 0.41773495078086853, -0.2068955898284912, 0.10107862949371338, 0.18667052686214447, -0.004668514244258404], [-0.011780439876019955, -0.017606815323233604, -0.16387608647346497, -0.09834803640842438, 0.271433025598526, 0.06406727433204651, 0.13121150434017181, 0.16387507319450378, 0.1768667846918106, 0.4516783058643341, 0.03736036270856857, 0.08238286525011063, 0.11642809957265854, 0.10011330246925354, 0.13844549655914307, 0.08026528358459473, -0.19696156680583954, -0.06923393905162811, 0.048562489449977875, -0.14699365198612213, 0.19131797552108765, 0.11017191410064697, -0.10684692859649658], [0.06982073932886124, 0.046376947313547134, 0.13069792091846466, -0.17243976891040802, -0.010433615185320377, -0.015356496907770634, -0.050954144448041916, -0.1268583983182907, -0.5543845891952515, -0.1773855835199356, 0.15121424198150635, -0.428487092256546, 0.13343286514282227, 0.14356213808059692, 0.10490190982818604, 0.08107801526784897, -0.08753814548254013, 0.1709599494934082, -0.08210431784391403, 0.007918354123830795, 0.060286592692136765, -0.016435515135526657, -0.15081875026226044], [-0.08187462389469147, -0.09449843317270279, -0.08400538563728333, 0.10534638911485672, -0.1424223780632019, -0.15333986282348633, -0.16544799506664276, 0.21639233827590942, 0.026662703603506088, 0.1632595658302307, 0.0064345248974859715, -0.1959826797246933, -0.10404795408248901, -0.36955171823501587, -0.051909372210502625, 0.11968360841274261, -0.16773727536201477, 0.31345078349113464, -0.04575075954198837, 0.04470512270927429, -0.0030301259830594063, -0.25068554282188416, -0.14588703215122223], [-0.0969778522849083, -0.026670651510357857, 0.10810770094394684, 0.11003771424293518, 0.030038664117455482, 0.061416275799274445, -0.06871388107538223, 0.16980743408203125, -0.4069720506668091, -0.23847977817058563, 0.16261042654514313, 0.05839788168668747, 0.17539182305335999, -0.15957951545715332, 0.09925059229135513, 0.1543569713830948, -0.06224807724356651, -0.02836248278617859, 0.03463756665587425, 0.03875889629125595, 0.13194191455841064, 0.12196877598762512, 0.1857539564371109], [-0.10681504756212234, -0.0903201773762703, 0.06362908333539963, 0.164411723613739, -0.011459583416581154, 0.056449197232723236, 0.1282448172569275, -0.07205759733915329, 0.16894008219242096, -0.08724415302276611, -0.11292947083711624, -0.12938416004180908, 6.446031329687685e-05, 0.02530583180487156, -0.1262822151184082, 0.13493995368480682, 0.04289333149790764, 0.2337748408317566, 0.11457021534442902, -0.02732677012681961, 0.09164189547300339, -0.1362314373254776, -0.00926110241562128], [0.04240861162543297, -0.025552373379468918, -0.2224387228488922, -0.11523428559303284, -0.0011225377675145864, 0.08891021460294724, 0.06181824952363968, 0.22634001076221466, 0.013928869739174843, 0.2776545584201813, 0.0912899449467659, -0.09150729328393936, -0.05265374109148979, -0.2907381057739258, 0.07552336156368256, 0.002017311519011855, 0.09152282029390335, -0.12371250987052917, -0.15762534737586975, -0.06704942882061005, 0.005953031592071056, 0.03575301542878151, -0.08848509937524796], [0.12594476342201233, -0.007652647327631712, 0.018984287977218628, 0.04958894103765488, -0.03087029419839382, -0.10115702450275421, 0.026817990466952324, 0.11412670463323593, -0.9615141749382019, 0.1517016589641571, -0.018847085535526276, -0.07909607887268066, 0.03721974790096283, -0.23965421319007874, -0.12115942686796188, -0.10042830556631088, 0.15311013162136078, -0.05502443015575409, -0.01806718111038208, 0.08743226528167725, 0.007413455285131931, 0.03488248586654663, 0.04308950528502464], [-0.03971382975578308, 0.014364773407578468, -0.1799149215221405, 0.15796072781085968, 0.017668981105089188, -0.11397391557693481, 0.14830248057842255, -0.06875299662351608, -0.36194032430648804, 0.0008817058405838907, -0.07883872836828232, 0.10576336085796356, 0.02738841623067856, -0.2764226198196411, 0.15348094701766968, 0.04269852116703987, -0.0714249238371849, 0.08839628100395203, -0.05661031976342201, 0.1948869824409485, -0.07723086327314377, 0.09243697673082352, -0.06699850410223007], [-0.11773564666509628, -0.004292845260351896, -0.07470950484275818, -0.2262752205133438, -0.08376354724168777, -0.06899292021989822, -0.024045830592513084, -0.1709478348493576, -0.40749892592430115, 0.08502359688282013, 0.062277901917696, 0.02857653982937336, -0.16019374132156372, -0.08487138152122498, 0.020404664799571037, -0.03054518811404705, 0.0016015851870179176, 0.0947001650929451, -0.06808938086032867, -0.09821420162916183, 0.04595043137669563, 0.26016855239868164, -0.0646057054400444], [0.1065521165728569, 0.036756064742803574, 0.14831745624542236, 0.056636400520801544, 0.16633088886737823, 0.05267522111535072, 0.12046999484300613, -0.12091803550720215, -0.020144740119576454, 0.10219323635101318, -0.08313252031803131, 0.11164698004722595, 0.13971978425979614, 0.05723844841122627, 0.09773530066013336, 0.149779811501503, -0.1434876173734665, -0.11433205008506775, 0.05170585587620735, -0.17265136539936066, -0.018779641017317772, 0.0997152104973793, 0.16398757696151733], [-0.005530598573386669, -0.09016904979944229, -0.12864677608013153, -0.11494215577840805, 0.2041235864162445, -0.11784947663545609, -0.02551582083106041, 0.07819303870201111, -0.08421298861503601, 0.10362927615642548, 0.06437714397907257, 0.5358509421348572, -0.1965436488389969, -0.02091805636882782, -0.08716345578432083, -0.08740469813346863, 0.24983352422714233, -0.2577020227909088, -0.03887457400560379, -0.11256005614995956, -0.11821043491363525, -0.04095959663391113, -0.061876606196165085], [0.23643319308757782, 0.1312222182750702, 0.012758338823914528, 0.015637490898370743, -0.13921579718589783, 0.1688738763332367, -0.026694204658269882, 0.22142350673675537, 0.40588146448135376, 0.44017958641052246, 0.02796955220401287, 0.13307172060012817, 0.011400277726352215, -0.20051053166389465, 0.04295184835791588, -0.06411343812942505, 0.038785748183727264, -0.09182668477296829, 0.05904807895421982, 0.03393283113837242, 0.016723508015275, 0.09179399907588959, -0.06362327933311462], [0.158429816365242, 0.0633605495095253, 0.18618598580360413, 0.15716417133808136, 0.19080133736133575, 0.2113492488861084, 0.06854185461997986, 0.19095295667648315, -0.0018510238733142614, 0.027384376153349876, 0.10036077350378036, -0.318880558013916, -0.27654582262039185, 0.08035118132829666, -0.09716067463159561, -0.06055228039622307, -0.0028078011237084866, -0.0932154729962349, 0.0412101112306118, 0.08185654878616333, -0.04045036435127258, -0.022280478850007057, 0.021281922236084938], [0.18059484660625458, -0.11920273303985596, -0.025027206167578697, 0.11137755960226059, -0.07295451313257217, -0.01629130356013775, 0.15522362291812897, -0.07921215891838074, -0.3081728219985962, 0.10017924010753632, 0.05218210816383362, 0.5989565849304199, 0.0072329603135585785, 0.13900239765644073, -0.24756568670272827, -0.07875220477581024, 0.18672743439674377, 0.02173733152449131, -0.07589364051818848, 0.16318103671073914, 0.006247587502002716, -0.06567514687776566, -0.1749686300754547], [-0.18030115962028503, -0.09765312820672989, -0.010033943690359592, -0.14656473696231842, 0.0814470648765564, -0.12665019929409027, -0.10799751430749893, 0.08941105008125305, -0.12418433278799057, -0.03827919811010361, 0.09773936122655869, 0.7975130081176758, 0.41369733214378357, -0.1015581488609314, -0.015680497512221336, -0.13055935502052307, 0.07150857150554657, -0.11538757383823395, 0.05344228819012642, 0.04225269705057144, 0.11692077666521072, 0.08387485146522522, 0.0798913985490799], [-0.16196125745773315, 0.2180173099040985, -0.16768302023410797, 0.04073387384414673, -0.1220611035823822, 0.024716150015592575, 0.04980047047138214, 0.23949259519577026, 0.011392702348530293, 0.005098247900605202, 0.17641375958919525, 0.1756412535905838, -0.03325540944933891, -0.13144221901893616, -0.0015631496207788587, 0.3099857568740845, -0.10777640342712402, 0.1308649778366089, 0.03442741557955742, 0.0501379631459713, -0.13105976581573486, 0.12487801164388657, -0.00047748006181791425], [-0.14274363219738007, -0.11834131181240082, -0.162969172000885, 0.11459869891405106, -0.03818280249834061, -0.013858257792890072, -0.08568598330020905, 0.15592063963413239, -0.32495591044425964, 0.3131248652935028, 0.05407808721065521, -0.05132573843002319, -0.011866498738527298, 0.19904261827468872, -0.1059366837143898, -0.05041792616248131, 0.1533544659614563, 0.11180770397186279, 0.04736156389117241, -0.0881684347987175, -0.10404951125383377, -0.17693395912647247, -0.08646438270807266], [0.12897998094558716, -0.12460952997207642, -0.04825855419039726, -0.08857258409261703, -0.005131203215569258, -0.17228443920612335, -0.17275312542915344, 0.0028253018390387297, 0.3920058310031891, -0.0031615772750228643, -0.0846860483288765, 0.18831489980220795, -0.05860043317079544, -0.08573567867279053, -0.07097602635622025, -0.04862706735730171, -0.09832865744829178, -0.020581508055329323, -0.00895498413592577, -0.1199290081858635, -0.19291779398918152, -0.27641382813453674, -0.05021999776363373], [-0.24847795069217682, -0.14507876336574554, -0.13472643494606018, 0.13421252369880676, 0.08325434476137161, 0.04703672602772713, 0.03738328069448471, 0.010723021812736988, 0.16311584413051605, -0.13102556765079498, 0.16132879257202148, 0.4073169231414795, 0.15146984159946442, 0.16262474656105042, -0.009572649374604225, -0.04035400599241257, -0.12319856882095337, 0.27180638909339905, -0.10288970172405243, 0.040061209350824356, 0.04706883803009987, -0.10156410187482834, 0.17083501815795898], [-0.1663815677165985, 0.10201089829206467, 0.02121737413108349, 0.03521797060966492, 0.0814041942358017, -0.039380285888910294, 0.10678478330373764, -0.18349072337150574, -0.07346883416175842, -0.041265543550252914, -0.09542243182659149, 0.4975561797618866, -0.12253659218549728, 0.16635678708553314, -0.17507046461105347, 0.030042553320527077, -0.0460064560174942, -0.022615978494286537, 0.028495214879512787, -0.12933659553527832, 0.12002673000097275, -0.10599571466445923, 0.22757123410701752], [0.09712336212396622, 0.0976986363530159, -0.1167268455028534, -0.04638560116291046, 0.1998264044523239, -0.08248501271009445, -0.008523397147655487, -0.16106349229812622, -0.6798852682113647, -0.16629332304000854, 0.1783306747674942, -0.05098218470811844, -0.0709821805357933, -0.11643049865961075, -0.07152281701564789, -0.06809202581644058, -0.213425412774086, -0.016117284074425697, -0.011826272122561932, 0.07233325392007828, 0.15340031683444977, -0.0471743643283844, 0.07240552455186844], [0.21973387897014618, -0.12095974385738373, -0.016614681109786034, -0.09576786309480667, -0.22354654967784882, -0.06836218386888504, -0.10763674229383469, 0.09133809059858322, -0.23336562514305115, -0.051235463470220566, -0.15391689538955688, 0.3871135115623474, 0.1378793865442276, 0.11860080808401108, -0.14912228286266327, 0.027025131508708, -0.11061929911375046, -0.122577965259552, 0.04960878938436508, -0.018465394154191017, -0.03209369629621506, -0.07590096443891525, -0.03332694619894028], [0.129865363240242, 0.10600573569536209, -0.05796918272972107, -0.19013698399066925, -0.17169630527496338, 0.10861305892467499, 0.010927045717835426, 0.15605483949184418, -0.12822659313678741, -0.08996705710887909, 0.054512426257133484, 0.08548544347286224, 0.14239710569381714, -0.05843547731637955, -0.08413088321685791, -0.1011057198047638, 0.09873133897781372, -0.022403493523597717, -0.12444300949573517, -0.11255795508623123, -0.10318856686353683, 0.11040004342794418, -0.04342609643936157], [0.14066672325134277, -0.1453680843114853, -0.10513070970773697, -0.16168755292892456, 0.01830759085714817, -0.15083293616771698, -0.06508007645606995, -0.1933375895023346, -0.10669949650764465, 0.025733910501003265, -0.09860394895076752, 0.21667338907718658, 0.11978641897439957, 0.06737305223941803, 0.08373507857322693, -0.19698576629161835, -0.12176501750946045, -0.19337843358516693, -0.025002075359225273, -0.03437531366944313, -0.1455337107181549, -0.27912965416908264, -0.058344677090644836], [-0.10717212408781052, -0.16828007996082306, -0.11224853992462158, -0.16583754122257233, 0.09618031978607178, -0.08314808458089828, -0.09347345679998398, 0.09698296338319778, -0.49227094650268555, 0.17821697890758514, -0.0514114610850811, -0.15801884233951569, -0.022563369944691658, -0.0905008614063263, 0.031420402228832245, -0.08560577780008316, 0.233335480093956, 0.14659483730793, 0.22143743932247162, -0.050703439861536026, 0.16101235151290894, 0.007190696895122528, -0.11999917775392532], [-0.18810556828975677, -0.08921133726835251, 0.16009904444217682, -0.18431216478347778, 0.02414238266646862, -0.1479571908712387, -0.06471080332994461, 0.09390964359045029, 0.6228159666061401, 0.4085047245025635, 0.043197792023420334, 0.30576735734939575, -0.13174128532409668, -0.05958111956715584, 0.01571536995470524, 0.08820151537656784, -0.027687910944223404, -0.0413624532520771, 0.059608109295368195, 0.03181709349155426, -0.04332151263952255, -0.037612635642290115, 0.1888510286808014], [0.10960095375776291, 0.08630871772766113, -0.10877110809087753, -0.12439090013504028, 0.13688702881336212, -0.10862617194652557, 0.08515791594982147, 0.19499382376670837, -0.8166590332984924, -0.3275245726108551, -0.03354722633957863, -0.18225319683551788, 0.00021862373978365213, 0.1262967437505722, 0.20129023492336273, -0.04307181015610695, 0.015394134446978569, 0.2204899936914444, 0.04673556983470917, 0.04002932831645012, 0.03743111342191696, 0.04799776151776314, 0.1260964274406433], [-0.044228892773389816, -0.057167988270521164, 0.15377268195152283, 0.004385287407785654, 0.3991171419620514, -0.061025504022836685, -0.04998569190502167, 0.08420762419700623, 0.11332454532384872, -0.18476325273513794, -0.030416294932365417, -0.24271422624588013, -0.1507607251405716, -0.043741170316934586, -0.004871421493589878, 0.0840703547000885, -0.16394595801830292, -0.11178203672170639, -0.0706058144569397, 0.09296403080224991, -0.12406536191701889, 0.444261759519577, 0.19386951625347137], [0.10102684050798416, -0.06496020406484604, -0.17184387147426605, 0.11966680735349655, 0.030184520408511162, -0.15870819985866547, 0.08718758076429367, -0.061773285269737244, -0.29759228229522705, 0.10994565486907959, -0.08471541106700897, 0.05508405715227127, 0.29800286889076233, 0.0497860424220562, -0.028182296082377434, -0.12147657573223114, 0.10583347082138062, -0.007575717754662037, 0.15854066610336304, -0.11328323185443878, 0.05575098469853401, 0.01932287961244583, 0.1511007845401764], [0.17978715896606445, -0.08953073620796204, -0.017736641690135002, -0.15210625529289246, -0.0594625249505043, 0.1043052151799202, -0.05934843420982361, 0.13290174305438995, -0.05615382269024849, -0.18046551942825317, -0.04647639021277428, -0.6806217432022095, 0.20022046566009521, 0.05787036195397377, -0.13113076984882355, -0.001958738313987851, -0.05786753445863724, -0.04238581284880638, -0.038138341158628464, 0.02198478952050209, 0.059665899723768234, -0.07091441750526428, -0.02911495603621006], [-0.1350824534893036, -0.05787939950823784, 0.05331271514296532, -0.13393251597881317, 0.032646507024765015, 0.06692176312208176, 0.04775179177522659, 0.156887024641037, 0.012130221351981163, 0.16655750572681427, 0.03280315175652504, 0.2516205608844757, -0.02008664794266224, -0.06803832203149796, -0.05770688131451607, -0.12081588804721832, 0.1669337898492813, 0.1319538950920105, 0.399074912071228, 0.09891872107982635, -0.027098722755908966, 0.001115693710744381, -0.019809842109680176], [0.23247559368610382, 0.012872816063463688, -0.15618544816970825, 0.013361332006752491, 0.15940354764461517, 0.061431195586919785, -0.21185117959976196, -0.00785740651190281, -0.34626302123069763, 0.10413055121898651, -0.0536477267742157, 0.250599205493927, 0.10829252749681473, 0.29888617992401123, 0.13649314641952515, 0.09817646443843842, -0.09504581242799759, 0.11018286645412445, 0.021102696657180786, -0.18877993524074554, 0.10362441092729568, -0.28428080677986145, 0.12784352898597717], [-0.07065298408269882, 0.09108192473649979, -0.09437891095876694, -0.19297082722187042, -0.10704997181892395, 0.036114148795604706, -0.05733400955796242, 0.16355368494987488, -0.1364528387784958, 0.11321467906236649, 0.21330758929252625, -0.21823173761367798, -0.29193106293678284, -0.15043315291404724, -0.09227930754423141, 0.008693037554621696, 0.15077102184295654, -0.1824440360069275, 0.13526372611522675, 0.009361805394291878, -0.102766253054142, -0.018082624301314354, -0.07032497972249985], [-0.02381669171154499, -0.03684753552079201, -0.05272030085325241, 0.1518474966287613, 0.16473166644573212, 0.07230427861213684, 0.20207692682743073, -0.010830862447619438, -0.05273990333080292, -0.206069216132164, -0.016410890966653824, 0.20515938103199005, -0.10511694848537445, 0.08898142725229263, -0.09361036121845245, -0.10291353613138199, 0.01875782571732998, 0.14565439522266388, 0.10981500148773193, 0.14081598818302155, 0.16694918274879456, 0.014904452487826347, -0.030165012925863266], [-0.24224953353405, 0.10941168665885925, -0.014191927388310432, -0.06822472810745239, 0.10289965569972992, 0.04726943001151085, -0.06048416346311569, -0.20624671876430511, 0.13605639338493347, -0.04057411104440689, -0.13586483895778656, 0.05938715115189552, -0.1810963749885559, -0.7081594467163086, 0.21688100695610046, -0.018402881920337677, -0.29628512263298035, -0.015298061072826385, -0.10448340326547623, 0.06593719869852066, -0.0022172839380800724, 0.005021068267524242, 0.23712308704853058], [-0.08368823677301407, 0.061792850494384766, 0.17027708888053894, -0.035267818719148636, -0.12854762375354767, 0.12030326575040817, -0.0484025701880455, 0.07497987896203995, -0.9172849655151367, 0.5778009295463562, 0.07368461787700653, -0.2516663670539856, -0.1193118542432785, 0.07990185916423798, 0.0443490594625473, -0.0253136046230793, -0.10664787888526917, 0.011148433201014996, -0.017836080864071846, 0.16469740867614746, 0.10105941444635391, -0.013660971075296402, 0.08120999485254288], [0.04040908440947533, 0.10486787557601929, -0.00573279382660985, 0.04516700282692909, -0.13510902225971222, 0.042340442538261414, 0.13538649678230286, -0.03337755426764488, -0.008232166059315205, -0.22343316674232483, 0.14285217225551605, -0.025614360347390175, 0.14824745059013367, -0.14470356702804565, -0.14641229808330536, 0.12022159993648529, -0.054961197078228, -0.14549987018108368, 0.28159600496292114, -0.04027207940816879, -0.06094885990023613, -0.075238436460495, 0.1714649796485901], [-0.10042084753513336, 0.1043238714337349, -0.027825800701975822, 0.03731794282793999, -0.12250283360481262, 0.049431733787059784, 0.1744081825017929, 0.005169335752725601, -0.2686940133571625, 0.4030649662017822, 0.01809544861316681, -0.28730377554893494, -0.20804908871650696, 0.17785166203975677, 0.1350524127483368, -0.10354474186897278, -0.021918809041380882, -0.10479617118835449, -0.10777181386947632, -0.1633629947900772, 0.11372139304876328, -0.14546537399291992, -0.1552327424287796], [0.2527657747268677, -0.12094341963529587, -0.03605823218822479, 0.1455593705177307, 0.036669690161943436, 0.08079560101032257, -0.19707636535167694, -0.19732268154621124, -0.3040684461593628, -0.01150890626013279, 0.09742364287376404, -0.044062308967113495, 0.019090548157691956, -0.021197721362113953, 0.01153162308037281, 0.0663328543305397, -0.0544726736843586, 0.21678750216960907, 0.4464821219444275, -0.008861014619469643, 0.05273452773690224, -0.22564159333705902, -0.10218598693609238], [-0.08001363277435303, -0.028883833438158035, 0.13865984976291656, 0.07976041734218597, -0.19576552510261536, 0.2319575548171997, 0.15498557686805725, 0.16314931213855743, -0.36367377638816833, -0.1606011986732483, 0.06951438635587692, -0.08924197405576706, -0.16226603090763092, -0.06049073487520218, 0.009620183147490025, 0.015862328931689262, 0.20975500345230103, -0.20016303658485413, 0.15126881003379822, 0.11481191217899323, 0.10804121196269989, -0.26253193616867065, -0.1720253825187683], [0.2097979485988617, 0.03328491374850273, 0.24149875342845917, 0.12266099452972412, 0.09209301322698593, 0.041165582835674286, 0.12898749113082886, 0.13935168087482452, -0.134975403547287, 0.08675913512706757, -0.09330760687589645, 0.141366645693779, 0.28365927934646606, -0.015713276341557503, 0.05729812756180763, 0.10911276936531067, 0.24199797213077545, -0.01811358332633972, 0.11827964335680008, 0.0013759623980149627, -0.020729679614305496, 0.009250619448721409, -0.27417799830436707], [-0.0026223117019981146, 0.015559450723230839, 0.008207720704376698, 0.07639341801404953, -0.20252388715744019, -0.04163626953959465, 0.10082090646028519, -0.16494065523147583, 0.13886448740959167, 0.017246736213564873, -0.1520339399576187, -0.12940993905067444, -0.11189097166061401, -0.23042671382427216, -0.05995572358369827, -0.16298788785934448, 0.17774035036563873, 0.1598300337791443, 0.6546666026115417, -0.06438982486724854, -0.1225074753165245, -0.02659771963953972, 0.10981578379869461], [0.24746622145175934, -0.08625596016645432, 0.11013194918632507, -0.015722054988145828, 0.1372433602809906, 0.05463813990354538, -0.003990660887211561, -0.03521854430437088, 0.2390633523464203, -0.0032145725563168526, 0.05210244283080101, 0.04246428608894348, 0.10378838330507278, -0.17167812585830688, 0.09616667032241821, 0.04804890230298042, -0.042072806507349014, 0.10675019025802612, -0.047849494963884354, 0.10827399045228958, -0.005313586909323931, 0.022854160517454147, -0.07208617776632309], [-0.022602373734116554, 0.03953326866030693, -0.10324733704328537, 0.07785327732563019, 0.1442509889602661, 0.06723949313163757, -0.1482987403869629, -0.053717996925115585, 0.08163193613290787, -0.064614437520504, 0.11987589299678802, -0.044654108583927155, 0.2339777946472168, -0.00892365351319313, 0.02912355214357376, -0.09698886424303055, 0.09227747470140457, 0.16354738175868988, 0.07634160667657852, -0.041390206664800644, 0.011410515755414963, 0.044800661504268646, -0.04123922437429428], [0.0677483007311821, -0.1869877576828003, -0.04035215824842453, -0.2697374224662781, -0.06967620551586151, -0.143717959523201, -0.06052298843860626, 0.1217397153377533, -0.08187566697597504, -0.12010273337364197, 0.1499188393354416, 0.1186835914850235, -0.011482088826596737, 0.04843704774975777, -0.01812058314681053, 0.15688587725162506, -0.10917714238166809, 0.023868437856435776, 0.29365161061286926, -0.15923242270946503, -0.08723874390125275, -0.02900196611881256, -0.20777565240859985], [0.05618095025420189, 0.10630521923303604, -0.09996753185987473, 0.1440497189760208, -0.0698685348033905, 0.1823018193244934, 0.12606306374073029, 0.049519285559654236, -0.09817300736904144, -0.23232021927833557, 0.03897057846188545, 0.27594685554504395, 0.2240450084209442, -0.09720619767904282, -0.169139564037323, 0.1106681376695633, 0.017878921702504158, -0.023291219025850296, -0.11884462833404541, 0.15309898555278778, 0.13848929107189178, 0.04014553129673004, -0.14208140969276428], [-0.1708461195230484, 0.06753992289304733, -0.08953912556171417, 0.06307827681303024, 0.03399963676929474, -0.07129745930433273, 0.1464855819940567, 0.0464174784719944, -0.06841344386339188, -0.047923341393470764, 0.004133070819079876, -0.052890799939632416, 0.26198890805244446, 0.014180362224578857, 0.08443402498960495, -0.16370075941085815, 0.05328141525387764, -0.059258367866277695, 0.1545487344264984, 0.0007376509602181613, 0.22536538541316986, 0.09363564103841782, -0.113685742020607], [-0.034557607024908066, -0.006544025614857674, 0.1162300631403923, -0.10786987841129303, -0.03905576840043068, -0.08328647911548615, -0.0266170185059309, -0.061613794416189194, -0.40198656916618347, -0.09005183726549149, -0.047461263835430145, -0.37860316038131714, -0.20826038718223572, 0.11384674161672592, 0.22269265353679657, -0.11346271634101868, -0.0666261836886406, -0.16951067745685577, 0.07000458240509033, -0.16293540596961975, 0.03456950560212135, -0.09233808517456055, 0.19439730048179626], [-0.015634270384907722, -0.10071828961372375, 0.017609359696507454, -0.26705825328826904, -0.07025589793920517, -0.07612530887126923, -0.07920398563146591, 0.15952728688716888, 0.029934732243418694, -0.07779473066329956, 0.0928422212600708, -0.061134472489356995, 0.030805237591266632, -0.0060927774757146835, 0.02148859016597271, -0.011365748941898346, -0.04596344009041786, -0.4356365501880646, -0.13192448019981384, 0.02990071102976799, -0.15491685271263123, -0.005671833176165819, 0.06983150541782379], [-0.20543017983436584, -0.22234734892845154, -0.03353385254740715, 0.26444849371910095, 0.07747755944728851, 0.008671601302921772, 0.24493257701396942, -0.1476345956325531, 0.0034382606390863657, -0.16465981304645538, 0.011803609319031239, 0.07734150439500809, 0.016380105167627335, -0.05843675881624222, 0.12377876788377762, -0.04787416011095047, -0.02346622943878174, -0.042283546179533005, -0.04514155164361, -0.06887395679950714, 0.03357711806893349, 0.04744355380535126, -0.20657464861869812], [-0.11276763677597046, -0.1785363107919693, 0.061076194047927856, 0.14927120506763458, -0.10713211447000504, -0.1227041631937027, -0.18015438318252563, -0.2146558165550232, -0.11003977060317993, -0.009289971552789211, -0.14698022603988647, -0.0864485651254654, 0.12361150234937668, -0.18340501189231873, -0.14776484668254852, 0.19495832920074463, -0.13735802471637726, -0.18673621118068695, 0.06361346691846848, -0.1934470534324646, -0.08685550093650818, -0.13111908733844757, 0.16244034469127655], [-0.01556236483156681, 0.15513314306735992, 0.0848660096526146, 0.07136882841587067, -0.21083180606365204, 0.10238012671470642, -0.04478606581687927, -0.048607584089040756, -0.20065969228744507, 0.3027905225753784, -0.11613583564758301, -0.09012704342603683, 0.027865998446941376, -0.12694606184959412, 0.034360747784376144, 0.15457002818584442, -0.19691692292690277, -0.00727101368829608, -0.15950484573841095, 0.016244323924183846, 0.1104443222284317, -0.015113197267055511, -0.01887461356818676], [0.033288292586803436, -0.04243422672152519, 0.20802626013755798, -0.17764164507389069, -0.2243184596300125, -0.1622944474220276, 0.03516342490911484, -0.121536485850811, 0.16532699763774872, 0.09117846935987473, 0.07669945061206818, 0.3764554560184479, -0.27911505103111267, 0.21224018931388855, 0.045631371438503265, -0.012865680269896984, -0.009377985261380672, -0.07396725565195084, 0.062180038541555405, 0.07425764203071594, 0.0014027463039383292, 0.035703543573617935, -0.07069739699363708], [0.20725561678409576, 0.05266515910625458, -0.20908811688423157, -0.07764624804258347, 0.11637434363365173, -0.029734043404459953, 0.12465360760688782, 0.09401475638151169, 0.7547235488891602, -0.36139023303985596, -0.042063407599925995, 0.06291526556015015, 0.04034662991762161, 0.07440198212862015, 0.005189323797821999, -0.031120963394641876, 0.15466977655887604, -0.15553323924541473, -0.04944414645433426, 0.14209479093551636, -0.06010192632675171, 0.12918516993522644, -0.06015804782509804], [-0.05983841419219971, 0.03170914947986603, -0.08385869860649109, 0.07807853072881699, -0.20122398436069489, 0.011125372722744942, -0.048041995614767075, 0.14080992341041565, 0.06056874617934227, 0.011042811907827854, -0.1272781640291214, 0.25278720259666443, -0.2767564058303833, 0.14351385831832886, 0.15144595503807068, 0.0371534563601017, -0.14210818707942963, 0.042152006179094315, 0.0875098928809166, 0.027111317962408066, 0.044539324939250946, -0.08034995198249817, 0.10647788643836975], [-0.14246003329753876, 0.08692723512649536, 0.1297830194234848, -0.17030775547027588, 0.15580229461193085, -0.0195448137819767, -0.09428573399782181, -0.21243177354335785, 1.1859405040740967, -0.242547869682312, 0.14533627033233643, 0.12213639914989471, -0.0857539027929306, -0.07761901617050171, -0.08010462671518326, -0.0773528441786766, -0.10008452832698822, -0.08886659145355225, 0.08572235703468323, 0.018061691895127296, 0.06581003218889236, 0.032175976783037186, -0.08857506513595581], [-0.2002529799938202, -0.1478503942489624, -0.06935888528823853, 0.2225877046585083, 0.3514500558376312, 0.17092503607273102, 0.27261102199554443, 0.14024774730205536, 0.007329292129725218, -0.2148951292037964, -0.020121954381465912, -0.16812632977962494, -0.060408346354961395, -0.19601455330848694, -0.20980292558670044, 0.16241678595542908, -0.21870611608028412, -0.014721034094691277, -0.18709824979305267, 0.01946248672902584, 0.04257611930370331, 0.09830036759376526, 0.21763917803764343], [0.019859645515680313, 0.05763676390051842, -0.04340561851859093, -0.08097631484270096, 0.06286605447530746, 0.19773752987384796, -0.0375545434653759, -0.08018399029970169, -0.28260886669158936, 0.23189103603363037, 0.14491429924964905, -0.24925191700458527, -0.21741417050361633, -0.05025186762213707, 0.14373072981834412, -0.16162671148777008, -0.18501806259155273, 0.08258919417858124, -0.08867499232292175, -0.14384762942790985, -0.08363047987222672, -0.12612973153591156, 0.03349652886390686], [-0.10119044035673141, -0.09240729361772537, -0.19310347735881805, 0.05907947197556496, 0.08093409240245819, -0.16799664497375488, -0.02590688318014145, -0.1264483630657196, -0.08539490401744843, -0.07385841757059097, -0.19692270457744598, 0.1209811419248581, 0.08901336789131165, -0.18585330247879028, -0.021589495241642, 0.07083425670862198, -0.05321834981441498, -0.05684397369623184, 0.031560301780700684, 0.0004106352280359715, -0.02544444613158703, -0.1854488104581833, -0.0032779977191239595], [-0.05050160363316536, 0.040054790675640106, 0.08190690726041794, -0.21850329637527466, 0.07218805700540543, 0.047597434371709824, 0.025020277127623558, 0.14627760648727417, 0.09871789067983627, -0.14501482248306274, 0.19803714752197266, -0.0652790367603302, -0.25520941615104675, -0.3241131007671356, -0.06946463882923126, 0.06779693812131882, -0.07465405017137527, 0.3689616322517395, -0.054247789084911346, 0.12562121450901031, -0.12887151539325714, 0.0016459122998639941, -0.18050067126750946], [0.1794043332338333, -0.04199044406414032, -0.05577203258872032, -0.10180030018091202, -0.07254250347614288, 0.11752715706825256, 